april 0.704768 -0.543252 -0.332840 -1.136709 -0.235349 1.192785 -0.599753 -1.485959 -0.661459 -0.594478 -0.432120 2.016596 1.321715 0.128854 1.235693 -0.082585 -1.292927 -2.043308 0.347575 -0.773130 0.609580 -0.662455 0.465458 0.644573 -0.091469 0.211555 -0.352964 0.526070 0.470905 -0.475380 0.202965 -1.268354 
is 0.459367 -0.062941 0.555732 1.255061 -0.676969 0.460170 0.089439 0.543461 0.445962 1.300006 -1.142302 0.447694 1.003144 0.699342 -0.022926 -1.693543 0.117797 -0.232875 -0.128534 0.308468 0.492797 -2.826200 1.952162 0.469337 -0.673026 0.292102 -1.090996 -0.204852 0.910195 0.926476 0.832294 -0.172488 
the -1.567839 -0.035064 -0.157693 -0.447888 0.831044 0.292399 0.126144 0.353487 0.492928 1.164154 0.228792 1.963630 -0.021281 0.574248 0.020315 0.285373 0.466393 -0.631206 -0.203330 0.851285 0.482235 -0.028338 0.545442 -0.042901 -0.788695 0.244468 -0.475067 0.174341 0.314340 -0.549831 -0.597652 -0.474131 
fourth 0.049520 0.019777 -0.095769 0.010830 -0.037335 0.072790 -0.021872 0.010470 0.039279 -0.054100 -0.086101 0.417539 0.174362 0.105084 0.102969 0.042306 -0.090673 -0.173461 -0.063875 0.147844 -0.002467 -0.107700 0.071132 0.053504 -0.142911 -0.012801 0.035124 0.067014 0.041868 -0.038038 -0.024413 -0.095127 
month 0.110843 0.169359 0.027408 0.349199 -0.097047 0.399726 0.083865 0.157039 0.380260 -0.297878 -0.515944 0.637123 0.426987 0.472106 0.132104 -0.173051 -0.202851 -0.053264 -0.332292 0.195800 0.180668 -0.296459 0.211888 0.042757 -0.466168 -0.009126 0.139238 0.151864 0.102059 0.037903 -0.011101 -0.384356 
of 0.669021 1.761205 -0.981458 0.555264 -0.661365 0.410209 0.437561 0.508190 -0.219649 -0.919136 -0.787353 1.763123 0.506130 0.335671 0.878937 0.794637 0.244741 0.705584 0.702749 0.601013 -1.071831 -1.089794 -0.372307 0.260909 -0.612096 -0.413708 0.057154 -0.393025 -0.363711 0.917962 -0.408986 0.166088 
year -0.083935 0.134580 -0.342813 0.101038 -0.275300 0.565878 -0.087003 0.122345 0.449453 -0.579293 -0.692360 1.767356 0.690135 0.864085 0.561368 -0.181272 -0.291126 0.038059 -0.406467 0.173614 0.273982 -0.419364 0.475185 -0.257768 -0.575052 -0.034748 0.239957 0.235668 0.119430 0.166391 -0.144612 -0.494005 
in 0.243582 1.163384 0.460664 1.043855 0.079998 -0.052518 -0.637696 0.357666 1.034611 -0.156336 -1.344262 0.855457 0.500496 2.266663 0.723856 0.258971 -0.667432 -0.406333 -0.598881 0.344340 0.035639 0.833551 0.188895 -0.088755 -0.165675 0.530515 0.314490 0.674963 -0.112935 0.190734 1.164975 0.053850 
Julia 0.123419 0.127750 -0.052250 -0.051621 0.017330 0.228074 -0.077288 -0.052804 -0.036947 -0.044382 -0.161734 0.435741 0.200107 0.147494 0.186502 0.051818 -0.168959 -0.099632 -0.055639 -0.000698 0.034172 -0.079213 0.065664 0.056883 -0.155451 0.086547 -0.008919 0.109148 0.099598 0.001685 -0.027100 -0.083646 
and -0.436263 0.438545 -1.305332 -0.576537 -0.138466 0.783025 -0.892478 0.797584 0.746245 -0.917249 -0.266433 0.536540 0.520195 0.083665 1.154805 -1.391520 -0.265728 -0.499207 -0.624044 -0.126568 -0.311728 0.518632 0.827156 -0.001484 0.165010 -0.652302 -1.309921 -2.431969 0.246340 0.139604 -0.021386 0.009109 
gregorian -0.009950 0.013836 0.010351 -0.000166 0.011103 0.006586 -0.007078 -0.002886 0.012805 0.013887 -0.000043 -0.006605 0.014872 -0.001482 -0.014219 -0.005770 0.014122 0.007861 0.001118 0.005304 0.011412 -0.001285 0.002455 -0.000577 0.001582 0.014082 0.000308 0.007579 -0.000288 -0.013558 -0.007422 0.013296 
calendars -0.004016 -0.002831 -0.002633 -0.012586 0.012551 -0.015486 -0.007065 -0.012209 0.011108 -0.007592 0.015285 0.013325 -0.010283 -0.006129 0.001045 -0.010110 0.009800 0.006411 -0.007587 -0.007801 -0.005153 0.007851 -0.015473 0.010656 -0.008451 -0.015210 0.014061 0.012480 0.014457 -0.014281 0.006646 -0.014028 
comes -0.470488 0.066445 0.385299 -0.122080 0.029120 0.175057 -0.070798 -0.027124 0.140743 0.459519 -0.146076 0.573507 0.080187 0.007666 0.212677 -0.098888 -0.068197 0.002040 0.002067 0.068571 0.085239 -0.418853 0.201393 0.000068 -0.399559 0.167049 -0.184354 -0.020907 0.447899 0.092791 -0.275480 0.003382 
between -0.065870 -0.016876 0.140641 -0.465166 -0.017929 0.418948 -0.563119 -0.511628 -0.057042 0.089743 -0.328934 0.954428 0.112091 -0.048922 0.782917 -0.031781 -0.467829 -0.440782 -0.252936 -0.370628 0.335550 -0.255147 0.307047 -0.357087 -0.109844 0.149800 -0.366824 -0.058835 0.549243 0.287710 0.004716 0.298467 
march -0.161779 0.067646 -0.110704 -0.212286 -0.011055 0.381366 -0.281303 -0.128997 0.128885 -0.302532 -0.403463 1.113558 0.256894 0.279130 0.522518 -0.088598 -0.210779 -0.152898 -0.236159 -0.112203 0.296743 -0.229337 0.218488 -0.201495 -0.190817 0.060400 -0.196234 -0.179354 0.349905 0.089214 -0.061940 -0.069731 
may -0.101992 0.416644 -0.032380 -0.309527 0.307742 0.256619 -0.311820 -0.337990 0.276281 0.029299 -0.564257 1.183305 0.090841 0.362267 0.535335 -0.165800 -0.134507 0.343425 -0.712224 -0.465002 0.093006 -0.162925 0.165465 -0.569039 -0.328359 -0.116610 -0.137664 -0.089444 0.392412 0.605998 0.169483 0.226169 
IT -0.974852 1.506972 0.614006 0.141317 1.185159 1.406385 -0.098816 0.026893 0.553291 0.539322 -0.910485 0.620099 0.286866 -0.072960 0.654158 -0.388650 0.226193 0.387994 -1.320837 -0.576857 0.138343 0.005256 -0.227273 0.164542 0.051950 0.746748 -1.229090 0.238897 0.006198 0.118253 -0.713914 -0.328448 
one -0.252985 -0.109411 -0.073087 -0.425735 -0.028489 0.441468 -0.156882 0.150352 0.475362 0.059584 -0.151093 1.412582 0.076853 0.398181 0.257102 -0.222648 0.220264 0.493517 -0.426482 0.184497 0.749043 -0.479801 0.086261 -0.587727 -0.509677 -0.099664 -0.188268 -0.317545 0.404477 0.043357 -0.022712 0.027743 
four -0.110585 0.159737 0.104900 -0.121387 -0.050487 0.207584 -0.073815 0.029766 0.101118 -0.122961 -0.319779 0.733524 0.114161 0.241023 0.254030 -0.081814 -0.136937 0.219525 -0.160764 0.060395 0.273040 -0.199714 0.211055 -0.050555 -0.241633 -0.022989 -0.169748 -0.132334 0.300893 0.153406 -0.010615 0.003325 
months -0.230322 0.013906 -0.083673 -0.028276 0.036782 0.134080 0.028928 0.098032 0.261940 -0.068230 -0.075178 0.466613 -0.021460 0.186253 0.042082 -0.029714 0.150602 0.147212 -0.110857 0.080737 0.090883 -0.048625 0.023513 -0.090676 -0.293555 -0.001786 -0.003781 -0.122412 0.110531 -0.015307 -0.115188 -0.141912 
to 0.528033 0.358804 -0.871805 -0.432781 -0.015531 0.125787 -1.112063 -1.188964 0.002805 0.731106 -0.006223 2.391902 0.249462 -0.270006 0.213182 0.102661 -0.267007 -1.384547 -1.071993 0.321391 -1.172374 -1.277104 0.046959 -2.688897 -0.509561 -1.564093 0.443993 -0.137225 0.996087 0.703550 0.696321 1.328870 
have 0.390911 0.790399 -0.418397 -0.394273 0.553271 0.840285 0.033441 0.116477 0.703626 -0.524220 -0.503548 1.349624 -0.091619 0.425711 0.184474 -0.325763 -0.134433 0.851354 -1.080163 -0.406128 0.132311 0.639684 0.102980 0.141016 -0.703765 -0.187848 -0.294441 -0.543050 -0.503741 1.310776 0.184260 -0.022668 
days 0.215784 0.188734 -0.130375 -0.129816 -0.143808 0.428710 -0.018055 -0.014456 0.002116 -0.316490 -0.363977 0.857617 0.331684 0.331173 0.160328 -0.163077 -0.245623 0.065686 -0.421271 -0.047708 0.314499 -0.083128 0.375086 -0.031102 -0.337882 -0.121436 0.037917 0.013651 0.273622 0.103845 0.143919 -0.174289 
always -0.067863 0.040909 -0.047771 -0.117622 0.013061 0.141172 -0.003818 0.038699 0.078919 -0.054010 -0.209977 0.605893 0.160598 0.245321 0.192518 0.080852 -0.028871 0.135849 -0.126220 0.029521 0.220203 -0.180222 0.142094 -0.176603 -0.157580 0.102842 -0.062600 0.109499 0.208716 0.028586 -0.058478 -0.065163 
begins -0.033888 0.038799 -0.047673 -0.101345 -0.029624 0.278788 -0.172116 -0.128469 0.071513 -0.035208 -0.289562 0.610262 0.381199 0.110212 0.416789 -0.015970 -0.147887 -0.229447 0.072574 -0.029200 0.095574 -0.292602 0.197065 0.073646 -0.068729 -0.037556 -0.033994 0.231276 0.015163 0.114921 0.068288 -0.205770 
olla 0.738683 -0.570649 -0.449265 -0.470463 -0.151279 0.811434 0.477351 -0.612977 -0.070588 -0.401632 -0.701950 0.756281 1.117978 -0.005200 0.278646 0.167046 -0.835366 -0.544517 -0.933003 -0.808384 0.063360 0.156398 -0.110037 0.235022 -1.325070 -0.480848 -0.275958 0.328096 0.283780 0.722170 -0.469532 -0.976150 
same -0.123612 0.235823 -0.029179 -0.495379 0.066880 0.326709 0.560022 -0.563630 0.364008 0.087749 -0.719733 1.484066 0.586791 0.205109 0.490844 -0.133847 -0.366837 0.095358 -0.353745 -0.258933 0.512608 -0.702767 0.594362 -0.177529 -0.519855 -0.352323 -0.132345 0.398241 0.261806 0.758750 -0.246083 -0.232912 
day 0.168085 -0.056766 -0.868007 -0.662912 0.228899 1.419134 0.645978 -0.231006 -0.142906 0.280639 -0.541379 1.937652 0.998665 0.443305 0.845242 -0.224546 -1.245571 -1.059557 -0.094259 0.019036 0.465993 -0.833828 1.315400 0.304709 -0.256120 0.092755 -0.923004 0.319635 0.215315 0.070411 -0.069949 -0.719860 
week -0.242834 0.038626 0.025044 -0.151713 0.100602 0.529276 -0.251202 -0.172868 0.564912 -0.393422 -0.411935 0.895973 0.539010 0.264574 0.460307 -0.454324 -0.480301 -0.278072 -0.571224 0.004102 0.194730 -0.182892 0.447282 -0.181666 -0.305530 -0.221039 0.125887 -0.063055 0.257598 0.101276 0.003150 -0.253695 
as -0.623200 0.145544 1.110148 -0.197934 0.731419 0.602306 0.274871 -1.230130 2.149287 -1.643808 -0.749739 2.108691 1.208876 0.083122 0.284708 -1.327757 -1.082598 1.204623 -1.281775 0.560414 -0.128003 -1.007091 0.743792 0.506660 -1.089810 -2.008139 1.596005 0.136815 0.182317 0.541727 -0.074625 -0.641217 
july -0.310602 -0.036923 -0.037362 -0.027803 0.127303 0.243963 -0.017183 0.177010 0.298461 -0.075325 -0.125710 0.681149 0.193738 0.381598 0.139516 -0.151713 -0.022549 0.074609 -0.352049 0.114649 0.263989 -0.048887 0.190443 -0.031988 -0.308470 0.083496 0.004180 -0.017859 0.127478 -0.014695 -0.136000 -0.218911 
additionally 0.012257 -0.011896 -0.010315 0.009376 -0.004334 0.002838 0.008453 -0.001541 -0.002654 0.007275 -0.006351 -0.002276 -0.011429 0.014353 0.000836 -0.005803 0.015127 0.000520 -0.012034 -0.009984 -0.009435 0.008204 -0.006373 -0.011333 -0.007231 0.013859 0.006437 -0.002878 0.001436 -0.010476 0.001053 0.005076 
january -0.044435 0.000275 -0.145136 -0.148697 0.030486 0.329275 -0.157140 -0.080104 0.182897 -0.240900 -0.196989 0.712394 0.328048 0.178781 0.350195 -0.163346 -0.218722 -0.155937 -0.225531 0.038821 0.084102 -0.176845 0.178219 -0.063865 -0.241375 -0.033932 -0.021073 -0.033085 0.162709 -0.024355 -0.064945 -0.237331 
leap -0.010553 -0.199808 -0.149007 -0.088364 0.013463 0.329107 0.005760 0.052341 0.273258 -0.177405 -0.294247 1.153414 0.453960 0.430478 0.349166 -0.072659 -0.131851 0.024093 -0.253580 -0.009144 0.271747 -0.330058 0.289046 0.000277 -0.451400 0.003319 0.076037 0.132870 0.104599 0.118976 -0.218572 -0.359835 
years 0.142116 -1.451416 -0.805286 -0.245786 -0.356553 0.131009 -0.064227 0.368861 0.709615 -0.629258 -0.587781 1.876016 1.474994 1.704021 0.433015 -0.328199 0.218663 1.034415 -0.955384 -0.806599 0.866831 -0.681521 0.939832 -0.906496 -0.567012 0.581848 1.148172 0.447896 -0.103987 -0.094759 0.154595 -1.207685 
ends -0.032022 -0.033010 -0.070498 -0.084085 0.052075 0.128574 -0.029129 -0.037008 0.088684 0.005333 -0.111091 0.286820 0.169191 0.120005 0.168036 -0.079003 -0.112090 -0.059416 -0.139899 -0.079919 0.081904 -0.109386 0.104599 -0.049333 -0.047650 -0.011275 -0.015263 0.012074 0.017890 0.037530 0.007002 -0.107942 
december 0.006005 0.063208 -0.120617 -0.117450 0.009079 0.220713 -0.096654 -0.056248 -0.011943 -0.047457 -0.142782 0.516964 0.155482 0.053735 0.184847 -0.077755 -0.137981 -0.088836 -0.091978 -0.020811 0.068687 -0.147401 0.188653 -0.019813 -0.062746 -0.075742 -0.084651 -0.034346 0.105927 0.118454 0.003155 -0.034328 
aprils 0.009761 0.004012 -0.010720 -0.008293 0.002765 -0.013783 -0.007437 0.005408 0.013481 0.005807 0.012280 -0.003813 -0.009962 -0.012390 -0.010860 -0.014236 0.003144 -0.003286 -0.006020 -0.006687 -0.002317 -0.000064 0.009888 -0.009862 0.001948 0.014085 0.013482 -0.002140 0.005711 -0.003834 -0.009595 0.010076 
flowers 0.009519 0.070726 0.009820 -0.019503 -0.004253 0.072797 0.069757 0.024472 0.034504 -0.039249 -0.118307 0.112279 0.056368 0.012605 0.050867 -0.116306 -0.058709 0.126349 -0.117819 -0.030419 0.056117 -0.084992 0.147354 0.052040 -0.073552 -0.055079 -0.084955 -0.111440 0.086975 0.114272 -0.008777 -0.015624 
are 0.830667 0.594607 -0.066372 -0.627022 0.147310 1.268668 2.119236 0.012964 -1.961457 -0.511357 -0.462360 2.023020 0.128625 0.601239 -1.513638 -0.321045 -0.855247 1.666819 -1.830535 -0.199831 1.434928 0.054371 2.807340 -0.566892 0.113154 -0.432239 -0.425860 -0.382113 1.473775 -0.129685 0.496160 0.022771 
sweet 0.081138 0.246290 -0.109910 -0.080173 0.065745 0.232312 0.006193 -0.028341 -0.058305 0.018952 -0.238594 0.707335 0.163116 0.178143 0.134401 0.002794 -0.111196 0.080111 -0.252470 -0.071499 -0.046443 -0.104405 0.254445 -0.107818 -0.156479 -0.136588 -0.040484 -0.095211 0.163870 0.252437 0.042335 0.051720 
pea -0.003872 0.004966 -0.001245 0.003072 -0.008554 0.015566 -0.003610 0.001646 0.013924 -0.011021 0.004991 -0.000830 -0.014794 0.013432 0.001334 0.003596 -0.010766 -0.014965 -0.002492 0.005543 -0.004673 -0.003107 -0.007155 -0.005751 0.011054 -0.003914 0.009006 -0.001244 0.003410 -0.014096 -0.006892 0.005909 
Daisy -0.014736 -0.012246 -0.010976 0.013552 -0.010752 -0.004369 -0.010764 -0.010539 0.003111 -0.003853 0.010353 0.001003 0.005376 -0.004541 -0.009116 0.014257 0.014823 0.012067 0.011435 -0.012347 0.009401 0.011355 -0.013270 -0.011177 -0.002167 -0.012630 -0.003243 0.005314 0.013846 0.013699 0.010666 -0.006821 
its -0.727208 0.400083 -0.081507 -0.099062 0.625584 1.221441 -0.231503 0.119821 0.158435 0.360755 -0.513281 1.392573 0.481949 0.055693 0.672677 0.064390 -0.067475 -0.989283 -0.318320 0.275309 0.715866 -0.508562 0.335912 0.174898 -0.238635 -0.321634 -0.776385 0.345494 0.135108 0.027038 -0.233595 -0.210293 
birthstone -0.012552 -0.005943 0.015306 0.007807 -0.005655 0.014827 0.014492 0.004871 -0.014603 -0.007712 -0.001886 0.004702 0.011172 -0.010371 0.000894 -0.013685 0.000374 0.005275 0.006598 0.009098 -0.000447 -0.012386 0.005287 0.003634 0.003666 -0.014294 -0.007039 0.014471 -0.003081 0.008561 0.001265 0.008766 
Diamond 0.007556 0.001710 -0.000249 -0.003348 0.003463 0.000199 -0.003070 0.006151 0.014285 0.007579 0.010971 -0.006697 0.003151 -0.013221 -0.010236 0.012832 0.006527 0.012460 0.011567 0.013474 0.014472 -0.009829 -0.005876 -0.011660 -0.010005 0.010786 0.001264 0.002542 0.005718 -0.001407 0.011077 0.011805 
meaning -0.316226 0.137165 0.134050 0.009137 0.016169 0.043454 -0.084690 0.121744 0.160193 0.144137 -0.086075 0.531250 0.031311 0.163825 0.201446 -0.033579 0.059761 0.181941 0.006389 0.207497 0.026029 -0.311372 0.122332 -0.098698 -0.304783 0.003164 0.048489 -0.065021 0.279110 0.061227 -0.159752 0.014677 
innocence -0.002472 -0.014298 0.005242 -0.015012 0.002282 0.001847 0.006973 0.006351 -0.004953 -0.002033 0.010707 -0.002140 -0.005047 -0.008445 -0.003078 -0.005830 0.003755 0.004720 -0.014260 0.009081 -0.005487 -0.002154 0.006808 -0.008078 0.006479 0.015310 0.000695 0.012106 -0.011351 0.005734 0.013487 0.010573 
making -0.225028 0.246053 -0.190722 -0.403346 0.155622 0.267029 -0.130813 0.032881 0.126879 0.171682 -0.297456 1.238196 0.105368 0.134525 0.393993 -0.294786 0.051061 0.136576 -0.419553 -0.251339 0.215494 -0.418413 0.326397 -0.394277 -0.379387 -0.010649 -0.373545 -0.364683 0.454889 0.475839 -0.172816 0.206062 
also -0.003882 0.130500 -0.328071 -0.426387 0.290288 0.669647 -0.269822 0.315868 -0.050307 0.015247 -0.523883 1.712278 0.282048 0.436732 0.567728 -0.063835 -0.547518 0.128125 -0.479737 -0.445305 0.195017 -0.081894 0.496721 0.170806 -0.336297 0.298425 -0.330512 -0.255724 0.489442 0.185941 0.165585 0.027785 
first 0.093193 0.167906 0.376717 0.047101 0.012410 0.338240 -0.726610 -0.411650 -0.081491 -0.237857 -0.534815 1.674528 0.716033 -0.151853 0.913796 0.153202 -0.408440 -0.501079 -0.279791 0.286917 0.440330 -0.494086 0.065768 0.181428 -0.439545 0.202588 -0.180819 0.403993 0.531772 0.255527 -0.134443 0.042038 
out -0.488347 0.107210 -0.029333 -0.376651 0.112419 0.317603 -0.224987 -0.035754 0.143281 0.080392 -0.134441 1.261365 0.182430 0.187972 0.461201 0.000932 0.156507 0.154685 -0.188740 0.114348 0.020766 -0.307277 0.040832 -0.209375 -0.573349 -0.018991 -0.186250 -0.154066 0.562220 0.188943 -0.496301 0.205638 
that 0.609762 0.913510 -0.012354 -1.081658 0.329367 -0.219736 -0.023286 -0.005394 0.270038 1.095380 -0.419948 2.074272 -0.059186 0.768297 1.442473 0.259658 -0.390067 0.464487 -0.108055 -0.988528 0.194791 -0.122133 0.127970 0.216458 -1.082523 0.604371 -1.059624 -0.296868 -0.343298 2.299814 -0.791569 0.723466 
june -0.065976 0.010911 0.074705 0.021525 -0.003086 0.184098 -0.171287 -0.138563 0.224132 -0.269353 -0.122819 0.480543 0.265474 0.261483 0.231711 -0.220754 -0.174846 -0.227916 -0.055383 0.029968 0.119197 -0.140356 0.118120 0.201593 -0.237424 0.022710 0.054704 0.011571 0.070019 -0.076854 -0.063532 -0.310344 
september -0.190688 -0.066999 0.046975 0.045986 -0.028983 0.239912 0.001101 0.091723 0.229145 -0.180949 -0.055865 0.455524 0.183222 0.239263 0.118716 -0.156421 0.015025 0.003305 -0.061881 0.204458 0.193343 -0.171872 0.112632 0.062142 -0.283183 0.036042 0.054715 0.052806 0.112107 -0.181991 -0.135244 -0.272380 
november -0.026413 -0.012260 0.028777 0.094466 -0.062045 0.089450 0.038584 0.068760 0.135989 -0.144814 -0.139514 0.200445 0.142326 0.158941 0.082075 -0.105303 -0.071564 0.050576 -0.085262 0.054382 0.123172 -0.119123 0.128654 0.060936 -0.093989 0.030107 0.001585 0.044536 0.038846 0.027573 -0.015054 -0.150381 
later 0.096630 0.073800 -0.186871 -0.109038 -0.034839 0.389266 0.007640 -0.012866 0.010764 -0.211584 -0.152813 0.742477 0.345652 0.085762 0.330916 0.055416 -0.166091 -0.141187 0.100455 0.088751 -0.008862 -0.352102 0.115075 0.220716 -0.155657 -0.108444 -0.011000 -0.043337 0.130006 -0.038934 -0.087268 -0.251207 
every 0.005331 0.019418 0.005925 0.205676 -0.176822 0.361066 0.028917 0.268470 0.404756 -0.223780 -0.295603 0.832536 0.364340 0.294360 0.095661 -0.513935 -0.135964 0.048165 -0.364042 0.271337 0.385025 -0.410579 0.455118 0.063168 -0.452651 -0.158967 -0.114324 -0.187059 0.276683 0.095217 -0.000269 -0.217587 
each -0.168109 0.393931 -0.214908 -0.314302 0.158053 0.603647 0.139494 0.164691 0.055773 -0.006152 -0.467093 1.368293 0.324893 0.484175 0.213020 -0.070264 -0.032519 0.243191 -0.472494 -0.043649 0.197407 -0.189849 0.507716 -0.158968 -0.446807 -0.189890 -0.196744 -0.200996 0.284365 0.293323 -0.085589 -0.083636 
others -0.075020 0.271440 -0.161672 -0.128039 0.027053 0.303931 -0.153884 0.156066 0.007162 -0.045759 -0.310376 1.280419 0.395518 0.610363 0.220794 0.009966 -0.048941 0.076597 -0.279107 0.131900 0.124353 -0.135844 0.463667 -0.132944 -0.289528 -0.071830 0.071211 0.063618 0.225786 0.207880 0.154288 0.077408 
last -0.097499 0.140818 -0.119306 -0.060220 -0.057371 0.362407 -0.159657 0.115206 0.143753 -0.050078 -0.335507 0.683096 0.246101 0.286144 0.339106 -0.265211 -0.097143 -0.188012 -0.207114 0.058310 0.131996 -0.155617 0.359282 0.035730 -0.224709 -0.061359 -0.212619 -0.206323 0.154646 0.152957 -0.040271 -0.104153 
exactly 0.012232 0.013874 -0.002371 0.015099 0.014490 0.006612 0.010961 0.015248 -0.013286 -0.014978 -0.003513 0.008230 0.002142 -0.002413 0.007815 -0.009288 0.002441 -0.011323 0.011839 -0.010277 -0.001092 -0.002246 0.002982 -0.012827 -0.009698 -0.003215 -0.009483 0.000821 -0.013714 -0.007998 0.011427 0.014785 
weeks -0.009053 -0.014006 -0.006678 0.008947 -0.008211 -0.011003 0.015607 0.000236 0.013030 -0.014712 -0.000249 -0.004012 -0.013830 -0.012792 0.014921 0.010584 0.015083 0.013320 0.008022 0.001530 -0.015197 0.003948 -0.013543 -0.013254 0.004289 -0.003763 -0.006462 0.002072 -0.001485 -0.000301 -0.001551 0.010167 
apart 0.010767 0.006128 0.005092 0.009089 0.005549 -0.009147 0.013844 -0.004574 -0.001109 0.001107 -0.010957 -0.009919 -0.001230 -0.002236 -0.009795 -0.006607 0.015242 -0.008523 -0.014816 -0.005288 0.001837 -0.015386 -0.013546 0.011111 -0.003967 -0.007300 -0.010433 -0.010642 -0.002728 0.012283 0.008038 -0.002639 
common 0.110144 0.104128 -0.395680 0.006999 -0.120449 0.325577 0.179066 0.184704 0.067119 -0.144377 -0.525753 1.151282 0.533919 0.707013 0.262664 -0.178256 -0.036131 0.383296 -0.289187 -0.062065 0.092054 -0.404193 0.595992 -0.155625 -0.397380 -0.105437 0.077149 -0.112296 0.022022 0.400791 -0.009660 -0.391992 
starts 0.074759 0.017762 -0.110868 -0.034467 -0.027981 0.120806 0.042787 0.015233 0.019549 0.025799 -0.178865 0.298999 0.127701 0.167077 0.105642 -0.141251 -0.015317 0.049103 -0.142830 -0.079754 0.060722 -0.140526 0.244213 -0.022469 -0.106993 -0.011898 -0.089641 -0.074041 0.074206 0.153084 0.015092 -0.054306 
october -0.154568 0.116477 -0.091822 -0.177564 0.041961 0.333908 -0.308307 -0.059879 0.251630 -0.161206 -0.269261 1.059867 0.332355 0.346131 0.505583 -0.098556 -0.161511 -0.114746 -0.242520 0.020669 0.099203 -0.146775 0.174535 -0.099096 -0.332596 0.036336 -0.038165 -0.084837 0.267033 0.056245 -0.093266 -0.128552 
previous -0.095339 0.027522 -0.143260 -0.132257 0.019681 0.274152 -0.185627 0.012922 0.243105 -0.199584 -0.273425 0.958266 0.327231 0.317814 0.452368 -0.088333 -0.149217 -0.018456 -0.145750 0.053054 0.129763 -0.285103 0.312083 -0.064121 -0.227869 -0.091331 -0.060707 -0.106222 0.180596 0.140857 -0.078323 -0.068079 
finishes -0.014611 -0.010317 -0.093841 -0.048475 0.006739 0.105228 -0.047162 0.002489 0.034832 -0.005280 -0.108174 0.318092 0.142214 0.132727 0.122812 -0.024877 -0.047459 -0.027293 -0.090278 -0.037355 0.023083 -0.091648 0.123651 -0.061450 -0.087909 -0.000011 -0.027076 0.000218 0.070784 0.051752 -0.005418 -0.050595 
february 0.011177 -0.031772 -0.101390 -0.097702 0.046840 0.236277 -0.020047 -0.018477 0.115584 -0.131781 -0.198260 0.576050 0.254751 0.200441 0.192975 -0.081349 -0.128024 0.021921 -0.259484 -0.080767 0.106662 -0.145609 0.266541 -0.047929 -0.179370 -0.055221 0.032415 -0.023561 0.159196 0.064940 0.007318 -0.108683 
immediately -0.097745 -0.084584 -0.127106 -0.143886 0.091401 0.285313 0.086033 0.157527 0.198289 0.039293 -0.283785 1.030302 0.258627 0.457986 0.154930 -0.169993 -0.029779 0.195082 -0.456902 -0.087642 0.313278 -0.257456 0.494185 -0.105890 -0.383947 0.016333 -0.029106 -0.063651 0.237405 0.105884 -0.120991 -0.179419 
after 0.249323 -0.134102 -0.208566 -0.209279 0.010371 0.580411 -0.654984 -0.055515 0.256277 -0.276182 -0.252183 1.239683 0.534664 0.662811 0.749712 -0.035632 -0.108065 -0.364103 -0.187894 -0.300867 0.109387 -0.160797 0.202569 -0.008608 -0.398360 0.270617 0.130328 0.178244 0.027783 -0.036788 -0.031935 -0.299258 
other -1.274255 0.008786 0.050455 -0.223704 1.160483 0.560460 0.125641 -0.104989 -0.017296 0.497846 -0.885902 1.856776 0.775199 0.532197 0.247415 0.209105 0.504085 0.309923 0.097142 -0.000475 -0.099769 -0.162737 2.450681 0.149284 0.712178 -0.993016 0.825295 -0.336341 -0.313742 0.130769 0.404045 -1.119768 
before 0.225680 0.088040 -0.529876 -0.190979 0.004577 0.230121 -0.263826 0.019614 0.117204 -0.077034 -0.384168 1.420110 0.265211 0.650553 0.357625 0.024077 0.052782 0.324030 -0.544188 -0.409603 0.022791 -0.264890 0.236165 -0.474189 -0.343755 0.034012 0.158879 -0.100822 0.209851 0.388470 0.151027 0.117304 
following -0.006477 0.060737 0.034374 -0.075375 -0.011992 0.267855 -0.147724 -0.026089 0.209071 -0.113261 -0.279110 0.691335 0.273679 0.199487 0.330885 -0.221015 -0.155114 -0.032531 -0.265619 -0.093752 0.180759 -0.257729 0.370687 -0.074592 -0.259320 -0.047734 -0.136238 -0.032857 0.221829 0.197340 -0.033548 -0.048195 
a -1.542781 -0.538784 1.266676 -0.894469 -0.339364 -0.152274 -1.087938 -0.004527 -0.505745 -0.942010 -0.286186 1.704746 0.103075 0.215027 1.986587 0.010809 -0.174441 1.372307 0.846523 0.558685 2.158665 -1.330014 0.050898 -0.760605 1.024662 0.823502 -1.002691 0.415063 1.750002 -0.080600 -0.359955 0.837738 
spring 0.044346 0.014300 0.050406 -0.038943 -0.058135 0.216172 -0.019677 -0.028106 0.088587 0.037408 -0.148214 0.623334 0.182846 0.145257 0.137443 -0.159207 -0.144191 -0.003628 -0.238839 0.020093 0.158136 -0.237690 0.228561 0.035546 -0.344072 -0.023094 -0.087693 0.031635 0.206324 0.148818 -0.027481 -0.070056 
northern -0.130828 -0.025462 -0.002439 0.068396 0.104640 0.353602 -0.186784 0.139650 0.255140 0.020464 -0.328045 0.400409 0.367653 0.566738 0.160296 -0.263060 -0.157578 -0.389878 -0.370044 -0.011970 0.199045 0.086185 0.494038 0.144759 -0.145802 0.100126 0.006153 -0.025279 0.086525 -0.113993 0.232988 -0.404861 
hemisphere -0.063747 -0.015985 -0.044376 0.192896 -0.021612 0.134984 0.023048 0.169920 0.272779 -0.019700 -0.105802 -0.058568 0.069973 0.144177 -0.003568 -0.242618 0.074799 -0.046455 -0.087592 0.067794 -0.006739 -0.085031 0.156599 -0.023854 -0.060722 -0.116890 0.015117 -0.219600 0.015000 0.002401 0.066090 -0.153755 
an -0.952102 0.024611 0.570344 -0.167511 -0.235155 0.240568 -0.356169 -0.081958 0.145259 0.887678 -0.078144 1.043886 -0.005416 0.173084 -0.029017 -0.669640 0.578647 0.205239 0.329556 -0.601213 0.338630 -0.869703 0.588300 -0.203137 -0.307704 0.281638 -0.257083 -0.072212 0.477919 0.191084 0.096441 -0.202871 
autumnfall -0.009702 0.007498 0.004841 -0.007399 0.013455 -0.005325 -0.013940 0.015010 -0.010839 0.003022 -0.005651 -0.005692 0.008959 0.007079 0.012246 0.006203 0.002999 0.013793 0.000911 -0.006436 0.009587 -0.003772 -0.006025 -0.006527 -0.001108 0.002457 -0.000545 -0.001552 0.009780 0.003409 0.007057 -0.003602 
southern 0.023207 0.180520 -0.206087 0.234528 -0.122730 0.289638 -0.059824 0.198682 0.177330 -0.066201 -0.181116 0.570408 0.246893 0.191376 0.200341 -0.173562 -0.034489 -0.282556 0.005511 0.275449 -0.085227 -0.331154 0.143939 0.032484 -0.290322 -0.063859 -0.170089 -0.102909 0.034341 0.008804 -0.001706 -0.111174 
seasonal 0.002168 0.005543 0.005430 0.013334 0.012842 0.007861 -0.002405 0.014005 -0.012280 0.015088 0.008946 -0.009080 0.001667 -0.014806 -0.000219 0.010618 0.001566 -0.005902 -0.011007 -0.001239 0.005560 -0.006408 0.006205 -0.003432 -0.015437 0.011069 0.010267 -0.003576 -0.015366 -0.002152 0.003029 -0.002463 
equivalent -0.014493 0.011493 0.011658 0.014153 -0.002727 -0.004451 -0.011474 -0.007203 -0.005209 0.000977 -0.005735 -0.001849 -0.013040 -0.006222 -0.002401 -0.002394 -0.001400 0.010251 -0.008865 0.005728 0.012070 -0.003824 0.010719 0.005400 0.002473 -0.004123 0.009290 -0.014307 0.004693 0.003615 0.008087 -0.013771 
unclear -0.003802 0.005890 -0.002189 0.011270 -0.000205 -0.004209 -0.002254 -0.009439 0.003504 0.009191 0.009949 0.006184 -0.005358 0.003817 0.010724 -0.009855 -0.011865 -0.012442 -0.015440 0.013770 0.002973 0.013086 0.003888 -0.000828 0.010061 -0.014648 -0.003429 0.005606 -0.003329 0.010265 0.004290 0.008175 
where -0.018691 0.533592 -0.279587 -0.186972 0.090849 0.260251 -0.342265 0.242801 -0.072226 0.065648 -0.551833 1.016832 0.281026 0.426032 0.594388 -0.247459 -0.074662 0.150361 -0.498129 -0.338625 0.240804 -0.173655 0.532774 -0.284636 0.032519 -0.070549 -0.484997 -0.348534 0.299307 0.792300 0.267961 0.269742 
got 0.007310 -0.014100 0.001471 0.002418 -0.015390 -0.013123 -0.005989 -0.005385 -0.015562 0.009379 -0.015041 -0.007472 -0.001393 -0.001481 -0.002854 -0.010278 0.013126 -0.006684 -0.002355 -0.010359 0.007245 -0.004908 -0.009782 0.002060 0.006905 0.000265 0.003805 -0.008182 -0.004326 -0.008537 0.009743 0.001719 
name 0.169484 0.370325 -0.010751 -0.196345 0.032888 0.471611 -0.276565 -0.192206 -0.112222 0.087629 -0.601770 1.166217 0.367168 0.217030 0.758860 0.101043 -0.270732 0.008333 -0.118958 -0.298361 0.053887 -0.454756 0.322834 -0.021294 -0.171248 0.010958 -0.331767 0.044777 0.227407 0.536167 0.100138 0.085698 
theory 0.000697 0.074667 -0.003273 -0.083485 0.110566 0.256715 -0.099459 -0.039074 0.145958 0.030372 -0.116471 0.541062 0.155727 0.201984 0.145526 -0.154758 -0.050826 -0.072347 -0.320866 -0.139622 0.001254 -0.070656 0.155837 -0.015527 -0.396435 -0.061929 -0.058026 -0.069910 0.186472 0.116051 -0.067324 -0.091225 
from -0.346221 0.702203 0.035542 -1.155398 0.136266 1.460131 -1.178502 -0.428237 -0.183871 0.147731 -0.582956 0.933258 0.405540 0.134836 1.279514 0.256698 -1.023286 0.240558 -0.018332 -0.256904 -1.890240 0.287188 0.193588 -0.014605 -0.489479 0.132766 1.121240 -0.971967 1.067619 -0.632013 -0.193753 -0.722457 
Lati -0.295089 0.141770 -0.008251 -0.221864 0.098654 0.342851 -0.216739 -0.024836 -0.076512 0.384251 -0.289245 0.970473 0.298877 0.218055 0.332580 0.038801 -0.069386 0.058529 -0.061629 -0.027714 0.046744 -0.349649 0.476417 -0.091250 -0.149684 0.118938 -0.079632 0.033324 0.339069 0.047374 0.019243 -0.151349 
word -0.247610 0.399302 -0.054377 -0.230644 0.187946 0.283771 -0.233164 0.134789 -0.033720 0.212788 -0.261818 0.939791 0.157693 0.220356 0.297458 -0.056538 -0.038862 0.377016 -0.330141 -0.102578 -0.174014 -0.212232 0.283140 -0.073010 -0.240341 0.005156 -0.078904 -0.412665 0.439050 0.292300 -0.027005 0.035644 
aperire -0.005804 0.009669 0.005682 0.011135 -0.013518 -0.011412 -0.009848 0.005059 -0.012814 -0.015393 0.013768 -0.012141 0.013363 -0.014680 -0.000344 0.008537 0.013820 0.003982 -0.003372 -0.008172 0.013439 0.014909 0.013654 -0.007459 0.009425 -0.004346 0.013093 0.004938 0.012572 -0.009982 0.013906 -0.011612 
open -0.015573 -0.014941 0.008504 -0.008302 0.008863 0.003508 0.004948 -0.005861 -0.011169 0.009213 -0.011047 -0.013619 0.011274 0.003330 -0.003623 0.013953 0.008863 -0.002879 -0.007129 0.004669 -0.005701 -0.006830 -0.009610 -0.005447 -0.010771 0.010419 -0.010772 -0.010150 -0.010009 0.002803 -0.010917 -0.013702 
referring 0.005356 0.011119 0.011734 0.009770 -0.009658 0.013511 0.005338 -0.012496 -0.012339 0.007509 0.012814 -0.006611 0.002446 -0.011304 -0.011528 -0.009792 -0.011918 0.010815 -0.007193 -0.001984 0.005335 0.013341 -0.008253 0.011794 -0.002160 -0.007121 0.002987 0.010441 -0.013951 0.005255 -0.011672 -0.010042 
opening -0.003162 -0.007627 -0.009543 0.002983 -0.006001 -0.006429 0.010338 -0.001388 -0.007534 0.012271 -0.004930 0.011979 0.007248 -0.004957 0.001305 -0.012302 0.002659 0.011938 0.014048 0.002001 -0.003516 -0.001537 -0.007544 0.007963 0.010377 0.011194 -0.009989 -0.000476 -0.002777 0.014472 -0.011863 -0.010981 
another -0.365703 -0.090455 0.361297 -0.226542 0.120624 -0.003572 -0.060540 -0.085612 0.137965 0.331187 -0.186129 0.767067 0.010001 0.231459 0.206539 -0.135494 0.021609 0.154251 -0.181892 -0.061823 0.456256 -0.408559 0.367816 -0.305067 -0.116913 0.051479 -0.218542 -0.019507 0.449968 0.214537 -0.049952 0.042283 
could 0.039826 0.211583 0.164668 -0.250709 0.184661 0.059439 -0.325527 -0.234791 -0.052643 0.398699 -0.311288 1.117082 0.050280 0.131388 0.400298 0.094453 0.036782 0.062321 -0.368380 -0.292084 0.037330 -0.469719 0.252697 -0.487472 -0.213043 -0.054179 -0.130480 0.151260 0.367922 0.645380 0.093060 0.419244 
come -0.118879 0.066752 0.042600 -0.194534 0.294006 0.305829 0.084071 -0.125469 0.008749 0.120644 -0.123794 0.915882 0.175298 0.228229 0.119088 0.055729 -0.084195 0.055016 -0.387089 -0.067520 0.184464 -0.029239 0.274324 -0.138302 -0.394914 0.176655 0.040896 0.208065 0.296644 -0.054070 -0.083018 -0.145323 
aphrodite 0.008330 0.001604 -0.011494 0.010217 -0.000556 -0.014169 0.009272 -0.014465 -0.008474 0.010099 -0.010182 -0.011457 -0.000336 0.009074 -0.003993 -0.013110 -0.000096 0.007092 0.005410 -0.000107 -0.005908 0.015163 -0.013421 0.010216 0.004976 0.010282 0.010798 -0.008249 -0.009968 0.011378 0.002108 -0.004201 
greek -0.306362 0.179875 0.135866 0.028457 0.078216 0.065748 0.183690 0.095470 0.255046 0.150937 -0.096711 0.372480 -0.121062 -0.017181 0.022995 -0.178382 0.137138 0.430825 -0.167515 0.091621 0.023623 -0.293704 0.104124 -0.065129 -0.332341 -0.150357 -0.103171 -0.245203 0.254742 0.207065 -0.288363 0.060168 
goddess -0.001544 0.003624 0.001691 -0.006155 0.015314 -0.004591 0.013289 -0.014252 -0.007996 0.002746 0.002199 -0.000865 0.005757 -0.003272 -0.014989 -0.000153 -0.001889 -0.010955 -0.000555 -0.001561 0.000915 -0.000557 -0.015549 0.005136 -0.010418 0.014723 -0.009988 -0.010789 -0.000146 -0.001321 -0.014758 -0.002491 
love 0.009822 0.004896 -0.004351 0.005769 -0.015407 -0.001550 0.001592 0.000806 0.011155 -0.000881 -0.007055 -0.008187 -0.000747 0.003215 -0.015216 0.003308 0.012175 0.012116 0.001222 0.008178 -0.009679 -0.014563 0.003286 -0.007814 -0.000994 0.012576 0.008827 0.001882 0.012629 -0.005092 -0.009450 0.000295 
was 0.382103 -0.103867 1.334808 0.348033 -0.120019 1.181514 -1.760972 0.243528 0.064656 -0.450931 0.387687 1.610058 0.626360 0.456269 0.540041 -1.503126 -0.552032 0.231080 -1.132820 -0.482228 0.436325 -0.551813 0.312284 0.682639 -1.735386 1.160314 -0.455461 0.090695 1.372925 -0.019855 -0.674464 0.441186 
originally 0.006733 -0.011214 -0.004101 -0.006850 0.013194 -0.001066 -0.006398 0.004117 -0.003725 -0.008705 0.007644 -0.001274 0.015382 -0.004595 -0.007282 -0.012172 -0.006269 -0.014533 -0.009438 -0.002943 -0.007938 0.010891 0.001705 0.007457 0.003719 -0.007937 0.014716 -0.007714 -0.012001 -0.012912 -0.010413 0.011775 
second -0.081510 0.081955 -0.083985 -0.064007 0.010937 0.295601 -0.297027 -0.022962 0.147498 -0.117757 -0.138076 0.576586 0.275840 0.194029 0.380029 -0.076558 -0.157535 -0.292431 -0.102498 0.063010 0.063974 -0.192564 0.067153 -0.006628 -0.091018 -0.038389 -0.063703 -0.036446 0.136626 0.004521 0.025345 -0.078328 
old 0.141735 0.057127 -0.314673 0.012661 0.023936 0.158040 -0.196916 0.001930 0.090047 -0.079547 -0.194191 0.715059 0.205994 0.220327 0.205797 0.067003 -0.009956 -0.092421 -0.206260 -0.044379 -0.138613 -0.081437 0.061918 -0.202603 -0.193967 -0.108213 0.089958 -0.033547 0.016936 0.136411 -0.005437 0.011354 
roman 0.186047 0.031268 -0.258539 0.046923 -0.048178 0.362753 -0.016442 0.017646 0.071456 -0.057453 -0.216600 0.685072 0.347957 0.242004 0.263794 0.058799 -0.158930 -0.285331 -0.054822 0.067352 0.063294 -0.225644 0.124089 0.058311 -0.339294 0.049002 -0.058476 0.171645 0.037525 -0.008835 -0.066248 -0.185728 
calendar 0.090162 -0.021575 -0.217989 -0.019426 -0.047666 0.290961 -0.074097 0.052660 0.066961 -0.184419 -0.127717 0.482624 0.210271 0.131562 0.125717 -0.076696 -0.116128 -0.119641 -0.150995 -0.011505 0.053602 -0.057416 0.191332 -0.029708 -0.167343 -0.032257 0.002190 -0.027731 0.060491 -0.055328 0.013854 -0.141410 
start 0.111975 0.001411 -0.077272 -0.064696 -0.017161 0.173567 -0.083870 -0.109383 -0.000503 -0.077911 -0.126027 0.454799 0.230247 0.096902 0.187367 -0.049192 -0.085726 -0.160810 -0.091011 -0.036251 0.002117 -0.084143 0.140688 -0.003876 -0.135315 0.000083 -0.025759 0.056551 0.036122 0.018981 0.016045 -0.089806 
new 0.401512 0.501414 -0.500541 -0.250368 -0.036251 0.918360 -0.736024 0.060122 0.035448 -0.446566 -0.889182 1.544697 0.952450 0.674116 1.069351 -0.324546 -0.636248 -0.653168 -0.498520 -0.035054 0.178576 -0.281581 0.456773 0.147005 -0.514979 0.457740 -0.508871 -0.021916 0.041837 0.226314 0.278230 -0.144745 
put -0.265088 -0.023301 -0.041326 -0.221745 0.092034 0.192404 -0.181215 -0.027573 0.158252 -0.086313 -0.186851 0.732875 0.123267 0.066724 0.454057 -0.132830 -0.068204 0.026505 -0.075824 -0.025399 0.130879 -0.198823 0.169464 -0.119704 -0.196583 -0.065257 -0.206478 -0.080151 0.211888 0.177464 -0.183850 0.119829 
quite -0.007228 -0.013980 0.004345 0.015006 -0.003062 -0.010233 -0.007975 0.012824 -0.001637 0.004167 0.006669 -0.002099 -0.004930 -0.012629 -0.005759 0.012081 -0.010072 0.015229 0.009080 0.005823 0.001945 -0.012041 0.009112 -0.001544 -0.001089 0.001128 -0.003231 0.013260 -0.014096 -0.011160 -0.002671 0.013699 
few 0.141871 0.150917 -0.226224 0.055064 0.050235 0.429525 -0.379169 0.300091 0.188706 -0.186465 -0.479800 0.946295 0.487934 0.623690 0.400540 -0.229189 -0.037177 0.013151 -0.531454 -0.132333 0.005984 0.047958 0.429499 -0.025785 -0.245618 0.037535 0.010788 -0.205647 0.067522 0.221525 0.290974 -0.099528 
festivals -0.042002 0.097355 -0.181958 0.000118 0.003499 0.051193 -0.018020 0.120246 0.119921 -0.045805 -0.150680 0.432021 0.100396 0.208624 0.062120 -0.009801 0.078619 0.150835 -0.154337 0.015466 0.010413 -0.090759 0.104904 -0.074559 -0.237427 0.037353 0.009964 -0.106791 0.045624 0.105052 -0.007781 -0.008626 
held 0.000471 0.204603 -0.084633 0.044128 0.049956 0.412672 -0.189902 0.266727 0.317567 -0.040079 -0.397849 0.772493 0.373806 0.559203 0.283110 -0.318664 -0.241694 0.007505 -0.485746 0.048331 0.244355 -0.086330 0.463664 0.042567 -0.251008 0.031944 -0.161648 -0.146650 0.198619 0.210979 0.145175 -0.175032 
this -0.862791 0.036618 0.201903 -1.029205 0.407664 0.296675 -0.007820 -0.533981 0.842276 1.031092 -0.409931 1.602022 0.342150 -0.558038 0.851743 0.286352 -0.169758 0.070429 -0.813973 -0.565159 1.112032 -0.566435 0.196353 -0.532055 -0.916151 0.797473 -0.687420 0.079723 0.543832 0.385792 -0.207649 -0.098408 
many -0.330358 0.229737 -0.912780 -0.565898 0.608423 0.488638 -0.327552 0.663909 -0.023982 -0.122236 -0.544493 1.667903 0.431348 1.110753 0.373644 0.102255 0.230185 0.548303 -0.749296 -0.301711 0.067792 0.370255 0.894729 -0.426767 0.559673 -0.102825 0.053945 -0.143005 -0.162872 0.516291 0.134998 -0.138412 
southeast 0.006333 -0.013766 -0.010191 -0.007789 0.002918 0.013005 0.012848 -0.008936 -0.007737 -0.013299 0.007007 0.010620 -0.007523 0.000570 -0.007837 -0.001633 0.013909 0.001479 0.003936 -0.003375 -0.011079 -0.006250 0.006829 -0.008686 -0.010065 0.012660 0.010180 0.007004 -0.009915 0.012654 0.007292 -0.000344 
asia -0.029381 0.046203 -0.396503 -0.163951 0.093465 0.561242 -0.403743 0.063159 0.087721 -0.174498 -0.217906 0.832860 0.268962 0.495757 0.471563 -0.146788 -0.268339 -0.347421 -0.334650 -0.011196 -0.038805 0.160330 0.334698 -0.073210 -0.184252 0.052906 -0.124848 -0.153344 0.076644 -0.098329 0.051848 -0.205062 
cultures -0.047875 -0.039628 -0.164818 -0.140155 0.128720 0.124274 -0.040053 -0.004523 0.032084 0.021027 -0.055865 0.330778 0.030730 0.027105 0.062189 -0.116815 0.004522 -0.063260 -0.216517 -0.096475 -0.027563 0.026736 0.166034 -0.141745 -0.029313 -0.111964 -0.088627 -0.200195 0.054882 0.086049 -0.005754 0.023921 
celebrated 0.001352 0.001202 0.005373 0.009297 -0.011352 -0.012088 0.004390 0.004642 0.013200 0.007481 0.008566 0.011647 0.000850 -0.013687 0.007773 -0.006122 0.010190 0.000169 0.013643 -0.014442 -0.002409 0.013854 -0.010414 -0.002599 0.001942 -0.007457 -0.012835 -0.001919 0.012070 0.002783 0.008015 -0.010981 
including 0.045302 0.231604 -0.376961 0.008312 -0.088943 0.376365 -0.363289 0.327185 0.264531 -0.280641 -0.280432 0.666822 0.329057 0.268443 0.256585 -0.199486 -0.033556 -0.062943 -0.465098 0.064680 -0.193197 0.059326 0.330917 -0.234609 -0.267370 -0.259480 -0.120847 -0.456891 0.163268 0.196863 0.055427 0.067347 
songkran 0.005082 0.000414 0.003911 -0.009779 -0.014612 0.006254 0.003107 -0.000821 -0.010531 0.015304 -0.002836 0.004871 -0.012591 -0.001178 -0.002024 -0.012775 -0.006903 -0.012110 0.009914 -0.000815 -0.015465 -0.002438 0.006107 0.008805 -0.010610 -0.013610 -0.013837 0.009946 0.010120 0.010540 -0.006649 0.007441 
western 0.113474 0.205563 -0.320967 -0.181084 0.052114 0.454920 -0.226472 0.017346 0.007038 -0.256978 -0.365483 0.679311 0.328410 0.286095 0.352811 -0.084861 -0.264327 -0.076068 -0.294296 -0.180566 -0.075060 0.007135 0.421403 -0.071320 -0.006738 -0.068197 -0.106424 -0.278351 0.096890 0.114525 0.200560 -0.121095 
christianity 0.030112 0.122266 -0.117997 -0.095500 0.037689 0.231123 -0.124096 0.024527 0.036077 -0.080241 -0.381481 0.389231 0.217246 0.233598 0.125394 -0.198510 -0.155802 0.070071 -0.379592 -0.228589 0.069371 -0.036188 0.514522 -0.157960 0.083719 -0.070384 -0.176468 -0.294930 0.165335 0.236278 0.287113 0.023081 
easter 0.158763 0.154484 -0.083555 -0.113731 -0.048302 0.283895 -0.175062 -0.131496 -0.078869 -0.131009 -0.257527 0.411236 0.171891 0.027911 0.263413 -0.143406 -0.257758 -0.090673 -0.236231 -0.225733 -0.013276 -0.110376 0.249480 -0.190674 0.033446 -0.023881 -0.277382 -0.204381 0.218407 0.177530 0.140893 0.147495 
can -0.196816 0.247677 0.231406 -0.322402 0.181935 0.128894 -0.011095 -0.361975 0.198346 0.480886 -0.748715 1.697301 -0.154500 0.119720 0.857130 -0.024502 0.085722 0.112956 -0.451043 -0.126624 -0.095148 -0.870937 0.563388 -1.146497 -0.441796 -0.274469 -0.623306 -0.449917 0.945238 0.838149 0.240358 0.949321 
be 0.243397 0.675169 0.317027 -0.286392 0.439976 0.275112 -0.161357 -0.381800 0.212329 -0.189450 -1.124065 1.632483 0.086341 0.007673 1.353614 -0.246100 -0.198663 0.622299 -0.830341 -0.968612 0.357308 0.055994 0.999879 -0.396714 -0.337100 0.252403 -1.221501 -0.831876 0.732913 1.087016 -0.169970 0.374720 
sunday -0.072602 0.010265 0.050940 -0.114752 0.037663 0.245373 -0.158258 -0.071354 0.062667 -0.034860 -0.118307 0.406980 0.152001 0.133349 0.217212 -0.084320 -0.172498 -0.154203 -0.142658 -0.033866 0.068470 -0.080800 0.196374 -0.091675 -0.076333 -0.010155 -0.095946 -0.009718 0.186080 -0.013012 0.018728 -0.071388 
orthodox 0.011735 0.002190 -0.012127 0.010410 -0.002719 -0.011913 0.004325 -0.002372 0.010175 0.002378 0.014732 0.005618 0.010366 0.015515 0.007153 0.012292 -0.002630 0.003782 -0.013551 -0.003720 0.004687 0.004600 0.012798 -0.005090 -0.011540 -0.006103 0.011037 0.007831 0.005350 0.002672 -0.006061 -0.004524 
fall -0.009127 -0.005190 -0.002971 0.013190 -0.006805 -0.000155 -0.010283 0.011297 0.004641 0.007708 -0.011770 -0.013042 -0.014082 0.014434 -0.004229 0.001702 0.006914 -0.001464 -0.009388 -0.009769 -0.006195 0.010125 -0.010915 -0.013607 -0.015318 0.001864 0.012939 -0.001307 0.009336 0.000363 -0.003105 -0.003077 
at 0.078355 0.368419 -0.437104 -0.585900 -0.284670 0.252951 -1.118906 -0.149230 0.185926 -0.385543 -0.335736 1.424420 0.451527 0.447387 0.763123 -0.067488 -0.043567 -0.468038 -0.177483 -0.181035 -0.034402 0.428022 0.111832 -0.077268 -0.212468 -0.226379 0.018841 -0.075310 -0.054682 0.307764 0.102219 0.312758 
end -0.117497 0.172754 -0.120075 -0.154208 0.103459 0.274656 -0.175723 0.000714 0.104273 -0.006584 -0.208717 0.817439 0.266124 0.247214 0.425099 -0.105942 -0.175841 -0.104848 -0.246248 -0.041318 0.202098 -0.180912 0.261788 -0.049716 -0.162012 0.058104 -0.232749 -0.122170 0.234866 0.087529 -0.106923 -0.067855 
central -0.169116 0.245101 -0.236959 0.184045 0.055967 0.507181 -0.242584 0.289658 0.242478 -0.225080 -0.424457 0.841512 0.405675 0.770754 0.333599 -0.087085 -0.118044 -0.217031 -0.245952 0.221521 0.051241 0.017660 0.279244 -0.013881 -0.280207 0.139211 -0.073046 -0.052083 0.101138 -0.166503 0.152867 -0.307911 
european -0.024844 -0.026137 -0.126176 -0.093140 0.060166 0.372176 -0.168773 0.002573 0.203838 -0.153062 -0.155909 0.590739 0.321725 0.220315 0.344755 -0.144763 -0.152096 -0.310480 -0.127061 0.093579 -0.001535 -0.025587 0.186049 0.135473 -0.176636 -0.019126 -0.104772 -0.181360 0.068947 -0.121507 -0.036191 -0.262768 
celebrate 0.002634 0.012145 -0.006289 -0.013684 0.003647 -0.000465 0.014483 0.014685 -0.013656 -0.005297 -0.005325 -0.015037 0.012705 -0.003190 -0.009852 -0.002554 0.000732 -0.002781 0.009124 0.011992 0.008454 0.014020 0.007686 0.011463 0.000975 -0.005518 -0.011276 -0.003791 0.002934 0.011317 -0.001712 0.006229 
walpurgis -0.001929 -0.013072 0.008598 0.010347 0.003308 0.001945 -0.009714 -0.004772 0.008043 0.013097 0.006399 0.000233 0.007096 -0.015332 0.005195 -0.006615 -0.005693 -0.008750 -0.000720 -0.013854 -0.014621 0.008703 -0.007900 0.013478 0.009425 0.010217 -0.010977 -0.011582 -0.014672 -0.005942 -0.006732 -0.002339 
night 0.012142 0.014794 -0.009138 0.000791 0.001116 -0.003870 0.001747 0.007947 0.008205 0.011605 -0.004483 0.008149 0.012903 0.012081 -0.000194 -0.000911 0.008016 0.003402 0.011782 -0.007942 0.007822 -0.010631 0.002769 -0.002910 0.002177 -0.008193 -0.001059 -0.005627 0.000786 -0.006776 0.001791 -0.000478 
marking 0.002634 0.015191 -0.003183 -0.013869 -0.014170 -0.002104 -0.007774 -0.002378 -0.011986 -0.009577 0.012380 -0.011849 0.011739 0.002110 -0.014057 -0.005940 -0.012307 0.006582 0.000070 0.011478 -0.005421 -0.011902 0.012703 -0.013985 -0.000329 -0.001981 0.014231 -0.015191 -0.001479 0.002047 -0.012753 0.012748 
transitio -0.012720 -0.003339 -0.007791 -0.005116 -0.006232 0.013820 -0.000857 -0.013339 0.009499 0.008872 -0.002114 -0.001836 0.000631 0.001483 0.009866 -0.008540 0.012717 -0.009293 -0.010483 0.013261 -0.012539 0.001796 -0.004044 0.004495 -0.002009 -0.003121 -0.011452 -0.000003 -0.014447 0.010057 -0.007939 0.014271 
winter -0.128511 0.056651 0.050236 -0.071894 0.024266 0.075907 -0.127947 0.046819 0.112728 0.090702 -0.128618 0.396329 0.053092 0.123843 0.187396 -0.106542 -0.006656 -0.016611 -0.153202 -0.053129 0.101562 -0.139268 0.119160 -0.123214 -0.133167 -0.000166 -0.151862 -0.113073 0.163180 0.174476 -0.006335 0.096666 
into -0.237964 0.434292 0.089833 -0.074726 0.177056 0.454152 -0.236818 0.138206 0.199003 0.022829 -0.217338 1.026642 0.057601 0.148141 0.524711 -0.439825 0.022813 0.027252 -0.285012 0.199474 0.078145 -0.372963 0.150504 0.028720 -0.853175 -0.127008 -0.618519 -0.536412 0.798331 0.376436 -0.087136 0.351936 
summer -0.207543 -0.097174 -0.000548 0.028177 0.118731 0.149730 -0.097457 0.167627 0.195213 0.027511 -0.105709 0.196817 0.215827 0.180030 -0.026173 -0.215406 -0.109393 -0.176805 -0.252352 0.064820 0.206444 -0.002035 0.336548 0.132421 -0.062763 -0.072786 -0.017569 -0.142758 0.027354 -0.104971 0.055219 -0.232535 
poetry -0.015320 0.000532 0.014475 -0.008773 -0.005392 0.009288 -0.002637 0.015622 0.004534 -0.001957 -0.008883 -0.012087 -0.015329 0.014728 0.004611 0.010435 -0.002312 0.012789 -0.012574 0.003941 0.013524 -0.013653 0.011524 0.003589 -0.005292 -0.000008 0.012704 -0.010867 -0.009864 -0.010869 -0.015036 0.015219 
poets -0.005464 -0.006907 -0.000895 -0.008935 0.005034 -0.008826 0.009037 -0.009498 -0.011681 -0.011677 0.003390 -0.010584 0.010413 -0.006803 0.004002 0.000116 -0.014269 -0.004551 -0.010975 0.009210 0.009952 -0.010672 -0.013700 -0.005840 0.006597 0.012796 -0.004657 0.007905 -0.010559 0.003193 0.007359 0.001193 
use -0.270368 0.463013 -0.165419 -0.272287 0.210745 0.316680 -0.067055 -0.046869 0.078058 0.392535 -0.615280 1.501395 0.331969 0.463507 0.505733 -0.104739 -0.123932 0.479887 -0.519781 -0.319814 -0.003964 -0.246614 0.811827 -0.379316 -0.030479 -0.237106 -0.214466 -0.383810 0.411409 0.717967 0.174031 0.236559 
mean -0.136405 0.124585 -0.139478 -0.151077 0.104977 0.107026 0.018801 0.057404 -0.019134 0.153892 -0.129126 0.551243 0.092675 0.139718 0.146955 0.015190 0.031322 0.130343 -0.135101 -0.103184 0.041377 -0.139205 0.210585 -0.126537 -0.098698 -0.009046 -0.159082 -0.106342 0.139810 0.156580 -0.049416 0.080173 
for 0.428981 -1.138589 0.452933 0.453090 -0.297269 -0.800268 -0.174834 0.900638 0.639228 0.591450 -0.575033 1.721163 1.076293 0.171271 0.155525 -0.395500 0.146930 -0.242401 -0.682525 -0.890291 0.378199 -0.496401 1.608417 0.373626 -0.888835 -0.887718 -0.468689 -0.651200 -0.362368 1.188962 0.278863 1.410790 
example -0.143656 0.057102 -0.397927 -0.522561 0.002162 0.556423 -0.128633 -0.020738 0.000243 0.129871 -0.370726 1.366548 0.482476 0.316386 0.530603 -0.065920 0.046115 0.112428 -0.358850 -0.424852 0.435287 -0.335400 0.463190 -0.108103 -0.172133 -0.016574 -0.559892 -0.156679 0.166198 0.364599 0.062057 0.096149 
showers -0.013688 0.015517 -0.012620 -0.009339 0.008162 -0.007204 -0.009970 0.009120 0.006407 0.001754 -0.002718 0.007300 -0.003956 0.000376 -0.004634 0.003048 -0.014602 -0.009104 -0.010525 -0.010668 0.002495 -0.011620 -0.014630 -0.007911 -0.010652 0.004525 0.013400 -0.014924 0.011362 -0.010945 0.012787 -0.000635 
bring -0.001970 0.009237 0.014866 -0.013103 0.014849 0.006126 -0.014514 0.002585 0.004394 -0.008809 0.006048 -0.008208 -0.015034 -0.013527 -0.006756 -0.006035 -0.015557 -0.002472 0.001408 -0.010764 0.003840 -0.013686 0.002324 0.014387 0.013221 -0.014105 -0.011378 0.004689 0.009521 -0.008651 -0.004472 0.015247 
events 0.199478 0.137937 -0.323586 -0.004906 0.078847 0.406438 0.055419 0.276737 0.058454 -0.077570 -0.432299 0.850002 0.431554 0.660281 0.104537 -0.052386 -0.135229 0.122622 -0.420491 -0.085797 0.034634 0.008021 0.570773 0.046256 -0.337807 0.019069 0.014000 -0.173299 0.074509 0.117897 0.108809 -0.237723 
fixed -0.014064 -0.001802 -0.012449 -0.007393 -0.011993 0.006811 0.003221 -0.013861 0.014643 -0.002238 0.003342 0.012282 -0.012325 -0.000718 0.006707 -0.003929 -0.001537 -0.009784 0.003406 -0.009157 -0.000284 -0.008458 0.002205 0.012754 -0.006538 -0.011093 0.002288 0.011248 0.002233 0.000040 0.004965 0.001270 
fools 0.008637 0.012956 0.005823 0.003560 0.007410 0.013640 0.004829 0.010043 -0.009831 -0.006665 0.000647 0.011617 -0.002730 0.000649 -0.001404 -0.003749 -0.012462 -0.013947 0.003048 0.006675 0.007613 0.000716 -0.011778 0.003470 0.004378 0.009658 0.009910 -0.005741 -0.002233 -0.003929 0.000786 0.010156 
islamic 0.060730 0.168321 -0.129479 0.042392 0.000016 0.386768 0.031597 0.127621 -0.076133 -0.026156 -0.163017 0.593414 0.228735 0.210440 0.243955 0.008853 -0.130252 -0.181201 0.014106 0.187491 0.089017 -0.305743 0.277109 0.013319 -0.108086 0.098923 -0.320940 0.035911 0.137456 -0.005515 -0.099690 -0.114589 
republic 0.144447 -0.020621 -0.208169 0.011856 0.009430 0.745198 -0.425968 -0.026399 0.111939 -0.160232 -0.400060 0.776443 0.723924 0.494760 0.687946 -0.205646 -0.598547 -0.833231 -0.099658 0.134994 0.155905 -0.249799 0.489226 0.163462 -0.037921 0.130003 -0.243835 0.184142 0.192379 -0.354932 0.277576 -0.455365 
Iran 0.046602 0.102485 -0.091582 0.023189 0.027017 0.371134 -0.194200 0.031088 0.048427 -0.079734 -0.211492 0.680860 0.306463 0.270762 0.344954 -0.008366 -0.224840 -0.268503 -0.093460 0.140863 0.061659 -0.223018 0.172184 0.025905 -0.169360 0.122967 -0.169332 0.086892 0.145324 -0.085162 0.019972 -0.101125 
international -0.044821 0.205198 -0.149616 0.045029 0.058646 0.352638 -0.023501 0.246196 0.100011 -0.116147 -0.173610 0.755095 0.295659 0.358523 0.192540 -0.075839 0.020852 0.074534 -0.140282 0.194706 0.039141 -0.130872 0.246958 0.144118 -0.285508 0.033188 -0.197791 -0.125926 0.165489 -0.061294 -0.056966 -0.193758 
childrens 0.015334 -0.006768 0.001405 -0.001132 -0.012473 -0.013987 -0.009334 0.010494 -0.014663 0.002859 -0.012936 -0.001594 0.002184 0.005603 -0.003860 0.009879 0.005698 0.003172 0.006873 -0.013299 0.004318 -0.004820 -0.005004 -0.000898 0.015089 0.008567 0.006813 0.007226 -0.013776 -0.007348 -0.014881 0.006985 
book 0.032949 0.265549 0.005368 -0.065226 0.016523 0.205063 -0.143801 0.012162 0.087779 0.129035 -0.238430 0.577071 0.104601 0.161147 0.390008 -0.065826 -0.172477 0.009189 -0.202635 -0.049547 0.046811 -0.224232 0.142519 -0.151280 -0.238555 0.039581 -0.270129 -0.123190 0.229993 0.297878 -0.053319 0.124622 
thai 0.015390 -0.006558 -0.000344 0.008493 -0.006302 -0.008762 -0.004268 -0.007218 0.013989 0.009106 -0.007752 -0.000835 0.009243 -0.001585 -0.004659 -0.001651 -0.000910 0.007498 -0.001133 0.006749 -0.011730 -0.003496 0.005113 -0.009140 -0.006207 -0.011232 -0.004688 0.001607 -0.010415 0.009282 0.002180 -0.012127 
heritage -0.003269 0.003763 0.015465 -0.008409 -0.004482 0.007770 0.002128 -0.001888 -0.008245 0.007604 0.003731 0.008224 -0.014062 0.012667 -0.003657 0.007297 0.009325 -0.009576 -0.003574 0.001853 0.006340 -0.007352 0.001359 0.004341 0.011728 0.011600 0.015194 0.000857 0.007621 -0.013168 -0.006740 -0.001099 
conservation 0.012407 -0.013612 -0.007096 0.013281 0.000338 -0.010649 0.000714 0.008381 -0.014112 0.011121 0.013197 0.010206 -0.006637 -0.013247 -0.009119 0.014100 0.007320 -0.014838 0.014700 0.002596 0.011469 0.006372 -0.006226 -0.013937 -0.006906 0.009842 -0.005779 0.010010 0.014602 -0.004341 -0.015240 -0.001889 
world -0.183926 0.178798 -0.563027 -0.469662 0.195601 0.633674 -0.402448 0.230223 0.089796 -0.164177 -0.122137 1.677318 0.670938 0.933939 0.475863 0.003076 0.004373 -0.254740 -0.260332 -0.014245 -0.116394 -0.111230 0.557970 0.045620 0.034211 0.066559 0.088309 -0.196408 0.180214 -0.247676 0.220499 -0.387609 
autism -0.002475 -0.006983 -0.005898 0.000039 -0.001136 0.003307 -0.005885 -0.014449 -0.002755 -0.004787 0.015577 -0.012689 0.001609 -0.013047 -0.011470 0.014991 0.009731 -0.002173 -0.008700 0.005239 -0.006674 0.003777 0.010844 -0.010578 -0.005473 -0.000146 -0.000763 0.013678 -0.004820 -0.011997 0.014219 0.007806 
awareness -0.010600 0.009038 -0.001182 -0.009672 0.003619 0.014523 -0.010224 0.009575 0.005724 -0.002372 0.013387 -0.013731 -0.011661 0.012823 0.000588 -0.007489 -0.011828 -0.005509 -0.014842 0.002923 0.010156 -0.015033 0.004855 -0.011585 0.013510 -0.013070 0.006089 0.006844 -0.009574 -0.002155 -0.015004 -0.007177 
malvinas 0.008213 0.010841 -0.011675 0.008009 0.000079 -0.005127 0.002354 0.009345 -0.012295 0.009081 -0.009614 -0.003766 -0.003915 0.004180 0.007350 -0.013002 0.011391 0.015249 0.009745 -0.007557 -0.014445 -0.014189 0.008371 -0.003873 -0.010246 0.008359 0.015054 0.008257 -0.004419 -0.006833 -0.004046 -0.010210 
argentina -0.030423 0.124684 -0.215402 -0.035125 0.153679 0.540991 -0.357676 0.169604 -0.006161 -0.262925 -0.424868 1.085797 0.668524 0.529134 0.626739 0.029850 -0.243404 -0.233537 0.117598 0.238624 0.018511 -0.287321 0.408961 0.330437 0.079880 -0.021160 -0.082935 -0.015222 0.093499 -0.030300 0.203178 -0.393439 
independence 0.302470 0.156522 -0.374719 -0.227848 0.022928 0.617397 0.039978 -0.134097 -0.004841 0.114046 -0.241237 1.135103 0.437044 0.206497 0.556195 -0.041023 -0.270901 -0.479072 0.069974 -0.050524 0.008355 -0.598130 0.384178 -0.066671 -0.298295 -0.104590 -0.301100 0.044641 0.187482 0.351966 -0.024622 -0.028632 
Senegal -0.008040 -0.001669 0.010019 -0.001909 -0.002750 -0.010618 0.014714 -0.006118 -0.002324 0.015466 -0.003815 -0.004097 0.003705 -0.001546 -0.012378 0.002248 0.001026 0.013764 0.008623 0.003680 -0.006470 0.013467 0.006532 -0.000276 -0.000368 -0.003998 -0.003332 -0.002373 0.015198 -0.002909 0.012290 -0.013316 
landmine 0.010126 0.012316 0.000510 0.015152 -0.004458 0.001066 -0.003677 0.011913 -0.003479 0.003079 0.014920 0.010252 -0.001528 -0.012129 -0.012647 0.006801 -0.009437 0.005981 -0.003266 -0.007640 0.005904 -0.014091 0.004257 -0.012795 0.005255 0.008518 -0.011125 -0.010689 0.011476 -0.001856 0.007084 -0.007558 
assistance -0.003328 0.010496 -0.006606 -0.012918 -0.006218 -0.000934 0.008136 -0.007208 -0.000550 0.012061 0.006499 -0.002479 -0.006332 0.005685 0.007354 -0.001152 0.003952 -0.007792 0.011638 0.011448 -0.001030 -0.014132 -0.002053 -0.010669 0.014619 -0.001309 -0.005221 0.001072 0.010784 0.000786 -0.007089 -0.013786 
peace -0.010027 -0.011221 -0.005952 -0.005748 -0.002873 -0.012665 -0.000174 0.006843 -0.000420 -0.006151 0.002747 -0.010650 0.001717 -0.009790 0.008788 0.004530 -0.013572 -0.015052 0.015317 -0.013910 -0.014869 0.002711 -0.008848 0.014119 0.010834 -0.008470 0.005097 -0.002281 -0.000993 -0.013230 0.012733 -0.013734 
Angola -0.251484 0.134074 -0.210535 0.008126 0.023254 0.397809 -0.073376 0.282119 0.078453 -0.084646 -0.247889 1.207586 0.506154 0.301255 0.373201 -0.194726 -0.000969 -0.121609 -0.092722 0.414532 0.143301 -0.557323 0.443584 0.069430 -0.213277 -0.193584 -0.223273 -0.185759 0.239877 -0.052112 -0.157003 -0.183318 
tax -0.014232 0.008582 0.003293 0.004267 0.009811 -0.005822 0.012248 -0.014982 -0.011784 0.009513 -0.009024 -0.004357 0.007018 0.006276 -0.012911 0.012004 -0.011182 0.010528 -0.005568 -0.001029 0.012375 0.000428 -0.010840 -0.005939 -0.002347 0.005377 -0.003649 -0.014558 -0.000827 -0.005972 0.011155 0.014953 
united 0.399237 0.198533 -0.181070 0.388924 -0.325344 0.698353 -0.156296 0.035161 0.284097 -0.932969 -0.314854 1.777977 1.374545 0.851944 0.920388 -0.289189 -0.001001 -0.966375 0.638978 0.714911 -0.159999 -0.261969 0.087817 0.915014 -0.527567 0.264549 -0.176868 0.064890 0.054922 -0.319180 -0.213425 -0.717819 
kingdom 0.022070 0.175374 -0.056102 -0.053521 0.036745 0.316494 -0.061130 -0.019037 0.004966 -0.232347 -0.169608 0.581554 0.363036 0.312916 0.293522 -0.112371 -0.151927 -0.096971 0.009501 0.026979 -0.036292 -0.028149 0.222151 0.186102 -0.076596 0.100040 -0.012852 -0.089953 0.121338 -0.083436 0.006555 -0.255998 
tartan 0.009981 -0.011539 0.003733 0.001551 -0.011836 -0.012461 -0.010438 -0.000086 -0.012061 0.015622 -0.005454 -0.003634 0.009213 0.015610 0.000659 0.003478 -0.003456 0.014458 0.000657 -0.001288 0.008896 0.007871 0.004109 0.014178 -0.013176 -0.011137 0.007067 -0.001965 0.004180 0.004449 -0.010186 0.005212 
canada -0.123481 0.137271 -0.109260 -0.246778 0.073363 0.456873 -0.242503 0.029452 0.128096 -0.008245 -0.206777 0.785284 0.469554 0.318994 0.412638 -0.336293 -0.237243 -0.297770 -0.208977 -0.075383 0.162937 -0.154830 0.438187 0.206973 -0.221898 0.135131 -0.275479 -0.207672 0.191519 0.054263 0.005201 -0.241512 
states -0.160892 0.111382 -0.472680 -0.110184 -0.057622 0.810118 -0.188264 0.001829 0.119755 -0.447483 -0.318460 1.727710 1.035183 0.750894 0.741713 -0.308492 -0.149500 -0.706921 0.178391 0.302225 0.005227 -0.220548 0.654414 0.368967 -0.229468 0.177916 -0.124882 -0.202291 0.087965 -0.373387 0.050928 -0.815788 
chakri -0.013014 0.003792 -0.000576 -0.008469 0.003593 -0.014527 -0.000395 0.005327 0.012560 0.002725 -0.008710 -0.003658 -0.001886 -0.008498 -0.007542 -0.013389 -0.007737 0.002024 0.006257 -0.015237 0.002525 0.014111 0.007301 -0.004071 0.002818 -0.000851 0.010331 -0.005257 -0.008193 0.010601 0.004736 0.005570 
thailand 0.006543 -0.005042 0.013854 0.000030 -0.008934 0.001469 -0.004532 -0.007335 0.009614 0.008406 -0.013889 0.014085 0.000097 0.005512 -0.014755 0.004428 -0.012948 -0.006424 -0.014227 -0.012456 0.008144 0.004823 -0.013631 0.005599 0.002199 0.004356 0.008786 -0.006947 -0.010035 0.014854 0.012492 -0.011860 
maternity 0.009829 -0.006670 0.014847 0.000815 0.007042 0.007188 -0.011400 0.003381 0.000324 0.002212 0.001174 0.011697 0.008294 -0.011819 0.003517 -0.001088 0.008164 0.003859 -0.007931 -0.014201 -0.005949 -0.004765 0.000424 0.005449 0.007398 0.011547 0.010580 0.013839 0.008180 -0.007240 0.006651 0.000239 
beauty -0.010604 -0.001455 -0.005058 0.008922 -0.013347 -0.009135 0.001604 0.002031 0.004899 -0.002395 0.008313 0.013585 -0.011980 0.003328 -0.006606 0.005260 -0.002845 -0.010090 -0.000709 0.009606 -0.005084 -0.003928 0.000862 -0.013172 0.010938 -0.003658 -0.009158 0.008216 -0.003917 0.012224 -0.000350 0.012816 
Armenia -0.001256 -0.005960 -0.006556 -0.011877 0.011911 0.002113 0.008188 0.011068 -0.003123 -0.010180 0.005191 0.009206 0.012441 0.008966 -0.015330 -0.009521 0.012445 0.003201 -0.003582 0.006511 -0.008880 0.001703 -0.001929 -0.008720 -0.008591 0.008606 -0.005079 0.002390 0.010215 0.000299 -0.012292 -0.013078 
genocide -0.008287 0.006370 0.002036 -0.009895 -0.001026 -0.004349 0.002648 0.003130 0.001669 -0.005805 0.008427 -0.012455 0.005887 0.007350 0.012079 0.002011 -0.006426 0.004102 -0.003471 0.004913 0.002987 0.012160 -0.000709 -0.005059 -0.007352 -0.012633 0.008253 0.005752 0.005157 -0.010458 -0.010225 -0.004497 
memorial -0.005332 0.002140 0.007054 -0.005231 -0.013171 -0.005418 -0.005884 0.000309 -0.015112 0.009929 -0.004437 -0.008626 -0.009017 0.001887 -0.008004 -0.003013 0.011457 0.005886 0.014201 -0.001217 0.008330 -0.013759 -0.008290 -0.010946 -0.002312 0.002230 -0.003411 0.007135 0.012522 0.006190 0.014088 -0.006237 
rwanda -0.005831 -0.000169 -0.006296 0.001627 0.015053 -0.007444 0.002350 0.003695 0.005979 0.004959 -0.012981 0.010991 -0.011372 0.011310 -0.000301 -0.013289 -0.008017 -0.001358 0.007995 -0.004278 -0.014875 0.013801 0.002341 -0.008377 -0.001238 0.006118 -0.014511 0.011528 0.004524 0.001132 -0.015436 -0.011547 
health 0.004505 0.009958 -0.006370 0.014495 0.002296 -0.001700 -0.007224 -0.012398 -0.013855 0.008996 -0.009336 -0.013877 -0.005463 -0.005575 -0.001904 -0.005416 -0.013400 0.011234 -0.008153 0.008579 -0.010628 -0.005500 0.000822 0.014862 -0.014296 -0.006397 -0.015273 -0.009137 0.009058 -0.005221 -0.006189 -0.013041 
womens 0.014552 0.008398 0.001551 -0.013826 0.001453 0.014474 0.010400 -0.011804 0.014633 0.002113 -0.006224 -0.006823 -0.001762 -0.005215 0.001777 0.010924 -0.004074 -0.012347 0.002942 0.004133 0.001564 0.010948 0.004300 -0.014902 -0.014442 0.014115 0.013342 0.013212 -0.003396 -0.008444 0.013579 -0.002457 
mozambique -0.000701 -0.003929 -0.003717 -0.004820 0.002234 0.000656 0.013240 0.001443 0.002036 -0.006928 -0.013748 -0.013171 0.014363 0.012945 -0.001922 0.000819 -0.004027 0.005842 -0.010847 -0.001809 0.002309 -0.010636 0.012143 -0.012406 -0.013554 0.010728 -0.012341 -0.003667 -0.003143 -0.014420 -0.009980 0.009115 
buddhas 0.003316 -0.013414 0.013736 0.004821 -0.011241 0.009502 -0.013548 -0.015621 0.014923 -0.005480 -0.014728 -0.003328 -0.011576 0.001343 0.012915 0.008704 0.000813 -0.010912 0.000260 -0.004303 -0.003992 -0.006570 -0.010642 -0.003187 0.009186 -0.005629 0.010948 -0.008305 -0.015269 -0.014872 0.005218 0.003520 
birthday -0.170105 0.072580 -0.249067 -0.162103 0.128838 0.340080 -0.195255 0.125099 0.078803 -0.118373 -0.091505 0.706765 0.236254 0.314319 0.243788 -0.166256 -0.038846 -0.103769 -0.198590 0.055863 0.005820 -0.027234 0.260312 -0.002460 -0.189943 -0.002931 -0.149386 -0.200471 0.110512 -0.018918 -0.074050 -0.156575 
buddhism 0.014686 0.000113 -0.008157 -0.009396 -0.014936 -0.012257 0.002346 0.001913 -0.014832 -0.001990 -0.011376 -0.013686 -0.006959 0.012929 -0.003322 -0.007848 0.013074 0.001770 -0.010283 -0.001214 0.006158 0.003759 0.005336 -0.015324 -0.007118 0.013645 -0.004738 -0.008025 -0.002802 0.001416 0.006678 0.010690 
martyrs -0.003936 0.009854 -0.004760 0.013007 -0.014897 -0.004712 -0.008006 -0.003605 0.003356 0.005684 -0.004553 0.006257 -0.002405 -0.002677 0.010499 -0.015002 -0.001381 0.010422 -0.000472 -0.011859 -0.006617 -0.007828 -0.006168 0.001799 -0.012019 0.005754 0.009547 0.003941 0.014783 -0.006709 -0.011409 0.010038 
Tunisia -0.009518 0.007812 0.012039 0.011048 0.008439 -0.013901 -0.009280 -0.005773 0.008381 0.009651 0.014601 0.011892 0.002021 -0.008769 -0.012938 0.000884 -0.012210 0.015445 0.003933 -0.012999 -0.005070 -0.000771 -0.014856 0.006159 -0.015362 -0.002561 0.006666 -0.012981 0.004822 0.010499 -0.010366 -0.005945 
national 0.083615 0.243714 -0.370960 0.117143 -0.034422 0.735689 -0.126941 0.268255 0.026054 -0.168471 -0.592501 1.402518 0.876470 0.625613 0.507148 -0.181191 -0.365045 -0.315476 -0.260138 0.149505 0.333003 -0.468242 0.833010 0.249495 -0.261681 0.144856 -0.490566 0.031115 0.230222 0.041370 0.270378 -0.250019 
unity 0.002853 -0.013634 0.012660 0.010466 0.014599 -0.013411 -0.004939 0.009213 -0.007737 0.009687 0.003835 0.007050 -0.011087 -0.011086 -0.003494 0.015175 -0.007395 -0.013936 0.013351 -0.006968 -0.010271 -0.004856 0.009171 0.007374 0.005382 -0.001958 -0.001608 0.010846 -0.008249 0.013519 -0.002472 0.002020 
Georg 0.001143 0.010400 0.009335 -0.013459 0.005769 0.011505 -0.002055 0.000611 0.013852 -0.006758 0.012234 0.001069 -0.011221 -0.006904 -0.002270 0.013518 -0.006918 -0.014706 0.008985 0.011119 -0.005926 -0.007840 0.002585 -0.005199 -0.003795 -0.015546 -0.010844 -0.006945 0.013927 0.007921 -0.014220 0.000689 
finnish -0.011013 0.011021 0.012998 0.008370 -0.000711 -0.013711 0.010316 0.009078 0.005945 -0.006639 -0.008555 0.001398 0.003461 0.004940 -0.012184 -0.002092 -0.004485 -0.006051 -0.013026 0.000636 0.003308 0.011685 -0.010194 0.004895 -0.000847 0.009629 0.004887 -0.007296 -0.008352 0.008785 -0.008712 0.003834 
language -0.191960 0.271058 -0.183756 -0.019479 0.165577 0.364186 -0.114603 0.276334 0.029472 0.206459 -0.319347 0.697490 0.404137 0.377621 0.138360 -0.128445 -0.006495 0.000889 -0.160809 -0.004876 -0.142600 -0.063728 0.682864 0.139638 -0.025274 0.007900 -0.182373 -0.300180 -0.005563 0.136596 0.255446 -0.135520 
cosmonauts 0.005829 0.003831 -0.014538 -0.008318 0.011951 0.002111 -0.008981 -0.012022 0.013773 0.002673 -0.006800 0.014766 0.003976 0.007973 -0.003942 0.003555 0.005547 -0.008870 0.001537 0.001518 0.001464 0.001113 0.008817 -0.005881 -0.002166 0.011373 -0.003776 0.012429 -0.005301 0.015317 -0.002456 0.001698 
russia -0.197645 -0.027868 -0.096662 -0.039352 0.071436 0.170183 -0.106046 0.107112 0.126886 -0.027710 0.004999 0.362814 0.138202 0.188429 0.107086 -0.114425 0.023721 -0.164290 -0.073780 0.139474 0.024138 -0.033880 0.139958 0.009099 -0.154318 0.032933 -0.084192 -0.089491 0.068297 -0.055190 -0.086921 -0.116589 
yuri -0.005337 0.007689 0.014170 -0.004186 0.005878 -0.014054 -0.012385 0.006334 0.007244 0.008797 -0.000665 0.006363 -0.002718 0.015078 -0.000605 -0.014590 -0.002386 0.002525 -0.001302 -0.012466 -0.002874 -0.009114 -0.006996 -0.002245 -0.012791 -0.012323 -0.003584 0.009191 -0.003434 0.005354 -0.006222 -0.005600 
gagarins -0.008371 0.005451 -0.010075 -0.012718 -0.001723 0.013203 -0.013266 0.002438 -0.015271 0.008691 0.000609 -0.003072 0.009994 0.001276 -0.003115 -0.001167 0.013782 0.002951 0.000629 0.003179 0.008320 0.013802 0.000878 0.006363 0.008898 0.015498 -0.000941 0.007640 0.015495 -0.014337 0.000686 -0.000721 
space -0.158287 0.238914 -0.078950 -0.311706 0.070492 0.276391 -0.173643 -0.002388 -0.118773 -0.011286 -0.109335 0.766737 0.140129 0.135242 0.350674 -0.065698 -0.095603 -0.036645 -0.120233 0.044733 0.146020 -0.132679 0.254958 -0.126302 -0.122403 0.033552 -0.276637 -0.269892 0.366955 0.053832 -0.081549 -0.010644 
flight -0.000618 0.001934 0.003316 0.012780 0.001213 0.007704 0.014464 -0.000475 -0.003292 0.008026 -0.006592 0.002645 0.006531 0.007075 -0.015395 0.005135 -0.014963 -0.006487 -0.009503 0.010085 -0.015284 -0.007515 -0.012497 0.012332 -0.008897 0.014966 -0.010855 0.001133 -0.013424 -0.011031 -0.002826 -0.013390 
songkan 0.007852 0.002337 0.015414 -0.004345 -0.006206 0.002476 -0.004613 0.004354 -0.011829 0.002494 -0.013799 -0.000682 0.003105 -0.003603 -0.013120 -0.011995 -0.003702 -0.003541 0.003975 -0.013255 -0.012755 -0.015515 -0.014474 0.011645 -0.012944 0.006297 -0.000150 -0.015122 0.011802 0.012897 0.007524 -0.013256 
Laos -0.009320 0.012690 -0.004252 0.004052 -0.000515 -0.001918 0.015506 -0.011187 -0.008617 0.008554 -0.012819 -0.012499 0.003114 0.009050 0.004084 0.002839 0.007111 0.006604 -0.012451 -0.009318 0.002274 0.001466 0.007824 0.002903 0.013087 -0.012689 0.008510 0.005060 0.002601 0.010786 -0.001232 -0.011145 
local -0.144228 0.188516 -0.274472 -0.169580 0.145651 0.334885 -0.296230 0.138804 0.086538 0.015958 -0.129920 0.998746 0.354974 0.314076 0.374461 -0.080881 -0.023774 -0.160964 -0.211465 0.030399 -0.028807 -0.138669 0.301550 -0.021005 -0.172179 -0.055671 -0.139330 -0.137461 0.135037 0.133873 0.024653 -0.027559 
celebration 0.005767 0.003658 0.011577 0.005922 -0.004605 0.003541 0.001117 0.008115 0.004263 -0.001269 -0.007580 0.000273 -0.001853 -0.008010 0.008396 0.013981 0.006411 -0.009043 0.003713 0.006700 0.001050 0.010259 0.004575 0.014977 0.004606 -0.006771 -0.007111 0.011961 -0.000339 0.000522 -0.005888 -0.004885 
cambodian 0.008313 -0.007717 0.005695 -0.001878 -0.002422 -0.002493 -0.003037 -0.001031 -0.007679 0.014635 0.015134 0.005245 0.002575 0.004114 -0.005880 0.014748 0.009514 0.010553 0.012452 -0.003570 0.014702 -0.006467 -0.002492 -0.010886 -0.012163 0.013716 -0.006658 0.003791 0.003509 -0.007327 -0.014485 -0.001544 
Thomas 0.001148 0.005082 0.008754 -0.000613 -0.009098 0.015096 0.008423 -0.006203 0.011389 -0.008542 -0.010384 0.005082 0.006495 0.008868 0.013131 -0.008773 0.011796 -0.003029 -0.011388 0.011708 0.006666 -0.012012 0.013504 -0.004759 0.000458 -0.004383 -0.014959 0.013432 0.013969 0.001047 -0.003659 0.008573 
jeffersons -0.006938 -0.006603 0.000333 0.001357 0.014092 -0.015311 -0.005428 -0.011391 -0.003578 -0.011281 0.006130 0.012280 -0.010662 0.010368 -0.013714 0.014930 -0.005925 -0.001598 0.013730 0.008939 0.003296 0.006565 0.002656 0.010320 -0.012505 0.014701 -0.008406 0.014993 0.006929 0.000946 0.008232 -0.012555 
georgia 0.003281 -0.002892 -0.003149 -0.006412 0.007089 -0.012572 0.000537 0.015274 0.002400 -0.005207 0.000744 -0.012407 0.007589 0.000302 0.003885 0.001718 0.006121 -0.012311 0.004560 0.013871 -0.003617 0.001981 -0.001762 0.014728 0.012589 -0.012251 0.010670 0.013855 -0.002481 0.011791 -0.014495 -0.008974 
youth 0.000851 -0.014771 -0.010327 0.005009 -0.015228 -0.001569 0.014015 -0.005252 0.005640 -0.006413 0.009668 -0.014967 0.006316 -0.008814 0.001327 0.000085 -0.008228 -0.014728 0.004863 0.006531 0.002060 0.006272 0.013326 0.003102 -0.002434 -0.004799 -0.002662 0.008023 0.014918 0.002742 -0.008794 0.005357 
ambedkar -0.010004 -0.006667 -0.008699 0.002949 -0.011041 -0.002068 0.009323 -0.006586 0.005707 0.006516 -0.002278 0.004388 -0.010583 -0.007317 0.012447 -0.015496 -0.011568 -0.011593 -0.009903 0.001101 0.014821 -0.006969 -0.010169 0.005263 0.002480 0.005400 0.003776 -0.005443 -0.014606 -0.014983 -0.004555 -0.010398 
tayanti -0.002386 0.000821 0.008770 0.008943 -0.013437 -0.015405 -0.013548 0.006050 0.011770 0.009696 0.004005 0.012914 0.013781 -0.015293 0.008679 0.007475 -0.010226 0.012951 -0.011127 0.010341 0.002042 -0.012557 0.007579 0.009554 0.015135 -0.011520 0.010286 0.010771 -0.010899 -0.005036 -0.012318 0.009269 
india -0.199579 0.208628 -0.199258 -0.129658 0.091606 0.424278 -0.497934 0.067556 0.236363 -0.149172 -0.268606 1.043253 0.339407 0.450669 0.578029 -0.255722 -0.199426 -0.301911 -0.269680 0.035616 0.048699 -0.225485 0.209850 -0.110616 -0.183721 0.063004 -0.197031 -0.204143 0.245600 0.117631 0.110145 -0.025422 
panamerican -0.002602 -0.004471 0.013533 0.000879 -0.001825 -0.012855 0.009232 0.009795 0.010274 0.013062 0.004274 -0.009904 0.013187 -0.010783 -0.007208 -0.008792 0.000576 0.000336 -0.007890 -0.010392 -0.005597 0.010599 -0.011866 0.012317 -0.006641 0.006014 -0.004752 -0.011575 0.009083 0.001759 -0.000424 0.015573 
Kim 0.002954 0.010601 -0.013391 0.008779 0.014166 -0.009904 -0.002864 -0.004344 0.007412 -0.003338 0.012857 0.012943 -0.003861 0.015193 0.011854 0.006687 0.005211 -0.012939 -0.009025 -0.005408 -0.015125 0.015345 -0.006410 -0.009367 -0.010455 -0.008012 -0.011739 -0.000060 0.004774 -0.011586 -0.005058 0.003828 
ilsungs -0.000757 -0.008762 0.004590 0.009513 -0.011780 0.012457 -0.001776 -0.004215 -0.003564 -0.003561 0.010149 0.011594 0.004025 -0.010604 0.004880 -0.003059 0.003928 0.012523 0.014804 0.009411 -0.012677 -0.003792 -0.012379 -0.012691 0.014057 0.010321 0.011499 -0.006639 0.009526 -0.000523 -0.011639 -0.003426 
north 0.103296 0.138876 -0.300112 -0.348019 0.193319 0.761115 -0.283191 -0.314161 0.038814 0.027913 -0.302579 1.517877 0.621952 0.507577 0.639811 -0.005554 -0.408373 -0.745044 -0.167537 -0.004657 0.080014 -0.297890 0.448009 0.009467 -0.457913 0.177245 -0.116650 0.351498 0.246328 -0.118033 0.049803 -0.396244 
korea -0.008456 0.011671 -0.009404 -0.012788 0.011449 -0.001258 -0.011206 -0.001407 0.007793 -0.002427 0.000302 0.005039 -0.000493 0.010029 -0.005001 0.014912 0.009602 -0.014145 0.004033 0.013617 0.003186 0.001276 -0.010831 0.007288 -0.005379 -0.010926 -0.014398 0.009537 -0.013679 -0.008624 0.006090 0.000201 
father -0.120023 0.053784 -0.022719 -0.147864 0.094181 0.146772 -0.130549 0.046110 0.065235 -0.024973 -0.058775 0.439408 0.121142 0.148627 0.152130 -0.067253 -0.038526 0.035336 -0.122249 -0.016760 0.066791 -0.030825 0.151602 0.025299 -0.094404 -0.040460 -0.088323 -0.105385 0.115791 0.018638 -0.059499 -0.064284 
damien 0.002063 0.007373 -0.014438 0.006935 -0.006819 0.013660 0.008182 0.002164 -0.002336 0.011513 -0.007580 -0.005318 -0.013993 -0.014376 0.005777 -0.003894 -0.001259 0.003736 -0.004718 0.009111 -0.014197 -0.010309 0.012551 -0.006820 0.005391 -0.014710 -0.004796 0.006206 -0.013743 -0.004670 -0.013058 0.000906 
hawaii -0.005813 -0.010437 -0.007019 -0.001708 -0.002808 0.013054 0.007422 0.011375 -0.003577 -0.014289 0.003422 -0.002234 -0.008457 -0.008395 -0.001406 -0.000395 -0.009897 0.010154 0.001048 0.006222 0.001421 0.006461 -0.012618 0.004604 -0.013678 -0.013699 -0.009346 -0.000993 -0.000261 -0.013104 -0.009469 -0.001790 
jackie 0.009668 0.004696 -0.003207 0.003780 0.012967 0.001863 0.005264 -0.000181 0.008824 0.004925 -0.003349 -0.005450 -0.006882 0.013143 -0.007725 0.002935 0.003037 0.000572 0.001836 0.000183 -0.013279 -0.009626 0.005673 0.006694 0.012731 0.003159 0.002497 -0.008750 -0.014743 -0.003669 -0.006303 -0.003242 
robinson 0.000211 -0.014407 0.010218 0.008218 0.002386 0.007752 0.010030 -0.012541 -0.001702 -0.009797 -0.012806 0.004431 0.006668 -0.001885 0.012542 -0.014744 0.010555 0.004976 -0.001628 -0.001095 0.001623 0.003871 -0.001189 -0.004158 -0.002912 0.006418 -0.013281 0.013203 0.006940 0.013227 0.014568 0.001996 
Major 0.174028 0.048653 -0.234036 -0.032378 0.052661 0.303019 -0.303786 0.093004 0.158720 -0.271803 -0.229361 0.341978 0.346383 0.278142 0.228767 -0.250093 -0.190254 -0.316094 -0.318078 -0.122371 -0.092973 0.127087 0.272266 -0.004164 0.030448 -0.197797 -0.150196 -0.402177 0.031508 0.116083 0.226160 0.003260 
league -0.195900 -0.110704 0.089772 -0.001325 0.026392 0.202294 -0.001387 0.089450 0.098111 0.002026 -0.041682 0.291823 0.240585 0.075933 0.153880 -0.153150 -0.039736 -0.121965 0.043681 0.181396 0.244011 -0.233122 0.252608 0.198120 -0.075507 0.066248 -0.200894 -0.027359 0.147245 -0.135157 -0.094682 -0.205462 
baseball 0.010927 -0.001277 0.001365 0.006794 0.009073 -0.007103 -0.006110 -0.003428 0.010453 -0.007432 0.003898 0.010479 0.006178 0.006079 -0.007406 0.006498 -0.007515 -0.004219 0.007754 0.012887 -0.009175 0.009327 0.009609 0.004877 0.009834 0.008459 -0.004620 -0.001354 -0.009539 0.011472 0.002977 0.003686 
queen 0.108348 0.100032 -0.200800 -0.093604 0.004658 0.413143 -0.110628 -0.133137 -0.010922 -0.381146 -0.185406 0.630505 0.382209 0.183810 0.288206 -0.073066 -0.207252 -0.236746 0.011323 0.085434 -0.022944 -0.130033 0.122551 0.165539 -0.119926 -0.047839 0.079468 0.069141 0.028690 -0.136221 -0.006629 -0.313594 
margrethe -0.010993 0.003637 0.015608 0.005786 -0.008938 -0.005830 -0.004499 0.008706 -0.000067 -0.001365 -0.005502 0.014839 -0.004362 -0.004351 -0.010562 0.005105 -0.000482 -0.009002 0.005619 -0.002430 -0.006709 0.007044 0.012763 0.005146 0.005537 -0.007291 0.009744 0.005563 -0.009152 -0.012863 -0.007725 -0.008996 
ii -0.032579 -0.029770 -0.345562 -0.199847 0.022900 0.454083 -0.141979 0.030980 0.101890 -0.279578 -0.074768 0.853959 0.512000 0.346158 0.348617 -0.003086 -0.087929 -0.282821 0.106890 0.162324 -0.114960 -0.158651 0.145913 0.238912 -0.228737 0.014148 0.117261 0.087883 0.012704 -0.256477 -0.084552 -0.400158 
denmark 0.008563 -0.002972 -0.002522 0.005632 -0.011471 -0.004881 0.015500 0.008715 -0.004504 -0.000331 0.006314 -0.004304 0.007316 -0.003438 -0.012975 -0.005412 0.002241 0.015391 -0.009828 -0.004011 0.012436 -0.012827 -0.008499 -0.007881 -0.010407 -0.003026 0.015107 -0.002330 -0.004808 0.004188 -0.012880 0.005514 
emancipation -0.011869 -0.003818 -0.006111 0.004024 0.000402 -0.011203 0.012049 0.001818 0.000765 0.001111 0.000448 0.000653 -0.008418 0.009561 -0.011819 -0.000903 -0.005916 0.004709 0.011558 -0.003364 0.011285 -0.005661 0.001681 0.009540 -0.008436 -0.007041 -0.014651 -0.008080 0.015020 0.009975 -0.008241 -0.012529 
Washington 0.036352 0.000212 -0.057024 -0.021079 -0.086571 0.156808 -0.040204 -0.035931 0.026751 0.032062 -0.215014 0.501327 0.191225 0.102272 0.241272 -0.129551 -0.095173 -0.079095 -0.040523 -0.027232 0.127160 -0.336664 0.248879 -0.029041 -0.124736 -0.075016 -0.125160 -0.042375 0.125585 0.158555 0.013381 -0.033610 
dc -0.003118 0.008318 0.003835 -0.003887 -0.007215 -0.002247 0.002590 0.006457 -0.015358 -0.006712 0.010672 -0.009663 -0.000973 0.004907 -0.010655 -0.014913 0.013529 0.012583 -0.000769 0.005048 -0.008270 -0.004947 -0.003397 -0.011464 -0.014044 -0.002808 -0.013633 -0.006600 -0.015417 -0.002948 -0.012031 -0.014072 
voice 0.008476 -0.006264 -0.003026 0.003216 0.014639 -0.005348 0.003673 0.003062 0.013022 -0.010401 0.009778 0.002384 -0.007109 0.009028 0.006649 -0.005634 -0.009810 -0.013723 0.008940 0.001865 0.006514 -0.012962 -0.000845 -0.000940 0.004185 0.014339 0.008133 -0.006953 0.014518 -0.014505 -0.005719 0.007462 
selena 0.013361 0.012701 -0.010331 0.011599 0.009719 0.004674 -0.010513 -0.009580 -0.014309 0.004358 0.004428 0.015030 0.003667 0.010966 -0.007212 -0.008720 0.000584 -0.008137 -0.011904 0.005785 0.014333 -0.014073 -0.014933 0.003942 -0.004087 0.007506 -0.005888 0.010879 0.005667 0.008266 0.000432 0.013299 
Texas -0.007215 0.008443 0.012138 -0.004473 0.006227 -0.009815 0.004319 0.006962 0.009213 0.007370 -0.013150 -0.004034 0.006468 0.012620 0.004669 0.004921 -0.012155 0.004899 -0.002387 0.000082 0.005879 0.007495 0.013165 -0.001548 0.007523 0.003917 -0.004056 -0.012554 -0.015044 -0.009660 -0.008836 -0.003393 
syria 0.001151 0.005739 -0.006165 0.001443 0.011937 -0.002290 -0.009989 0.004931 -0.012906 -0.009786 0.013373 -0.006375 -0.000033 0.001472 -0.013577 -0.013748 -0.007516 -0.014632 0.002031 0.011930 0.012580 -0.003288 0.007106 0.010310 0.007265 0.003619 -0.006654 -0.012106 -0.007104 0.003482 -0.012215 -0.010162 
flag -0.122564 0.036653 -0.119535 -0.129464 0.061188 0.192978 -0.081867 0.029964 0.070132 0.001631 -0.104049 0.502995 0.172015 0.182101 0.097444 -0.032731 -0.085365 0.011657 -0.191709 -0.011669 0.027414 -0.032621 0.178308 -0.023066 -0.124747 -0.008807 0.001119 -0.032923 0.145281 -0.002511 0.009285 -0.099719 
american -0.492853 0.492947 -0.916101 -0.777554 0.270967 0.520796 -0.371538 0.049576 -0.411322 0.311959 -0.155313 1.422549 0.873009 0.341482 -0.144110 0.004528 -0.024540 0.430372 -0.309940 -0.707809 -0.356468 0.108323 0.866770 0.320073 0.015117 -0.126225 0.094075 -0.136294 0.142145 0.219502 0.675352 -0.491634 
samota 0.004285 0.002690 -0.012624 -0.006875 -0.005935 0.003082 -0.009911 0.013729 0.010876 0.010611 0.006350 -0.007483 -0.000850 -0.002011 -0.006045 -0.002514 0.013250 -0.015018 -0.011121 0.007708 0.010142 0.008899 0.008151 -0.014157 -0.012810 0.007897 -0.001075 0.008624 -0.000138 -0.008104 -0.002947 0.004248 
Gabon 0.012587 0.007154 -0.012830 0.013389 0.012451 0.008084 0.006388 -0.004915 0.014879 0.003654 0.006600 -0.009598 0.014462 -0.000632 -0.009312 0.012640 -0.015260 0.014343 -0.007124 0.006181 0.002112 0.014083 -0.011178 -0.000303 -0.006009 0.002765 0.000163 0.011554 0.002293 0.008349 -0.013960 0.005181 
hemophilia -0.013695 0.008122 0.005176 -0.014009 -0.002825 -0.013865 -0.001864 0.010526 -0.005636 -0.011225 -0.014001 0.008660 0.007140 0.012750 -0.002067 0.014148 0.006529 -0.008777 0.008266 0.014223 -0.008537 -0.002175 0.006119 -0.014864 -0.006145 0.015366 -0.012823 0.001093 -0.000014 -0.008166 -0.004601 -0.014255 
Zimbabwe 0.011154 0.014422 0.003897 0.007073 -0.012144 -0.001276 -0.015109 -0.011481 0.012276 -0.003554 0.000747 0.000063 0.006217 -0.014337 -0.013153 -0.010934 0.010418 0.011299 -0.012909 0.009440 0.004395 0.005902 0.007504 0.009751 0.010995 -0.005909 0.014168 -0.014706 0.013167 -0.011822 -0.007090 0.013261 
invention 0.000903 0.011229 0.004244 -0.004985 -0.009929 0.009510 -0.002880 -0.012989 0.001884 0.011479 -0.009671 -0.008412 0.014525 -0.011358 0.006141 0.007559 0.001495 0.013085 0.001735 0.009654 0.003544 0.001877 0.006545 0.012311 0.003797 0.015459 -0.014932 0.015274 -0.004073 -0.004377 -0.015501 -0.000029 
japan -0.037356 -0.018146 -0.039702 -0.124176 0.067542 0.338391 -0.174438 -0.064785 -0.055532 -0.039795 -0.173108 0.416337 0.245813 0.167475 0.296456 -0.108007 -0.130885 -0.145218 -0.087810 -0.109786 0.173570 -0.155605 0.249764 0.050656 0.035443 0.107488 -0.116496 0.050081 0.100637 0.011091 0.091306 -0.113850 
monuments -0.003813 0.010946 0.003494 0.000337 0.009688 0.002465 0.013554 0.003113 0.011062 0.008619 0.009810 0.013252 -0.008248 -0.000798 0.003646 -0.013613 -0.002007 0.002309 0.013513 0.009558 0.013526 -0.008340 -0.000665 -0.000323 -0.010739 0.015534 -0.000065 0.014093 0.014399 -0.001702 0.000210 -0.005095 
sites -0.212886 -0.124363 0.000029 -0.181162 0.177758 0.122035 -0.131241 -0.037491 0.071097 0.055247 -0.056401 0.346717 0.101423 0.191577 0.082424 -0.143527 -0.008506 -0.080513 -0.207711 -0.030836 0.159024 0.013499 0.321766 -0.032748 0.008815 -0.002441 -0.072546 -0.114447 0.107835 -0.060616 0.032485 -0.086430 
bicycle -0.010100 0.002370 0.010342 -0.002789 -0.004865 -0.006221 0.015520 0.015620 -0.014376 0.004306 0.013113 -0.010916 -0.010086 0.007022 0.004113 0.012270 -0.002957 0.000379 -0.002269 -0.008059 0.003642 0.010221 0.008070 -0.003335 0.007490 0.004611 -0.002298 0.006859 0.006516 -0.003887 -0.013421 -0.013107 
dutchamerican 0.010140 -0.004896 0.006240 -0.006967 -0.012797 0.010018 0.001989 -0.011979 0.001137 0.009129 -0.012032 -0.009385 -0.010439 0.002512 0.002110 0.014920 0.004013 -0.012865 -0.012482 0.015232 -0.015064 -0.011673 -0.015422 0.011606 0.007684 0.014362 -0.014301 -0.013833 0.010215 -0.014043 -0.010743 -0.005555 
friendship -0.006803 -0.005746 0.002742 0.008903 0.010603 -0.001464 0.000276 0.005213 -0.014817 0.010063 -0.012207 0.007370 0.005491 0.006099 -0.008179 -0.004251 -0.005735 0.013488 -0.010867 0.000836 -0.004044 0.014481 0.011300 0.005325 -0.012140 -0.004662 -0.003680 -0.014606 0.003010 0.014524 -0.015404 0.013117 
King -0.141478 -0.124577 -0.099308 -0.110578 -0.009461 0.187188 -0.129360 0.055124 0.064977 0.162666 -0.152660 0.722030 0.244535 0.160759 0.230207 -0.199813 -0.045054 -0.164807 -0.116789 0.070035 0.250834 -0.398964 0.379327 -0.020952 -0.287124 -0.012667 -0.206274 -0.040755 0.200954 0.079553 -0.091914 -0.140174 
mswati 0.013009 -0.001372 -0.008213 -0.004499 -0.008432 -0.008640 -0.003266 0.007771 -0.012587 0.006042 0.000053 -0.002430 0.005826 -0.013114 -0.011109 -0.009186 0.010220 -0.015491 0.000652 0.011600 0.005692 0.002299 0.013671 -0.001299 -0.000172 0.003875 -0.010746 -0.009463 0.004264 -0.013132 -0.009805 -0.001007 
iii -0.014329 0.014094 0.000677 0.000749 -0.011319 -0.008407 -0.010686 0.003942 -0.013715 -0.002050 0.002218 -0.006415 0.008676 -0.013049 0.005614 -0.009686 0.001874 0.012585 -0.008925 -0.013043 -0.006276 -0.007866 -0.001171 0.008252 0.006707 -0.000847 0.004468 -0.002336 -0.012383 -0.012194 -0.014987 0.010199 
swaziland -0.003650 0.013306 -0.010746 -0.002905 -0.010666 0.000257 0.011965 -0.011722 0.004204 -0.013431 -0.002496 -0.007473 0.014800 -0.002114 -0.005776 0.005742 0.002220 -0.000092 0.001107 0.002202 0.001890 0.010381 -0.009218 -0.006159 -0.005006 -0.010451 0.003873 -0.000148 0.005893 0.007809 -0.003124 0.012056 
patriots 0.010455 -0.005494 0.013461 0.004116 0.015368 0.002220 0.014248 -0.007077 -0.008578 -0.008264 -0.004125 -0.009222 0.011088 0.003443 -0.012406 0.003680 0.015429 -0.010627 0.010675 -0.012326 -0.000782 -0.001553 0.011063 0.011064 0.004110 0.007971 -0.002437 0.002539 0.012233 -0.015110 0.000710 0.012555 
Massachusetts 0.013648 -0.010454 -0.006601 0.012935 -0.002299 -0.003967 0.011719 -0.002767 0.000712 0.010871 -0.008625 0.003168 -0.000400 -0.009700 0.008697 0.000081 -0.001752 0.007556 -0.001325 0.007297 0.009549 -0.013385 -0.011535 0.007159 0.003614 -0.005405 0.007825 -0.009616 0.008191 -0.006676 0.012485 0.005780 
Maa 0.100321 0.157800 -0.113013 -0.074463 0.043842 0.148380 -0.095732 0.004800 -0.068539 0.013628 -0.254956 0.167559 0.148299 0.168471 0.159875 -0.221159 -0.144594 0.031396 -0.171645 -0.183307 0.070282 -0.045354 0.385254 -0.018787 0.231808 0.033798 -0.294069 -0.230379 0.090832 0.182016 0.259634 0.078344 
Wisconsin 0.002723 -0.004911 0.001738 -0.002833 0.004600 0.005522 0.008742 -0.011791 -0.006381 -0.000660 0.015476 0.000243 -0.012864 0.010509 0.003068 -0.001493 0.009108 -0.001509 0.005196 -0.003543 -0.009393 -0.007419 -0.015274 -0.012616 0.001181 -0.007500 -0.003232 0.015025 -0.014106 -0.015292 -0.011533 0.011731 
cannabis 0.014064 -0.002734 -0.009012 -0.001177 -0.011706 0.001669 0.012585 0.006551 0.000311 0.009836 0.003481 0.011095 -0.000992 0.012590 -0.003615 0.013471 0.013724 0.001309 0.004900 -0.010579 -0.008193 0.010295 -0.007548 0.001528 -0.015616 -0.000396 -0.004260 0.012570 -0.003937 0.012615 0.014439 -0.003312 
culture 0.054577 0.273398 -0.073085 -0.014785 0.036446 0.140268 0.072990 0.014509 0.047298 0.170487 -0.351075 0.699760 0.223779 0.127006 0.099023 -0.126503 -0.063935 0.237945 -0.373543 -0.158241 0.148026 -0.381617 0.439325 -0.104024 -0.217492 -0.132356 -0.163655 -0.104512 0.172609 0.555192 0.148134 0.061907 
John 0.192411 0.173140 -0.356783 -0.174725 0.091811 0.279458 -0.224264 -0.008464 -0.031177 -0.114267 -0.189805 0.586525 0.216337 0.223643 0.201844 -0.073550 -0.099267 -0.055251 -0.206936 -0.192605 -0.105397 -0.004903 0.232102 -0.004982 -0.001328 -0.041093 -0.094725 -0.205843 0.016743 0.114928 0.125203 -0.034727 
muir -0.010889 -0.009854 0.004033 -0.005444 0.001306 -0.005760 -0.003722 -0.004520 -0.010927 -0.008170 0.014840 -0.004940 -0.001048 -0.009911 -0.007503 0.011056 0.005872 -0.000934 0.007122 0.009273 -0.012628 0.012463 -0.005617 0.007336 -0.002006 0.002747 -0.012513 -0.004954 -0.003669 -0.007916 -0.004478 0.010753 
California 0.001346 -0.009161 0.010548 0.006803 -0.003913 0.014634 0.013017 0.008291 -0.010304 0.000948 -0.003239 0.002772 0.004118 -0.003591 -0.000257 0.013995 0.009517 -0.003435 -0.011466 0.001381 -0.009632 0.006288 -0.001094 0.002420 -0.007243 -0.007885 -0.008616 0.007426 0.002026 0.011212 -0.012211 -0.008761 
San 0.160481 0.098920 -0.091836 -0.071633 -0.036096 0.199086 -0.012215 -0.113307 -0.148774 -0.036271 -0.114287 0.337850 0.218715 0.092432 0.116765 0.060438 -0.159467 -0.045662 0.018979 -0.043473 -0.020931 -0.177511 0.160690 0.005499 0.038529 -0.038899 0.059808 0.092813 0.054079 0.101219 0.151814 -0.069032 
jacinto -0.004597 -0.013884 -0.007732 -0.007261 -0.005863 0.007477 0.005353 0.015151 0.000153 -0.002201 -0.007779 0.015202 0.005210 -0.003788 -0.004663 -0.005147 -0.007535 0.008356 -0.008002 -0.013864 0.008832 0.015103 0.001066 0.006394 -0.004881 0.012016 -0.006214 -0.012289 -0.005028 0.005788 -0.008305 -0.008379 
kartini 0.007782 -0.008428 -0.013101 -0.012877 -0.010915 0.007034 0.003281 -0.011440 0.012100 -0.007275 0.002409 -0.014692 -0.008888 -0.007305 -0.009764 -0.012690 -0.003972 0.003721 -0.004920 0.007760 0.003954 0.014739 -0.015229 0.006240 -0.014040 -0.003180 -0.002531 -0.011898 -0.008563 -0.005267 -0.007861 0.008593 
Indonesia 0.059182 0.005802 -0.097306 -0.096337 0.030078 0.175510 0.004403 -0.041835 -0.042035 0.028471 -0.084227 0.282290 0.124379 0.040239 0.091834 -0.027540 -0.113389 -0.096342 -0.080033 -0.027479 0.007225 -0.094888 0.179164 0.004484 -0.083418 0.006358 -0.057022 -0.035402 0.061919 0.040796 0.045136 -0.085107 
tree -0.105504 0.028415 0.111845 -0.256711 0.062595 0.323917 0.072960 -0.092878 -0.076545 0.309078 -0.219769 0.725959 0.145701 -0.006376 0.202823 -0.114892 -0.196293 -0.004791 -0.171279 -0.069637 0.246024 -0.415417 0.398531 -0.075521 -0.248781 0.037837 -0.286508 -0.097584 0.413775 0.190000 -0.127750 -0.063346 
planting 0.011325 -0.014810 0.014788 0.015412 -0.007565 0.009860 -0.014397 0.007490 0.000788 -0.001672 -0.005053 -0.008163 0.008444 -0.002261 -0.012385 -0.013667 -0.011316 -0.011931 -0.015018 -0.002294 0.012309 0.009036 0.009154 0.000686 0.003374 0.015046 0.002471 0.015545 0.010918 -0.012117 0.015314 -0.002178 
kenya 0.009541 -0.014881 -0.007530 0.014835 0.014373 -0.002712 -0.013087 -0.006968 -0.014091 -0.014860 -0.006747 -0.001021 -0.003230 -0.014856 0.009835 0.004331 -0.002905 -0.001503 0.012488 0.002050 0.015548 -0.005640 0.001759 0.012472 -0.010585 0.002464 0.015296 -0.012969 -0.004746 -0.015591 0.005069 -0.010118 
ridran -0.005941 0.013284 0.010191 0.014315 -0.014991 -0.000269 0.004609 -0.002579 -0.002247 0.013672 -0.015309 0.008938 -0.002443 0.000847 -0.001477 -0.009883 0.010887 -0.013627 -0.013186 0.000615 -0.006522 -0.005867 -0.002290 -0.002780 -0.003459 -0.005425 0.007111 -0.014600 0.005266 0.009938 0.011027 0.001039 
bahai 0.012464 -0.005431 0.012939 -0.007160 0.008598 -0.004693 -0.005396 0.000815 -0.015255 0.010601 0.001325 -0.015564 0.010002 -0.007985 -0.014098 0.005288 -0.011802 -0.000410 -0.001546 0.005409 0.011413 0.001897 -0.004089 0.013148 -0.014389 0.011328 0.000546 0.013335 -0.005482 0.011977 0.003644 0.011764 
faith -0.009221 -0.004912 0.013745 0.010415 -0.011199 -0.000429 0.004191 -0.015542 -0.003947 -0.007163 -0.002275 0.013879 0.009984 -0.015289 -0.005125 -0.012749 0.004792 0.012134 0.003943 0.009783 -0.012506 0.000544 -0.014307 -0.015278 -0.010925 -0.011599 0.013276 0.013739 0.007386 -0.013539 -0.007356 -0.009833 
grounation 0.004984 -0.009699 -0.003154 -0.008259 0.003981 0.007455 -0.007598 0.008113 0.013755 0.006618 -0.012831 -0.010751 0.006779 -0.001809 -0.006157 -0.008501 -0.003381 0.002831 -0.005128 0.001742 0.001195 -0.015477 0.002473 -0.008233 0.012156 -0.005963 0.010889 -0.000983 -0.014176 0.007447 -0.010375 -0.011741 
rastafari -0.007520 0.005052 0.001031 0.008407 -0.011832 0.000047 -0.003653 0.001108 0.001486 -0.007040 0.015613 0.012695 -0.005973 -0.015491 0.010440 0.006011 0.000524 -0.000448 -0.004503 0.005251 -0.013054 0.009952 0.013286 0.011815 -0.003805 -0.000484 0.004678 -0.010225 0.011257 0.003283 -0.004212 0.007445 
movement -0.062119 0.047269 -0.030752 -0.115547 0.044980 0.095865 0.006172 0.051187 0.095682 0.059286 -0.114313 0.455767 0.134909 0.141207 0.135112 -0.075420 -0.033752 0.132750 -0.148204 -0.044498 0.129126 -0.160420 0.236604 -0.059399 -0.097550 0.003671 -0.118844 -0.099419 0.125645 0.151331 0.007493 -0.001937 
earth -0.092715 0.270174 -0.166499 -0.252905 0.176949 0.322537 -0.244034 0.144893 0.044873 0.174898 -0.127504 0.988716 0.164819 0.316906 0.333605 0.041332 0.021401 0.031486 -0.344664 -0.037418 -0.031544 -0.016118 0.287823 -0.027052 -0.336806 0.094112 -0.151908 -0.201959 0.262588 0.195406 -0.162364 -0.037568 
discovery -0.060571 0.081093 0.072207 -0.208942 0.150726 0.160220 -0.179404 -0.159902 0.006919 0.186202 -0.151390 0.681668 0.143760 0.185122 0.246629 0.048704 -0.104825 -0.053453 -0.218553 -0.081248 0.183108 -0.168763 0.227650 -0.210451 -0.136941 0.097912 -0.033185 0.128181 0.217225 0.194928 0.009235 0.053266 
brazil 0.042179 0.041838 -0.151500 -0.149509 0.031547 0.208375 -0.069274 -0.113930 -0.021494 0.060810 -0.104182 0.509104 0.178359 0.089687 0.221905 0.022308 -0.137728 -0.242622 -0.051852 -0.053623 -0.009073 -0.133515 0.150079 -0.064096 -0.170571 -0.030340 -0.098104 0.026260 0.086626 0.076652 -0.002560 -0.057909 
Saint 0.005512 0.012638 0.015451 -0.015451 0.004444 0.006303 0.002169 -0.014813 0.014297 0.009076 -0.009031 0.010398 -0.012403 0.006282 0.006663 0.001242 -0.005024 0.009531 -0.013292 0.011514 -0.012359 -0.014673 0.009726 0.013912 0.005526 0.015038 0.012805 -0.013256 -0.011490 0.013948 0.008783 -0.009362 
georges 0.011059 0.007856 0.009772 0.015385 0.015273 -0.007935 0.013002 0.000610 -0.010648 -0.015174 -0.009237 0.015123 -0.012201 0.002640 0.007408 -0.006109 -0.004795 0.013526 -0.011263 -0.014509 0.007254 -0.001191 -0.008718 -0.013440 0.002829 -0.000835 0.003507 0.009681 -0.009662 -0.010119 0.011089 0.011846 
celebrating -0.006284 -0.000285 0.003313 -0.015595 0.008792 -0.015114 -0.006791 -0.008986 0.001295 0.001462 0.006798 0.001769 -0.005476 -0.008495 -0.015169 -0.013465 0.002357 0.009143 0.007307 0.002839 0.013654 -0.012739 -0.005750 0.000784 -0.015396 -0.010486 -0.001580 0.004820 -0.015163 0.010193 0.005055 0.002358 
patron 0.002996 0.008304 -0.009140 -0.002061 -0.010598 0.007635 0.002231 0.009333 -0.005352 0.006624 0.000749 0.006604 -0.007538 0.001238 -0.015080 -0.004540 0.004909 0.013562 -0.006404 -0.011364 -0.006930 -0.000328 0.009531 -0.008321 0.006306 0.000566 0.005058 0.006100 0.001828 0.010308 -0.010607 -0.009783 
several -0.008155 0.104580 -0.184812 0.080196 0.010106 0.084776 -0.130526 0.248186 0.082174 -0.146733 -0.051042 0.301306 0.118882 0.203963 0.164277 0.028195 0.053468 0.083803 -0.063919 0.023029 -0.086430 0.040876 -0.035839 0.061901 -0.112912 0.049039 -0.020203 -0.126013 -0.089667 0.088101 0.024839 0.019149 
countries -0.296868 0.202569 0.032249 -0.107768 0.136341 0.723488 -0.526689 0.323742 0.031961 -0.357864 -0.392942 1.194949 0.826644 0.868910 0.567220 -0.170000 -0.088559 0.109929 -0.153549 0.029197 0.006964 -0.052470 0.770297 0.400650 0.050332 0.231344 -0.017366 -0.254553 0.102192 0.022507 0.381526 -0.321205 
regions -0.014119 0.000225 0.001227 -0.012491 -0.004104 0.000569 -0.005613 0.004559 -0.014546 -0.002800 -0.000136 -0.011474 -0.013526 -0.010853 -0.001954 0.005954 -0.002152 -0.011569 -0.010072 0.011561 -0.014736 0.013335 -0.001905 0.011124 -0.008147 0.011590 0.001227 -0.013525 0.002690 0.011992 -0.001797 -0.005697 
cities -0.264408 0.146476 -0.311395 -0.032912 0.147087 0.557952 -0.370291 0.318660 0.129940 -0.185597 -0.240881 1.082766 0.485962 0.614472 0.346837 -0.224612 -0.046279 -0.238316 -0.401996 0.164394 0.186185 -0.104819 0.522611 0.072429 -0.195775 -0.175028 -0.176678 -0.250398 0.201660 0.026090 0.127411 -0.132564 
england -0.042951 0.241447 -0.306974 -0.202636 0.095984 0.469462 -0.229380 0.031839 -0.092960 0.069460 -0.223510 0.956340 0.317761 0.249900 0.279212 -0.082410 -0.213760 -0.290029 -0.274330 -0.037102 -0.012185 -0.038140 0.380695 -0.082174 -0.242061 0.062211 -0.223456 -0.216014 0.214928 0.026716 -0.046910 -0.132045 
catalonia 0.001986 0.003071 0.008741 -0.014544 -0.006823 -0.009822 -0.006016 0.011260 0.014678 0.014404 -0.001608 -0.006049 -0.012487 0.013970 0.002653 -0.009747 0.004761 0.007922 -0.005719 0.009695 -0.005880 0.001407 -0.011088 -0.013208 -0.012551 -0.010977 -0.012518 0.001642 0.015156 0.008493 0.008147 -0.014158 
sovereignty -0.008450 -0.010229 0.012216 -0.010630 0.000847 -0.003762 0.011855 0.004660 -0.015393 0.003145 -0.007522 -0.014561 -0.005098 0.004486 -0.004378 0.006351 0.013844 -0.003845 -0.015295 0.012415 -0.005837 -0.009122 -0.002269 0.005375 0.001214 -0.007219 0.002487 -0.003561 -0.003918 -0.010075 0.008168 0.012921 
turkey -0.117191 0.191253 -0.135028 -0.030161 0.071749 0.201944 -0.153361 0.092345 0.127942 -0.042702 -0.164442 0.597678 0.209958 0.268492 0.205038 0.006584 -0.004993 -0.024650 -0.116673 0.134126 -0.055159 -0.116147 0.139265 -0.032681 -0.177651 -0.003644 0.038706 -0.028213 0.076249 0.054448 -0.003851 -0.068102 
democracy 0.023559 0.046513 -0.056676 -0.011943 0.021301 0.240850 -0.175306 0.013063 0.051125 -0.103822 -0.126897 0.434729 0.227509 0.253982 0.208471 -0.011750 -0.124060 -0.224396 -0.064203 0.040951 0.025974 -0.039399 0.109911 0.073197 -0.111490 0.028661 0.005160 0.049706 0.029615 -0.032475 0.041067 -0.117677 
Nepal 0.009804 0.012646 -0.001435 -0.009539 -0.001622 -0.003146 -0.010426 -0.000549 -0.006689 -0.006024 -0.001571 -0.005411 0.003475 0.006277 0.005605 -0.004691 -0.006611 -0.004297 -0.009657 -0.001268 0.001296 0.007342 -0.009762 0.007939 0.001915 0.008321 0.006782 0.004620 -0.010829 -0.014922 0.008623 -0.013529 
Gambia 0.003323 0.003759 -0.014222 0.012738 -0.014026 0.002847 -0.014322 -0.004617 0.013383 -0.009186 0.002015 -0.011350 0.004311 0.001269 0.003212 -0.005255 -0.004599 -0.002997 -0.010149 0.003797 0.013086 -0.006443 -0.003241 0.006207 -0.011550 0.005758 0.002600 -0.004504 0.007434 -0.002113 0.012217 -0.002754 
Australia -0.052196 -0.145782 -1.245320 -0.517785 0.482221 0.766355 -0.997480 0.749271 0.207224 -1.115567 0.263871 1.810884 1.829447 0.577691 0.464213 0.217290 -0.319944 0.534631 -0.716949 0.547436 0.413651 -0.229026 0.544279 1.229644 0.033255 0.239790 0.164217 0.007976 -0.074571 -0.811402 0.329449 -0.546316 
zealand -0.122434 0.137017 -0.015679 -0.131422 0.059997 0.172364 -0.167108 -0.001946 0.054498 0.015134 -0.127887 0.544044 0.142563 0.149995 0.262864 -0.011854 -0.098770 0.016396 -0.132348 0.050232 0.055558 -0.108581 0.110023 0.007455 -0.203620 0.182924 -0.126217 0.012921 0.186273 0.045148 -0.054218 -0.001565 
anzac -0.008726 -0.011955 0.010644 -0.005906 0.005780 -0.006453 0.007438 0.001885 -0.003228 0.010750 0.002621 0.005881 -0.006435 0.015259 -0.014926 -0.012391 0.015019 0.007777 -0.012652 0.002621 -0.007719 -0.008007 -0.007275 -0.013380 -0.007092 0.012388 0.003720 0.009987 0.005160 0.000595 -0.010156 0.010165 
means 0.011607 0.207220 0.164304 0.291775 -0.014167 0.249755 0.191645 0.309686 0.329844 0.209734 -0.626453 0.783267 0.393692 0.467129 0.263187 -0.547219 -0.142505 0.292191 -0.236929 0.015953 0.270246 -0.640667 0.653484 0.282372 -0.444897 0.068901 -0.340263 -0.247211 0.301186 0.257749 -0.011940 -0.164638 
army -0.024214 0.211790 -0.157691 -0.171047 0.128683 0.267132 -0.053780 0.042581 -0.065667 0.092635 -0.122778 0.634132 0.077854 0.021647 0.166484 0.044931 -0.007166 0.070309 -0.252570 -0.080199 -0.046668 -0.009595 0.097569 -0.133127 -0.151504 -0.063107 -0.088188 -0.167939 0.164672 0.183420 -0.079991 0.135031 
corps 0.001110 0.011721 -0.014415 -0.002264 -0.005662 0.012839 -0.014077 0.010135 0.003917 0.011425 0.010317 0.007757 -0.002093 -0.005260 -0.010003 0.008207 -0.010775 0.010535 0.004145 -0.000019 0.012456 0.010739 0.015071 -0.013041 0.004749 -0.011977 0.013711 0.004783 0.004922 0.001901 0.008549 -0.008725 
began -0.221530 0.170978 -0.055730 -0.105709 0.083230 0.350631 -0.386885 0.121164 0.274782 -0.155295 -0.255176 0.995127 0.296117 0.387826 0.455000 -0.281375 -0.077260 0.073278 -0.387339 -0.060651 0.155461 -0.151276 0.372431 -0.102120 -0.276864 0.098315 -0.162375 -0.297328 0.277215 0.150328 -0.067534 0.006482 
DNA -0.012012 -0.000126 0.009268 -0.004631 -0.009258 -0.012099 0.001050 0.000512 -0.001062 -0.012961 -0.000700 0.014869 -0.009766 -0.010284 -0.003837 -0.002093 -0.015592 0.012544 0.008020 -0.005527 -0.003214 0.011131 0.010152 0.007608 0.011574 0.002816 0.012539 -0.011783 0.014583 0.009329 0.007111 -0.004661 
malaria -0.012462 -0.012309 -0.013363 0.002579 -0.003904 0.006939 0.006995 0.006372 -0.005376 0.003169 -0.015603 -0.011413 0.002090 0.005570 -0.013860 -0.003233 0.004070 0.008404 -0.013513 -0.002142 -0.001342 -0.007815 0.010406 -0.000692 0.007043 0.014658 -0.008176 0.015046 -0.009130 0.007859 -0.008351 0.006458 
faroe 0.004129 -0.013370 -0.000286 -0.003824 0.000206 0.008236 0.012979 -0.005665 0.013534 -0.000742 0.009734 0.012317 -0.013809 0.013464 -0.011997 0.009615 -0.010676 0.007035 -0.008920 -0.007064 -0.014920 0.012053 -0.012195 0.007296 0.005306 -0.005518 -0.004531 -0.000099 0.001817 -0.007273 -0.005834 0.000173 
islands 0.084962 0.049209 -0.153546 -0.132002 -0.033941 0.448953 -0.111596 -0.017382 -0.067786 -0.150974 -0.168627 0.753546 0.359188 0.185333 0.316109 -0.066063 -0.227081 -0.203911 -0.078148 0.074477 0.055329 -0.282649 0.193624 0.097849 -0.149993 0.089037 -0.039372 0.035154 0.211672 -0.051976 0.034253 -0.212486 
freedom 0.012331 -0.009687 0.013007 -0.003329 -0.005183 -0.007306 0.001466 -0.001126 0.000725 -0.008892 -0.006070 -0.008793 -0.013384 0.003571 -0.002501 0.013024 0.004838 -0.002601 -0.006905 0.015006 -0.008048 0.002955 -0.010249 -0.007108 0.005903 -0.008652 -0.000606 0.014873 0.000878 -0.007400 0.013816 0.015590 
portugal -0.001156 0.014615 0.013977 -0.007694 0.002857 -0.004134 -0.001829 0.009230 -0.007578 0.011569 0.009462 -0.002271 -0.002673 -0.002104 0.013796 0.003099 0.007253 0.013707 0.010181 -0.010086 -0.012878 0.010082 -0.013750 -0.008078 0.013171 -0.007803 0.009695 -0.014166 0.008620 -0.008801 0.003324 -0.006846 
liberation 0.006215 -0.000058 0.000143 0.004362 -0.004573 0.010841 0.003507 -0.010027 -0.007618 0.008049 0.002516 0.007060 -0.007945 0.009398 0.011495 0.013012 -0.012412 0.011016 0.005790 -0.004670 0.014768 -0.001125 0.015255 -0.011004 0.014783 0.007025 -0.002558 0.009848 0.000625 -0.009571 -0.003793 -0.002827 
italy -0.065868 -0.036283 -0.002082 -0.030780 0.039351 0.221783 -0.235955 0.068296 0.085712 0.008654 -0.087417 0.303549 0.214820 0.177756 0.216073 -0.097349 -0.100172 -0.276769 -0.040418 0.015956 0.000020 -0.037812 0.106839 0.008571 -0.035992 0.082392 -0.014713 -0.111852 0.115332 -0.163928 0.034101 -0.155896 
union -0.217869 -0.151149 -0.241536 -0.112641 0.112444 0.494190 -0.066960 0.156679 0.207934 -0.060499 -0.133280 0.838753 0.486320 0.283150 0.245765 -0.258910 -0.086085 -0.329718 -0.118081 0.139303 0.127469 -0.152898 0.485382 0.308319 -0.235914 -0.104887 -0.189195 -0.265663 0.075785 -0.146481 -0.115149 -0.393988 
tanzania -0.014689 0.008385 -0.005059 -0.003772 -0.008266 0.012165 -0.014535 -0.005332 0.011639 -0.005231 -0.013392 0.003351 -0.015080 0.012143 0.003514 0.009463 0.007035 0.005738 0.014351 -0.007560 -0.014625 -0.011258 0.005492 -0.006791 0.013636 0.012405 0.009648 -0.003628 0.014093 0.014476 -0.006936 0.011569 
confederate -0.006211 -0.012990 0.014491 0.000489 0.010338 0.003857 0.007261 -0.011908 0.008909 -0.010154 -0.006379 0.010924 0.005698 0.012101 -0.012457 0.000663 -0.013463 0.010097 0.000988 -0.014615 -0.012107 0.006070 0.000550 -0.000731 -0.012969 0.004690 -0.011746 0.014529 0.013020 0.010439 0.015560 0.006951 
Florida -0.002251 -0.009274 0.004149 -0.007320 0.011408 -0.013618 -0.008189 -0.014437 0.013735 -0.008304 -0.001243 0.015405 -0.014455 -0.010597 0.003097 0.005192 0.012801 0.008717 -0.012525 0.001824 -0.010222 0.003975 -0.007000 0.004263 0.005182 -0.001030 -0.000214 0.007161 -0.007978 0.000720 0.001041 0.010072 
