hilleberg -0.405123 -0.306618 0.603436 -0.144517 0.109776 -0.623135 0.220075 -0.245081 0.339142 -0.105578 -0.434566 -0.190242 0.439657 0.029797 0.432350 -0.966985 
akto -0.013560 -0.012931 0.011193 -0.017590 -0.018551 -0.008696 0.004417 0.022656 -0.012930 -0.012682 0.015786 -0.018339 0.022833 0.012295 0.001489 -0.029481 
olla -0.480190 -0.369906 -0.217217 0.572330 -0.101909 -3.120502 0.279754 -0.504329 -0.604059 -0.731264 1.367074 -0.277313 -0.003629 -1.371126 -1.215772 -2.291705 
yksi 0.090181 -1.443483 0.442804 -0.752325 -0.031228 -0.162921 0.499686 -1.306179 0.327628 -0.621811 0.344614 -0.411579 1.495680 0.317400 0.409161 -0.872407 
maailma -0.023762 -0.315141 0.478221 0.130040 0.160798 -0.524016 -0.546370 -0.226232 0.339912 -0.023884 0.439068 -0.367309 0.799045 -0.329791 -0.053135 -0.643681 
suosittu 0.068712 -0.313240 0.548983 -0.433064 0.171424 -0.936381 0.100020 -1.019708 0.523291 -0.287345 -0.041511 0.288499 -0.236539 -0.220669 0.105393 -0.475813 
ja 0.166745 -1.558753 0.909194 -0.772152 0.453578 -0.470338 0.254727 0.351911 1.978671 -1.613156 -1.650733 0.854582 -1.116947 -1.767451 -0.339216 0.147393 
tunnettu -0.029396 -0.031131 -0.031072 0.025989 0.005615 0.003712 0.019713 0.023626 -0.002597 0.006260 -0.029608 0.021615 -0.015644 0.008862 -0.015783 -0.020397 
sooloteltta 0.005789 0.019650 0.012115 -0.029355 0.002451 0.029730 0.015673 -0.012875 0.015823 -0.021815 -0.009015 0.020746 -0.016761 0.007990 -0.000100 -0.025635 
se -1.041582 1.132614 1.843127 0.028998 1.992480 -0.463143 -0.655608 -3.070601 0.181822 1.033595 0.844529 0.842810 -0.066342 -0.858922 -0.528850 -1.052217 
ällistyttävä 0.014989 0.009628 -0.025101 0.001274 -0.025017 -0.021760 -0.026488 -0.011549 -0.021272 -0.022637 -0.011087 0.002442 0.004428 0.000799 0.011511 0.009565 
kevyt 1.385012 1.755845 -0.098503 1.016016 -0.549366 -2.866128 -2.300402 -2.603767 1.556972 -1.304209 -1.136359 0.535383 1.539434 0.306932 -0.755021 -0.703529 
helppo 0.116040 -2.066187 0.616325 0.908243 0.092242 0.036401 -1.713386 -2.126540 1.635253 -0.828952 -0.046098 -0.334458 0.237515 -1.165133 -0.255275 0.392046 
pystyttää 0.006493 -0.094819 0.105556 -0.160444 -0.034122 -0.715989 0.569864 -0.634777 0.731577 -0.471661 0.070013 0.362953 0.769624 -0.340208 0.141022 -0.591450 
toimia -0.376185 -0.459082 0.868520 0.208509 0.664200 -1.253022 -0.792349 -0.637475 1.238128 0.843783 -0.156083 0.309854 1.153732 -0.030626 -1.318915 0.088769 
kaikki -0.580112 -0.898668 0.764160 -0.019929 0.987689 -0.323696 -0.886885 -0.943449 0.547830 -0.489724 -0.165565 -0.481480 1.229729 0.101937 -0.693928 -1.223008 
vuodenaika -0.854959 -0.769690 0.161441 -1.183297 0.544603 -1.324579 -0.364672 -0.540689 0.567168 -0.719038 -0.155013 0.226829 1.717293 -0.158712 -0.296765 -0.457691 
innovatiivinen -0.017908 0.032650 0.006925 -0.294889 0.010747 -0.318775 -0.104329 0.066585 0.072779 -0.084302 -0.045411 -0.187165 0.332681 -0.046309 -0.079210 -0.175562 
henki -0.447122 -0.385475 0.166974 -0.228180 -0.335268 -0.990643 -0.371132 -0.567235 0.769763 -0.910546 0.143431 -0.086712 1.139517 0.016759 0.327466 -0.727137 
teltta -0.454150 -1.724504 1.144640 -1.375617 0.440262 -0.906944 1.203432 -2.220718 1.133779 -1.895052 0.137650 -0.921975 3.040885 0.670396 1.615013 -1.282191 
ympärivuotinen -0.117239 -0.094151 0.042786 0.033135 0.124918 -0.107762 0.016145 -0.160378 -0.050585 -0.154579 -0.333224 -0.096107 0.235871 -0.378938 -0.057647 -0.232771 
käyttö -0.669812 -0.827766 0.918524 -0.345643 0.612339 -0.706935 -0.570446 -1.005797 0.551059 0.110789 -0.358153 -0.175802 0.976409 -0.519426 -0.997252 -0.095849 
äärimmäinen -0.034025 -0.360550 0.220809 -0.208115 0.252687 -0.441509 -0.220176 -0.292348 0.280805 -0.164606 -0.182496 -0.192292 0.372125 -0.597125 -0.088858 -0.218754 
mutta 0.058356 -0.941768 -0.147555 -0.625106 0.127621 -1.974369 -1.208036 -0.874400 1.042957 -0.100332 -0.332911 1.099202 0.378377 -1.014740 -1.175440 -0.748419 
tila -0.080018 -0.890276 0.684820 0.206985 0.188493 -0.149328 -0.228953 -0.154977 0.753474 -0.719647 -0.392548 0.424837 0.572477 -0.415424 -0.523266 -0.458682 
mahdollistaa 0.045321 -0.601944 0.687884 -0.080629 -0.056200 -0.341782 -0.206753 -0.969005 0.918439 -0.193295 0.085956 0.345934 0.384634 -0.522862 -0.553602 -0.643376 
hyvä -0.693014 -0.855039 0.158948 -0.264683 0.279502 -0.668633 -0.915860 -0.734684 0.834337 0.218869 0.457217 0.287858 0.327026 -0.519101 -1.352416 -0.281871 
olosuhde -0.397120 -0.754644 0.215385 -0.266245 0.208816 0.072048 -0.487222 -0.576261 1.414663 0.175003 0.010167 0.036028 0.998421 -1.125084 -0.257755 -0.741948 
aikuinen -0.310279 -0.294838 0.417601 -0.029820 -0.114881 0.366366 -0.142642 0.000177 0.170941 -0.435382 0.061041 0.300716 0.211120 -0.026645 -0.212854 -0.144691 
retkilehti 0.008209 -0.006627 -0.031162 0.004117 0.024237 -0.002970 0.006011 0.008927 0.020615 0.019399 -0.027129 -0.026158 -0.010280 -0.000585 0.007439 0.007979 
testivoittaja -0.010960 0.018326 -0.025988 -0.015355 0.011723 -0.004986 -0.029867 -0.017688 -0.026360 0.003990 -0.016964 -0.008277 -0.014247 0.025019 0.010114 -0.003429 
in -0.717670 -1.031025 0.919245 -0.423270 -0.728321 -1.059048 -0.421733 0.109793 2.891047 0.171873 2.114705 -0.026174 0.506864 0.643481 -0.316486 -1.783936 
the -0.561450 -0.443047 1.059823 0.394159 -1.232821 -2.606915 0.136135 0.025575 2.921003 1.043163 1.861063 -0.812056 1.863886 0.390813 0.315726 -2.195365 
great -0.311750 -0.493482 0.514470 -0.054371 -0.167416 -0.435078 -0.106616 0.012045 1.147307 -0.108235 0.124323 -0.243244 0.400337 -0.168226 -0.302410 -0.784063 
outdoors 0.025919 -0.008244 -0.021347 -0.025561 -0.014803 -0.006595 -0.019440 0.015991 0.008835 -0.011332 0.008025 -0.013847 -0.010188 0.004842 -0.004484 -0.024344 
best -0.009575 -0.007439 0.019062 0.023940 -0.007669 -0.020010 -0.003294 -0.019414 -0.025072 -0.020960 -0.029592 0.009448 0.017717 -0.019765 0.029696 0.014452 
buy -0.003585 -0.015546 0.007027 -0.029846 -0.025219 0.000005 -0.016363 -0.013687 -0.003875 0.025968 -0.018409 0.012682 -0.001864 0.027605 -0.025653 0.016828 
tuote -0.028310 0.190870 2.492613 -3.559569 0.562466 0.181557 -1.558340 -1.110218 0.865341 -3.326904 1.385154 0.728567 1.559611 0.438001 -0.069700 0.397955 
outdoor -0.295156 -0.168776 0.124423 0.055593 -0.134488 -0.301879 0.038116 -0.106903 0.336414 -0.268058 -0.076943 -0.163940 0.006094 -0.050043 -0.191460 -0.598622 
magazine -0.017589 -0.028089 0.007998 0.007434 -0.002617 -0.001731 0.022934 0.004190 -0.005851 0.006751 -0.002273 0.022154 0.007696 0.012173 -0.010488 0.011986 
antaa -0.390559 -0.627029 0.251501 0.137907 0.243147 -0.101081 -0.422721 -0.614549 0.784962 -0.764366 -0.116991 -0.263033 0.483787 -1.073266 -0.733911 -0.655954 
piste -0.005444 -0.013245 0.017051 -0.016136 -0.022614 0.004655 -0.010349 -0.027803 0.008848 -0.020111 0.002553 0.009572 -0.000104 -0.015549 -0.026924 0.009714 
aktolle -0.005353 -0.015042 0.027019 -0.029575 0.013246 0.021690 -0.021837 -0.022001 0.007028 0.014925 0.006881 0.022537 -0.025989 -0.005308 0.018747 -0.018046 
todeta -0.024775 -0.017961 -0.000110 -0.021080 0.027755 0.020014 0.017820 -0.015955 0.007099 -0.015362 0.007218 -0.018480 -0.026734 0.001589 0.025657 -0.002152 
low -0.060734 -0.053220 0.308409 -0.019626 -0.056466 -0.436135 -0.307034 0.138159 0.596233 -0.011569 0.351704 -0.082125 0.121449 0.211724 -0.057234 -0.240897 
weight -0.774547 -0.212117 0.502770 -0.805058 -0.867001 -0.689366 -0.405627 0.500818 2.136849 0.042926 1.789746 -0.228254 0.161930 1.375410 -0.143226 -0.466250 
wind -0.001952 -0.010926 -0.004732 0.002539 0.002596 0.008660 0.015406 -0.009416 0.018362 -0.019650 0.008894 -0.012640 0.013082 0.020870 0.005029 0.009014 
stability -0.030008 0.025877 0.013927 0.009767 0.021431 -0.025042 0.029550 0.000859 -0.020316 0.023466 0.010702 -0.030524 0.016302 -0.006096 -0.025604 -0.006147 
and -1.382479 -0.482527 0.934022 -0.391588 0.201770 -1.220133 -1.221076 1.863946 3.678294 0.151849 1.862435 -1.197985 1.003666 0.934684 1.018800 -1.597143 
plenty 0.019234 0.013804 0.002865 -0.015583 -0.008878 0.024449 0.018713 -0.014591 -0.003294 -0.023229 0.017192 -0.011334 -0.006044 0.004121 -0.026756 -0.013133 
of -0.365776 -0.796111 1.186982 -0.303758 -0.111956 -0.729042 -0.788520 0.998236 1.800832 -0.012693 1.611793 -0.680276 0.214699 0.509439 -0.907306 -1.171889 
space -0.123725 0.044616 0.149362 -0.160802 -0.236583 -0.287261 -0.096509 0.004102 0.480155 0.146221 0.128057 -0.245166 0.179292 0.090468 -0.013666 -0.467707 
make 0.002449 0.011650 -0.014473 -0.028667 0.009253 -0.005434 0.025464 -0.026679 0.012654 -0.020544 0.024304 0.025398 0.008059 0.008186 -0.030253 -0.017314 
solo -0.015460 0.106700 0.144307 -0.383349 -0.048575 -0.572176 -0.101985 -0.504585 0.137524 0.245751 -0.257970 -0.010209 0.100245 -0.079831 -0.043588 -0.232223 
tent -0.101349 0.397546 0.119538 -0.327775 -0.274082 -0.355185 -0.203769 -0.136542 0.517076 0.309357 0.235293 -0.357742 0.505270 0.210104 0.139022 -0.567638 
vain -0.089436 -0.847596 0.647262 -0.319060 0.701701 -0.727564 -1.596718 -0.917110 0.081353 -0.810765 0.282777 0.063704 1.457767 -0.564623 -0.126263 0.065563 
telttakaari -0.173085 -0.286159 0.081849 0.028701 0.222485 -0.123591 -0.103280 -0.320518 0.535288 -0.594016 -0.015788 -0.099490 0.160858 -0.142256 -0.468045 -0.207676 
cm -0.809713 -1.016475 -0.393014 0.431012 -0.911400 0.073037 -1.035650 -2.609629 2.537574 -0.600430 3.840800 -0.379306 -1.140849 -1.072438 2.167527 -1.886036 
x -1.722261 -1.107910 2.454743 1.350557 -0.393792 -0.598196 1.323577 0.122397 2.684409 -2.423592 1.839469 0.646019 -0.379972 0.815977 0.637169 -1.057052 
MM -1.102891 1.093434 0.190821 1.982244 2.608649 -1.664106 -1.018463 -2.491749 3.030442 -2.643929 0.751732 -0.928878 -0.379371 2.010130 -0.450158 -0.112974 
tuplatelttakaari 0.007543 0.001209 -0.011882 -0.006258 -0.020802 -0.017624 0.026845 0.008785 0.000111 0.006420 -0.019961 0.017902 0.000513 0.006607 0.012620 0.014006 
käyttömahdollisuus -0.188887 -0.030226 -0.107027 0.167855 0.068547 -0.011883 -0.108123 -0.267647 0.030534 -0.513439 0.002823 0.004562 0.206659 -0.368458 -0.145984 -0.168446 
yhdistetty 0.165035 -0.061652 0.075292 -0.092634 0.151786 -0.262502 -0.104352 -0.086337 0.421158 -0.381165 0.289956 -0.327745 0.384868 -0.394132 -0.388156 -0.430189 
sisä 0.350537 -0.840873 -0.265351 0.294746 0.575806 0.063722 -1.013905 -0.589978 1.033697 -0.112278 0.567375 -0.311992 0.625210 -0.969051 -1.089345 -1.385629 
ulkoteltta 0.116169 0.128425 -0.085982 0.387521 0.393103 -0.798137 -0.128648 -0.897023 2.000790 -0.240201 0.694256 0.085198 1.087692 -0.544513 0.021262 -0.948856 
sisäteltta 0.914424 0.258110 0.258484 0.288543 0.765393 -0.630948 0.527761 -1.274221 2.023937 -0.467688 0.593381 0.110763 1.056271 -0.782998 -0.135679 -1.664977 
kattonaru 0.019917 -0.011307 0.026214 0.002528 0.024164 -0.025921 -0.012281 -0.011661 -0.006391 0.030806 0.029586 -0.026977 -0.025190 0.002817 -0.017481 0.012703 
tasku -0.289928 -0.456762 -0.281065 -0.326600 0.149490 -0.115855 -0.232483 -0.502867 1.410240 0.083530 0.236333 0.220500 0.979855 -0.738939 -0.549825 -1.927378 
varustie 0.139190 -0.728417 0.770856 0.146126 -0.232116 -0.009450 -0.122513 -0.663056 1.034066 -0.825308 0.096517 0.132178 1.182325 -0.504357 -0.613284 -1.167173 
säilytys -0.197869 -0.573554 0.835627 0.225441 0.156879 0.315477 -0.453035 -0.326388 0.345165 -0.577967 0.823114 0.440090 0.638067 -0.524047 -0.497694 -0.668375 
henkilömäärä 0.018595 -0.001650 0.465506 -0.427904 0.656404 -1.068467 -0.219107 -1.275272 0.977940 -0.784783 0.223021 0.956948 0.263965 1.070292 0.161356 -0.742329 
koko 0.218117 0.109442 2.342064 0.004177 -1.395875 -0.272518 -1.306386 -0.855601 1.628501 -0.501412 1.347373 0.957468 -0.353659 -2.049144 -0.417994 -0.913174 
pintaala 0.089999 -0.402855 0.223826 -0.032939 -0.081970 -0.242681 0.055886 -0.653371 0.555326 -0.032613 0.372284 0.139113 -0.009415 -0.006274 -0.044792 -0.436466 
m 0.346433 -2.180944 0.603854 -0.556911 -0.827493 0.396567 1.105121 -2.857364 1.726884 -0.754856 1.509772 0.643927 -1.309740 2.097416 -0.889700 -2.483861 
absidin 0.019523 0.008024 -0.021439 -0.016587 0.005529 -0.027565 -0.014873 0.010817 0.026962 0.011613 0.024559 -0.007625 -0.019923 -0.024780 -0.021721 -0.028472 
minimipaino 0.069575 0.015575 0.060172 0.066946 -0.055689 -0.276705 0.075613 -0.341875 0.475013 -0.191908 0.288503 0.207139 0.073697 0.061244 0.015666 -0.190231 
kg 1.387270 -0.766321 0.195670 -0.370757 0.747260 -1.492420 0.456664 -2.226550 1.462164 -0.894803 1.411311 1.280261 0.550629 0.467889 1.646765 -0.422537 
paino -1.256635 -0.731573 -2.800012 -0.276120 1.138644 -2.253987 -0.904238 -0.614222 0.626543 -1.711949 1.604281 3.641365 0.789554 0.853263 -1.372277 0.165873 
pakattu 0.078819 0.048942 1.720830 0.142912 -0.585968 -1.576570 -0.292960 -0.095987 1.748511 -1.877329 1.514570 1.378078 1.366031 -0.310540 0.757182 -0.537456 
kaari -0.367417 0.226891 -0.240487 -0.188087 0.289784 0.191294 -0.110322 -0.786520 1.705367 -1.158739 0.403555 -0.124889 0.488817 0.099776 -0.259572 -1.088094 
telttakiila -0.057116 0.107210 -0.204335 0.174170 -0.089119 0.518541 0.068945 -0.656366 -0.057567 -0.439161 -0.166788 0.172190 0.174194 0.071470 -0.185571 0.020362 
kpl -0.530464 -0.993284 0.937225 -0.057308 0.422806 0.402519 -0.043607 -1.263738 1.572224 -0.657863 1.310465 0.136625 -0.873318 0.424693 -0.108340 -0.663063 
vkiiloja -0.007743 0.009933 -0.002490 0.006145 -0.017107 0.031132 -0.007220 0.003292 0.027849 -0.022042 0.009983 -0.001661 -0.029588 0.026865 0.002668 0.007192 
varustettu -0.902472 -0.587845 0.003452 -0.521946 0.141407 -0.332096 -0.538032 0.052286 1.308402 0.297924 0.131786 -0.582431 0.272320 -0.337117 -0.652244 -0.195874 
vetonaru -0.029473 -0.024492 -0.021953 0.027104 -0.021504 -0.008738 -0.021528 -0.021077 0.006222 -0.007705 0.020706 0.002005 0.010752 -0.009082 -0.018233 0.028515 
tämä -0.674314 -0.092107 1.865814 -0.698864 1.214457 -0.438559 -0.627572 -2.303562 -0.121388 -0.506490 -0.362660 -0.186850 1.321746 -0.390927 -0.239214 -0.736250 
kuuluu -0.255334 -0.474607 0.706304 -0.129969 0.987582 -0.726997 -0.246565 0.124574 0.618398 -0.120701 0.430969 -0.124479 0.150871 0.146315 0.200875 -0.127949 
red -0.536153 -0.463815 1.004048 -0.592858 0.477197 -1.030022 0.223588 -0.318543 0.854861 -0.268178 0.102500 -0.054014 0.842554 0.420661 0.405340 -0.880416 
label -0.538128 -0.419944 1.095020 -0.726161 0.116804 -1.355820 0.055805 -0.127945 0.864045 -0.122226 0.572730 -0.053607 0.965486 0.296760 0.495545 -1.025615 
tuoteperhe -0.357333 -0.352800 0.959229 -0.607097 0.234206 -1.096802 0.043280 -0.174134 0.952849 -0.280620 0.495193 0.130636 0.646479 0.468948 0.459642 -0.666938 
sopia -0.349106 -0.424828 0.625486 -0.798196 0.529613 -1.159472 -0.387520 -1.222648 0.850673 -0.382496 -0.170645 0.014435 0.878553 -0.915377 -0.886142 -1.234808 
niin -0.453288 0.031960 0.960974 0.001521 0.426365 -0.911848 0.258908 -1.251283 0.308132 0.008475 -0.192751 -0.079941 1.686286 -0.391658 -0.139227 -1.529609 
lyhyt -0.291362 -0.153439 -0.082706 -0.427512 0.316796 -0.517238 -0.365566 -0.741198 0.432891 -0.021264 0.290097 0.056912 0.307293 -0.098753 0.024936 -0.567245 
kuu -0.503860 -0.597696 0.507336 -0.813671 0.423231 -1.189415 -1.159319 -0.855656 -0.292644 0.034535 -0.121723 -0.487345 1.784644 -0.573378 -0.387031 -1.408014 
pitkä -1.215166 -1.327344 0.767882 -0.371979 -0.344467 -0.584368 0.065636 -0.387804 0.400331 -0.265180 0.056874 0.488859 0.182529 -0.975075 -0.528606 -0.391456 
reissu -0.311682 -0.545669 0.766113 -0.170263 0.164599 -1.025161 -0.006043 -0.269434 0.453377 0.514357 -0.055685 -0.021790 0.667336 -0.807266 -0.127223 -0.559610 
hieman 0.136730 -0.068476 0.137388 -0.243783 0.305658 -0.587637 0.029414 -0.962545 0.113354 -0.662270 -0.018988 0.446097 0.523233 -0.311812 -0.568293 -0.878075 
keveä 0.032561 -0.411326 0.276008 -0.118112 0.129610 -0.367379 -0.288046 -0.294030 0.109560 -0.426861 0.323219 0.101082 0.316696 -0.479410 -0.178261 -0.197942 
black -0.414216 -0.353277 1.038812 -0.535663 -0.722335 -1.160043 -0.620281 -0.015949 1.051002 0.146736 -0.140362 -0.356810 1.081377 -0.182115 -0.068429 -0.766854 
valinta -0.323840 -0.388383 0.425383 -0.541545 0.095035 -0.791154 -0.426298 -0.345418 0.926142 0.297907 0.185537 -0.426659 0.814179 -0.856344 0.091587 -0.826070 
jokainen 0.087879 -0.533819 1.014667 -0.579452 0.141771 -1.142689 -0.542462 -0.626652 0.462306 -0.012388 -0.049806 -0.018369 0.933143 -0.523280 -0.136779 -0.597013 
yleisteltta -0.101088 -0.260313 0.104315 -0.227601 0.082982 -0.673001 -0.274723 -0.235171 0.224460 0.093793 0.436552 0.032076 0.278865 -0.087333 -0.192362 -0.403264 
jos 0.077337 -0.241761 0.310057 -0.073368 1.052642 -0.479621 -0.322059 -1.344706 0.040922 -0.110245 0.699777 0.267285 1.448326 -1.136286 -0.549404 -0.201613 
haluta -0.191309 -0.491885 -0.128142 -0.111194 0.418706 -0.868021 -0.114666 -0.565828 0.857129 0.019756 0.183984 0.187919 0.452620 -0.958579 -0.605173 -0.749805 
vahva -0.324375 0.067749 -0.084123 -0.649401 0.227766 -0.788215 -0.496839 -0.443705 0.613833 -0.400752 0.100916 -0.140957 0.852132 -0.022034 -0.789223 -0.716992 
tukeva 0.056254 -0.415300 0.306630 -0.628853 -0.181839 -0.901913 -0.473115 -0.990887 0.856513 -0.355032 0.553830 0.141690 0.433505 -0.347337 -0.362068 -0.795536 
silti -0.048752 -0.105404 -0.162523 0.047543 0.248812 -0.896878 -0.273562 -0.630958 0.945662 -0.377777 -0.011143 0.244404 -0.102053 0.083780 -0.459470 -0.495385 
materiaali 0.537888 1.564889 -0.148359 -2.741655 1.811868 -0.952322 -1.666813 -0.790575 1.556149 -2.459306 1.100213 -0.330056 0.677906 -0.445645 -1.742787 -0.647441 
kerlon -0.128374 -0.034533 -0.085618 -0.280586 0.193281 -0.547141 -0.263829 -0.633402 0.447384 -0.179992 0.183579 0.068711 -0.039983 0.067742 -0.214946 -0.530143 
telttakangas 0.012895 0.025821 -0.001762 0.012695 -0.016028 -0.013305 -0.011194 -0.018045 -0.025265 -0.000068 -0.010931 -0.012968 0.024990 -0.023470 0.017289 -0.011316 
d 1.116405 1.673033 0.466258 -1.512363 0.394305 -1.652037 -1.215280 -0.618977 3.336621 -2.026604 1.544678 -0.970297 0.878702 -0.316010 -1.894956 -1.270054 
high -0.429817 -0.068387 0.113796 -0.554834 0.063271 -0.712638 -0.466320 -0.544758 1.414240 -0.400843 0.976467 0.174051 -0.190839 0.638636 -0.381566 -0.558622 
tenacity 0.027615 0.017321 0.024104 0.008259 0.021847 0.005403 -0.024741 0.009328 0.026708 0.006268 -0.008256 0.012716 0.030682 -0.013173 0.014246 0.002011 
ripstop 0.233853 0.808417 -0.197242 -0.590442 0.207562 -0.617834 -0.548536 -0.376916 1.617622 -1.379570 1.153193 -0.239059 0.038213 0.614653 -0.745863 -0.510748 
nylon -0.053700 0.936676 -0.291272 -1.213849 0.175208 -1.087554 -1.174000 -0.295754 2.091981 -1.211320 1.002542 -0.490910 0.185619 1.111146 -0.684507 -0.854551 
vesipilari -0.015915 -0.012817 0.028310 0.026673 0.009391 -0.001052 0.025472 -0.001805 0.013377 0.013553 0.021428 0.008915 0.012213 -0.007006 0.013901 0.020676 
kpa -0.019385 -0.025964 0.015840 -0.029761 0.019457 0.027656 0.023675 -0.006963 0.009878 0.026655 -0.029830 -0.015871 -0.019720 0.016300 -0.029799 -0.009414 
iso -0.026720 -0.730748 -0.036387 -0.980856 0.592480 -0.252849 -0.020839 -1.040611 0.935968 0.023855 -0.029728 -0.399478 0.795705 0.004277 -0.625997 -0.505505 
repeäimislujuus -0.020007 0.015573 0.029386 -0.011489 0.012222 0.006671 -0.008718 -0.007897 -0.012323 0.025645 -0.025268 0.006724 0.013946 -0.026696 0.021439 0.024512 
min -0.638530 -1.071609 0.524659 -0.777118 0.094668 -0.637645 0.020436 -1.514769 0.859794 -0.465690 1.277195 0.324270 0.197447 0.403103 -0.681545 0.196250 
telttanaru 0.151221 0.005092 0.168070 -0.097618 0.041938 -0.282210 -0.138059 -0.479210 0.550891 -0.260548 0.191651 0.109668 -0.022198 0.030545 -0.041259 -0.394299 
denier 0.322310 0.066884 0.081464 -0.069420 -0.060025 -0.070921 -0.021441 -0.255008 0.804465 -0.706698 0.392978 0.195891 0.006164 0.198389 -0.147036 -0.136823 
lattiamateriaali 0.024464 0.027747 -0.004742 0.030197 0.028979 0.013223 0.021923 0.030497 -0.026571 -0.029955 -0.007027 0.016460 0.004285 -0.004826 0.015630 -0.018576 
vetoketju -0.294647 -1.064205 -0.361351 0.483308 0.554948 0.094681 -0.235595 -1.266565 2.200789 0.375314 0.874928 -0.098792 0.245136 -0.629073 -1.011247 -0.839189 
vtelttakiilat -0.018107 -0.028012 -0.013355 0.017894 -0.016422 -0.022007 0.031214 0.000472 0.026060 -0.029424 -0.000499 -0.008025 -0.027660 -0.025584 0.029841 0.021168 
kestävyys 0.151211 -0.135880 0.050493 -0.032171 0.296452 -0.403588 -0.157085 -0.732715 0.560961 -0.422824 0.509065 0.124068 0.036537 -0.412453 -0.218622 -0.518187 
keveys 0.037440 0.003583 0.165663 -0.429056 0.472299 -0.819079 -0.142722 -0.429273 0.870597 -0.216807 -0.162889 0.237413 -0.080265 -0.437227 -0.578187 -0.458890 
sama -0.031204 -0.182634 -0.225510 -0.293769 0.610230 -0.765399 -0.598279 -0.805209 0.561646 -0.223774 -0.283593 -0.260694 0.750515 -0.503866 -0.810699 -0.625473 
tikku -0.018243 -0.001208 0.003660 0.021939 0.017067 0.015624 -0.014737 -0.012373 -0.011292 -0.000063 -0.013503 -0.030899 0.030034 0.003337 0.000943 -0.023136 
helppokäyttöisyys -0.024212 0.019500 0.013020 0.021799 0.019851 -0.021155 0.013333 -0.013501 -0.000351 -0.002013 -0.019899 -0.028070 -0.021348 0.021586 -0.020814 -0.024920 
mukavuus 0.186541 0.134442 0.070286 -0.266887 0.195353 -0.246691 -0.416971 -0.609459 1.082810 -0.299982 0.370303 0.024469 0.030595 -0.730702 -0.445730 -0.636173 
kaikenlainen 0.029831 -0.344103 0.332174 -0.364694 -0.039995 -0.083838 -0.294705 -0.466447 0.884769 -0.256442 -0.025773 -0.197223 0.404331 -0.386954 -0.094706 -0.485128 
kangas 0.367899 -0.066260 -0.101216 -0.587174 0.656116 -0.862460 -0.271012 -0.809365 0.880101 -0.752166 0.101975 -0.339982 0.770994 -1.556506 -0.211765 -1.244731 
ylettyä -0.001133 -0.016654 0.023448 -0.026384 -0.002819 0.001823 -0.019749 0.005384 -0.007593 -0.019983 0.019617 -0.021283 0.026847 -0.023996 0.006197 0.029507 
Maa -0.085073 -0.448321 -0.579734 0.057651 -0.109005 -0.303162 0.202898 -1.048303 1.044023 -0.308969 0.908274 -0.045772 0.096423 -0.641929 0.035643 -0.914477 
asti -0.574479 -0.196459 -1.293744 -0.739236 1.322366 -1.896081 0.842775 -0.730341 3.525216 0.678559 2.661406 -0.267069 1.387979 -1.619409 1.098067 0.631478 
suoja 0.547552 0.290488 0.497736 -0.284743 0.080458 -0.095658 0.530870 -0.845749 2.184405 -0.298639 0.260360 0.485019 1.142819 -0.586233 -1.782159 -0.678840 
myös -1.504878 -1.211171 -0.317811 1.215163 -0.089581 -0.789912 -0.961012 -0.830251 1.306859 0.979756 -0.658395 0.375810 1.707718 -0.168050 -1.372719 0.426243 
talviolosuhde 0.003768 0.020590 -0.024182 0.006642 0.011870 -0.014275 -0.015919 -0.003814 0.018068 -0.027795 0.029934 -0.008598 -0.008530 0.018424 0.021650 0.016166 
eri -0.663814 -1.097048 0.194164 0.118936 0.072450 0.205193 0.060063 -0.884430 0.239660 -0.569609 -0.159033 -0.197615 0.524252 -0.586676 -0.645047 -0.324128 
mittainen -0.154600 -0.420323 -0.015161 -0.109963 -0.121523 0.102303 -0.087070 -0.070533 0.674876 -0.620979 0.284595 -0.258608 0.210356 -0.064482 -0.136291 -0.299454 
osa -0.132775 -1.814986 0.507687 0.511664 0.954888 -0.886276 -0.350762 -0.087228 0.254028 -1.225420 0.119786 -0.401595 0.947571 -0.551986 -1.211154 -0.806746 
malli -0.949739 -0.791465 -0.163251 -1.385557 -0.270547 -1.061689 -0.110022 -1.276288 0.491266 -0.466590 -0.566241 -0.809679 0.324736 -0.163266 -0.493393 -0.823469 
vähentää -0.242777 -0.291693 -0.226450 -0.433755 0.587203 0.115846 0.099061 -0.556328 1.062520 -0.577073 0.138454 -0.168139 0.425837 -0.296380 -0.821124 -0.468645 
kokonaispaino 0.018334 -0.725577 0.100591 -0.308113 0.294525 -0.020025 -0.039819 -0.419840 0.343930 -0.884022 0.358473 0.064865 0.428440 -0.228069 -0.317574 -0.226835 
vähintään -0.123217 -0.456585 0.181867 -0.456134 0.321861 0.057117 0.241113 -0.601996 0.404685 -0.678682 0.360483 0.081050 0.360118 0.063093 -0.385104 -0.117933 
ilmastointiaukko 0.011478 0.024429 -0.009112 0.022112 0.008750 -0.007243 -0.015713 0.019202 0.019929 -0.005178 -0.004481 0.004533 -0.011613 0.024091 -0.007494 0.023331 
katto 0.203818 -0.886125 0.541995 -0.155481 0.157579 0.321277 0.299006 -0.698224 0.713436 -0.786157 0.531550 -0.025841 0.698206 -0.552015 -0.234785 -0.505710 
tai 1.385814 -0.547889 1.338828 1.632285 0.654040 -0.995218 0.324036 -0.347095 1.874351 0.275293 0.774666 1.536589 1.974903 -2.452745 -0.614029 1.149313 
raja -0.011923 -0.029874 -0.020011 0.010172 -0.025416 0.020676 0.028136 0.020895 -0.015793 -0.011820 -0.002483 0.001832 0.017863 -0.012916 -0.011825 0.008949 
tilava -0.494753 -0.166540 -0.163762 0.241772 0.692604 -0.789251 0.059153 -0.735198 1.050327 -1.195290 0.060093 0.309705 0.270538 -0.078417 0.274542 -0.517976 
sisätila -0.042277 -0.262478 0.110418 -0.087099 -0.182103 -0.422130 0.221660 -0.470872 0.627736 -0.573145 -0.076068 0.207851 0.409960 -0.138766 0.022892 -0.468848 
myyntipakkaus 2.783684 -0.860431 1.029379 2.046751 -0.063966 -5.758553 0.114366 -0.002860 6.050827 0.579900 3.659337 2.998141 0.326938 1.301936 2.658694 -1.846699 
arvio 0.840011 -0.338758 2.349567 0.469701 0.464583 -4.124165 0.019893 -0.016645 4.228894 0.846057 2.305042 0.349290 2.008854 -0.128786 1.593390 -1.179909 
majoitetyyppi -0.039207 0.020221 0.190622 0.032680 0.490559 -1.084605 0.138966 -0.532727 0.718583 -0.660851 0.143309 0.746348 0.025101 0.633854 0.520887 -0.374922 
tunneliteltta 0.099298 -0.043515 0.159644 -0.255561 0.222404 -0.739799 -0.033286 -0.258280 0.766184 -0.081993 -0.071748 -0.105453 0.335573 -0.115013 -0.186930 -0.491331 
kgtuotteella 0.685412 -0.578482 0.779441 0.820278 0.548544 -1.828309 -0.362894 -0.814934 2.038592 -0.405187 0.828066 0.965759 0.334750 0.677112 0.230683 -0.253267 
voida 3.357479 -1.357922 1.567795 0.857078 0.540310 -1.118553 0.952532 -2.433290 0.794765 0.013791 0.510522 -0.030123 1.152065 -0.386971 -0.787097 -0.895314 
valmistusmaa 1.462952 -0.220817 2.741565 -0.198037 0.707152 -4.049185 -0.281100 -1.961434 2.065187 -0.841366 1.716660 1.765022 -0.962099 -0.374901 2.435741 -0.935546 
Viro 0.551477 -0.793253 1.366813 -0.335222 1.269891 -1.681843 -0.364901 -0.933880 1.599077 -0.597503 0.896898 0.924046 -0.283030 -0.041336 0.565257 -0.789391 
unisex -0.442872 -1.141802 3.127078 -1.779749 1.293080 -5.046304 -2.169909 -0.442416 1.173192 1.920401 0.111420 -1.622180 -0.987821 0.066884 1.321863 -0.745970 
msr -0.039332 0.028720 0.208151 -0.494990 -0.088099 -0.749042 -0.155492 -0.215908 0.204949 0.371322 0.113843 -0.151491 0.292531 -0.132585 -0.104117 -0.370885 
hubba 0.086828 -0.015787 0.308320 -0.475413 0.073579 -0.868174 -0.149599 -0.208051 0.403812 0.228244 0.491405 0.036405 -0.017613 0.187606 0.062657 -0.251932 
nx -0.016598 -0.003727 -0.003761 -0.008256 -0.001243 0.012913 -0.002501 0.024115 -0.019574 -0.024245 0.030215 0.023799 -0.027320 0.016536 0.013176 -0.017210 
v -1.171573 -0.451779 1.636962 -1.425928 -0.400451 -1.563106 0.089143 -1.740196 2.158381 1.274911 0.413538 0.539897 0.257554 0.421841 -1.268635 -0.739799 
huipputeltta 0.003132 -0.011803 -0.022014 -0.002478 0.011120 -0.012816 0.012410 -0.006863 -0.030874 0.022137 0.020534 -0.007152 -0.030733 -0.004304 0.006059 -0.004925 
sooloretkeilijä -0.028986 0.022987 0.023315 0.028306 -0.005453 -0.008902 -0.022947 -0.014406 -0.010419 0.001953 -0.011469 -0.003698 -0.026081 -0.012444 -0.004802 -0.004787 
huballa -0.002801 0.020502 -0.017730 0.011456 0.024139 -0.007648 0.021439 0.010800 0.004945 -0.008247 0.018581 -0.028615 0.009385 0.007230 0.016173 -0.027542 
fast -0.239978 -0.289310 0.261133 -0.334845 0.234016 -0.419895 -0.606152 0.015743 0.436074 0.400700 0.118270 -0.420800 0.268092 -0.038798 -0.264145 -0.222689 
light -0.277059 -0.274703 0.882534 -0.578109 0.195683 -1.222844 -1.237300 -0.567141 1.448445 0.265356 -0.286225 -0.468184 0.677553 -0.212958 0.393530 -0.652782 
optio -0.016997 0.006819 0.003504 -0.000828 -0.010546 -0.008864 -0.026350 0.021528 -0.007929 0.007874 -0.006914 0.024149 -0.013819 0.000467 0.027615 -0.012259 
ei -0.631382 -0.350693 1.212916 0.008288 4.637888 -0.268544 0.235093 -1.808135 0.479932 0.038927 0.601119 2.874528 1.347066 -0.033937 -0.837476 -1.137958 
hassu 0.014620 -0.028201 0.002942 0.004836 -0.030780 -0.026247 -0.011979 -0.010771 -0.031124 0.018758 -0.030082 -0.014944 -0.002786 -0.002963 -0.005708 -0.020556 
nopea -0.163730 -0.750118 0.816427 0.154662 0.785329 -0.687039 -0.739974 -0.956002 1.128480 -0.476199 0.344904 -1.070419 0.758112 -0.950802 -1.054294 -0.431533 
yksin 0.023823 0.030729 -0.006735 0.003632 0.000778 -0.003617 -0.013925 0.007750 0.021515 0.031148 0.011165 0.019492 -0.022431 -0.008513 0.023313 0.019757 
aloittelija -0.006934 -0.004554 -0.011809 0.006704 -0.017774 -0.018388 -0.017354 0.014125 -0.027571 -0.006930 -0.023901 -0.022352 -0.016716 0.018880 0.026203 0.027001 
kokenut 0.025971 -0.010414 -0.003513 -0.002500 0.008623 0.021834 -0.002979 -0.017108 0.019596 -0.008105 0.022746 0.021685 0.030538 -0.029630 0.015110 -0.016356 
retkeilijä -0.009453 -0.256783 0.182232 -0.033899 0.069242 -0.072787 -0.026710 0.011437 0.068517 -0.214952 -0.051329 -0.288286 0.286832 -0.454464 -0.124439 -0.236881 
korkeus -0.236121 -1.031045 0.071637 -0.245681 -0.177223 -0.368989 -0.423350 -1.175250 1.514682 -0.980513 0.882837 -0.142808 -0.463486 -0.895190 -0.277235 -1.187582 
riittävä -0.265152 -0.475668 0.570073 0.194841 -0.106038 -0.224927 -0.070202 -0.819889 0.628204 -0.308203 0.301626 0.481385 0.589919 -0.233589 -0.332011 -0.558212 
mukava -0.237911 -0.459025 0.133434 -0.577353 0.409989 -0.695361 -0.714384 -0.862547 0.936181 -0.675585 -0.019299 -0.463035 0.265837 -0.627829 -1.036053 -1.198868 
puuhastelu 0.024776 0.023060 0.024773 -0.021713 0.030792 0.019775 0.023999 0.008259 0.000249 0.022270 -0.009581 0.016419 0.024908 0.010858 -0.000968 0.003471 
huono -0.018888 -0.007557 0.011863 0.026978 0.011126 0.017462 -0.008603 -0.026211 -0.009596 -0.006549 -0.004807 0.004497 -0.022609 -0.019830 0.023278 -0.003294 
säkä -0.071198 -0.114473 0.037492 -0.205649 -0.172911 -0.609639 0.180413 -0.546313 0.718382 0.174545 0.143735 -0.088163 0.678497 -0.868432 -0.153860 -0.571257 
yllättää -0.011608 0.019338 0.011364 0.022269 -0.027036 -0.022824 -0.019696 0.010117 -0.025628 -0.030786 0.027536 -0.024282 0.026726 -0.029359 -0.000689 0.017075 
toinen 0.041746 -0.412207 -0.030083 0.668792 0.395718 0.242849 0.507783 -0.978207 1.304583 -0.321418 0.526831 0.116003 0.730748 -0.769420 -0.056267 -1.234987 
sivu -0.008415 -0.614773 0.359321 -0.128672 0.327093 -0.350666 -0.127013 -1.167797 1.431398 0.164881 0.122462 -0.092924 0.835173 -0.491655 -0.258764 -1.324985 
absidissa 0.170706 -0.081337 0.095345 0.093803 -0.092522 0.005451 -0.050431 -0.183676 0.581272 -0.269197 0.242083 0.078404 0.221901 -0.214368 -0.151792 -0.316283 
tilata 0.031825 -0.216323 0.393579 0.240566 -0.730838 -0.098326 -0.364723 -0.723571 0.902268 -0.274866 -0.213564 0.128379 0.744924 -0.707389 -1.160899 -1.593803 
ominaisuus -1.754428 -0.909780 0.383712 -0.283579 0.525452 -0.525786 -1.634448 -0.203163 0.665506 -0.092126 0.639046 0.799665 0.437304 -0.476308 -1.194154 -0.396551 
erittäin 0.010069 0.488494 0.527469 -1.833059 0.058931 -1.671028 -0.931160 -0.809280 1.397144 -0.550608 -0.422000 -0.058898 0.183420 -0.299058 -1.443951 -1.546214 
kompakti -0.255243 -0.670849 0.531634 -0.155880 0.114797 -0.861264 -0.352101 -0.666629 1.137152 -0.005147 -0.215679 0.007933 0.014010 0.380986 -0.395970 -0.740634 
symmetrinen 0.024162 0.004130 0.009494 0.011657 0.027176 -0.019010 0.023880 0.000858 -0.005859 -0.028118 0.016445 0.019825 -0.023216 0.028543 -0.022320 0.003668 
tuuletusaukko -0.110787 -0.000079 -0.018553 0.292754 0.157538 -0.034489 -0.013059 -0.462432 0.490731 -0.192747 0.372284 -0.106315 0.422848 -0.290165 -0.342001 -0.566035 
säädettävä -0.225840 -0.490226 -0.109797 -0.222320 0.313248 0.005800 -0.041568 -1.496738 0.977762 -0.208218 0.273407 0.572143 -0.237684 -0.649618 -0.393437 -0.766376 
hyttysverkko -0.232144 -0.426617 -0.036876 0.235178 0.245868 0.593883 0.532788 -1.527098 1.652931 -0.247882 -0.248453 0.270285 -0.027730 0.360444 -0.758929 -1.800579 
heijastaa -0.498607 -0.122450 0.562458 -0.287019 0.672737 -0.653493 -0.125272 -0.702993 1.092512 0.141360 -0.112760 0.263142 0.371516 -0.240002 -1.012046 -0.859110 
kestää -0.699355 0.452351 -0.182089 -0.731382 0.294498 -0.464891 -0.139317 -1.922123 1.291279 -0.229106 -0.546594 0.999220 0.538317 -0.205770 -0.313874 -0.767435 
vapaastiseisova 0.016661 0.003209 -0.022988 0.020433 -0.001112 -0.028338 0.018544 -0.028930 -0.016948 0.020198 -0.020365 -0.022913 -0.000672 0.018149 -0.007987 -0.026220 
ovi 0.411069 -0.246030 0.135013 0.491931 0.069246 -0.476935 -0.076410 -1.456820 0.628258 -0.048995 0.167219 0.172967 0.599997 -0.075358 0.366564 -1.607260 
lkm 0.005249 0.011399 0.022902 0.015466 -0.016331 -0.005626 0.031213 0.007386 0.027424 -0.011209 -0.006418 -0.029117 -0.026517 -0.004039 0.017586 0.021470 
kupoliteltta -0.103857 -0.323728 0.306167 -0.183784 0.159072 -0.765931 -0.130190 -0.302413 0.582510 -0.173462 0.336554 -0.019084 0.524227 -0.128754 0.031229 -0.430822 
kanssa 0.601486 -1.650192 2.057705 0.032453 -0.527141 -0.284950 0.076799 -0.578566 1.798120 0.701753 0.325108 1.862734 0.602349 -0.203747 -0.826800 -1.337209 
takuu 0.871735 -0.497271 0.931921 -0.671038 -0.481952 -2.022714 -0.710332 -1.393117 1.434717 0.631016 1.538762 1.382171 -0.745706 -0.763394 -0.109065 -0.037193 
kk 0.906354 -0.342588 0.986697 -1.343150 -1.092390 -2.943586 -0.456999 -2.447447 1.787279 1.176261 1.260650 0.598054 -0.608741 -0.080321 0.278822 -0.105366 
helsport 0.023042 0.590458 0.328529 0.013203 0.230075 -0.707735 -0.535122 -0.206654 1.605839 -0.441292 0.071201 -0.373187 -0.233026 -0.070199 0.564197 -0.853136 
ringstind 0.023445 0.003036 0.012919 0.016454 0.018864 -0.025089 -0.023445 0.021752 0.010719 -0.015674 0.029377 0.026508 -0.002735 0.024796 0.022050 -0.015824 
superlight -0.295599 0.014483 0.227714 -0.485257 0.397169 -1.171458 -0.522293 -0.791253 1.355464 -0.094546 -0.448798 0.084961 -0.269963 0.050848 0.717164 -0.850120 
helsportin 0.013466 -0.022429 -0.008202 -0.013700 0.026387 -0.002132 -0.012795 0.008234 -0.007450 -0.017410 0.015288 -0.002548 0.030764 -0.009190 -0.014565 -0.024344 
telttamalli -0.012538 -0.029067 -0.018875 -0.005886 -0.015875 0.021782 0.003411 0.014914 0.007438 -0.015875 0.029432 -0.015428 -0.024003 -0.025824 -0.020826 0.023551 
tosi -0.666670 -0.389757 -0.185423 -0.452035 0.234009 -1.271524 -0.363706 -0.201175 0.884126 -0.049947 -0.205035 -0.181426 0.023663 -0.384365 -0.428711 -0.389009 
näppärä -0.065633 -1.139601 0.445600 0.146234 -0.101539 -0.322560 -0.705908 -0.372739 1.230711 -0.130928 -0.049584 -0.524932 0.409547 -0.963913 -0.138509 -0.915340 
joka -1.056632 -1.535052 0.931551 1.918557 1.283393 0.361043 -3.140736 -0.445153 1.878464 -1.018325 -1.335929 0.458652 0.883225 -0.613721 0.961438 -0.762383 
kohta 0.283106 -0.718797 0.442361 0.639010 1.873897 -1.418650 -0.465298 -1.065187 1.837654 -0.105158 1.681338 0.113799 -1.173721 -0.733997 -0.314750 -0.628090 
suunniteltu -0.984183 -0.668045 0.674546 -0.925934 0.550121 -2.329990 -0.439285 -2.333749 0.326076 0.373936 -0.164842 0.240545 0.634678 -0.999162 0.881625 -0.460419 
pitää 0.376649 -0.325764 -0.096887 0.196548 0.459713 0.018011 0.022108 -1.228986 1.752648 0.732357 0.765775 0.151130 0.515185 -1.172968 -1.488944 -0.560082 
käytännöllisyys -0.001445 -0.004739 -0.014286 0.024991 0.004147 0.004403 -0.017186 0.009789 0.016757 0.012672 0.026078 0.024246 0.028718 -0.000018 -0.017728 -0.029785 
mieli -0.018906 -0.014666 -0.015522 0.005014 -0.005103 0.011931 0.031172 -0.013368 -0.016146 0.021439 0.006125 -0.025319 -0.005706 -0.010449 0.021963 0.020197 
oikea -0.030441 -0.475394 0.285513 0.232424 0.218505 0.015422 -0.276615 -0.697204 0.454064 -0.302533 0.349478 0.176786 0.099642 -0.702556 -0.139122 -0.244873 
toimiva -0.167122 -0.429098 0.009429 -0.102705 0.433534 -0.649672 -0.673803 -0.283935 0.186339 -0.119723 0.119587 -0.137818 0.167685 -0.465993 -0.182881 -0.286113 
onnistua 0.023387 -0.023165 -0.026183 -0.021234 -0.016910 0.024477 0.003925 -0.009443 -0.027527 0.005608 0.002693 -0.011334 -0.010158 -0.008263 0.025314 0.011649 
kova -0.294606 0.071603 0.373350 -0.397351 0.488213 -1.319013 -0.227086 -0.901266 1.315511 0.130677 -0.614390 0.407147 0.273899 -0.325861 0.007877 -0.210461 
keli -0.479215 -0.298115 0.158551 -0.121025 0.443776 -0.541596 -0.087572 -0.801068 0.645607 -0.227857 0.218805 0.371595 0.545072 -0.900394 -0.564506 -0.384865 
superkevyt -0.022697 -0.014548 0.017941 0.008548 0.015023 0.014921 -0.008757 0.026655 -0.018191 0.005656 0.025452 0.023272 -0.024706 -0.006174 -0.029678 0.022153 
komponentti -0.014456 -0.027960 0.008691 0.030012 -0.006124 -0.020467 -0.015949 0.025649 -0.003275 0.008334 0.013337 -0.004198 -0.009859 -0.025258 -0.011518 0.024162 
mainio -0.178823 0.114480 0.415123 0.148791 0.147680 -0.384710 -0.189519 -0.574971 0.608821 0.037193 0.189608 0.241436 0.477307 0.169389 -0.146966 -0.695695 
hegittävä 0.029144 -0.020321 0.021724 -0.006940 -0.010114 0.026050 0.028041 0.009982 -0.001318 0.001816 0.002153 0.003074 -0.006785 -0.015808 -0.014157 -0.013412 
airflow -0.100860 0.226400 0.109604 -0.281651 0.012600 -0.336042 -0.278903 -0.079130 0.659242 0.142814 0.039226 -0.335593 0.054489 -0.044267 0.094306 -0.470534 
ii® -0.016988 0.014394 0.005971 -0.011384 -0.000451 0.016319 0.001770 -0.007245 -0.023846 -0.030956 -0.016144 -0.013940 -0.007805 0.006685 -0.030096 0.001342 
ilmastointi -0.022220 -0.009728 -0.014695 0.004159 -0.005947 0.029230 -0.025443 0.027599 -0.015930 0.028125 0.010228 0.015258 -0.019042 -0.010954 0.018238 -0.015989 
taata -0.271556 0.256350 -0.323170 -0.061371 0.598961 -0.654716 0.058810 -1.130590 1.310979 -0.801294 0.314837 0.336884 0.310960 -1.017903 -0.627256 -1.098487 
raikas -0.011447 0.014655 0.010096 0.028429 0.004656 0.010956 0.022170 0.018180 0.025373 -0.013848 0.009039 0.016216 0.021984 0.029148 -0.006998 -0.017904 
sisäilma 0.011759 -0.022083 -0.017863 0.001696 -0.005259 -0.006373 0.026425 -0.023085 0.027710 -0.014974 0.015519 -0.018014 -0.002556 -0.025693 0.006969 0.012751 
muodostuva 0.029862 0.026153 0.011944 -0.010480 -0.007164 -0.024437 -0.009891 0.014079 -0.020141 0.022452 0.002706 0.011714 -0.004412 0.026177 0.020756 -0.003331 
kondensaatiokosteus 0.008622 0.009590 -0.022858 0.011146 -0.008597 -0.006066 -0.009831 0.016643 0.015764 0.013933 -0.011969 -0.015581 -0.020987 0.023087 0.019387 -0.024691 
verkkosisätasku 0.008439 0.004423 -0.023643 0.024589 0.027964 0.024389 -0.028918 -0.027121 0.017959 -0.002273 -0.008068 0.023981 0.019778 0.021353 -0.025881 -0.004272 
tavara -0.175293 -0.507493 -0.167648 0.117311 0.303339 0.384981 0.123855 -0.853049 0.308022 -0.020644 0.612142 0.258092 0.604016 -0.238750 -0.095531 -0.372935 
organisointi 0.027819 0.002957 0.007871 -0.006749 -0.022158 -0.012501 0.013659 -0.017372 -0.020129 0.025320 0.020361 0.014008 -0.019829 0.025308 0.014584 -0.000688 
dac -0.311053 0.174001 0.234729 -0.164902 0.041956 0.172111 -0.209011 -0.225189 1.541871 -0.665681 0.554157 -0.294814 0.438441 0.567668 0.116814 -0.804615 
featherlight -0.026159 0.005784 0.014584 -0.012067 -0.022880 0.026074 0.015426 -0.001886 0.016780 -0.022152 -0.005486 0.024376 -0.009468 0.021586 -0.003033 0.003802 
nsltm 0.015988 0.011935 0.004392 0.017318 0.030616 0.010352 0.017668 0.006502 0.000898 0.017457 -0.027325 0.005715 -0.014522 -0.023434 0.024769 -0.002206 
sections -0.031007 0.015685 0.000169 -0.020730 -0.002352 -0.005972 0.021056 -0.005534 0.023845 0.007999 0.018006 -0.018204 0.024409 -0.008125 0.001009 -0.023124 
rainguard 0.002703 0.002404 0.010745 0.018595 -0.022705 -0.024176 0.008780 0.009285 0.026401 0.014962 0.017131 0.023294 0.001700 -0.027374 0.015545 -0.012244 
lattia 0.020379 0.000338 0.027286 -0.028884 -0.004817 0.027707 -0.020828 -0.005198 0.003885 -0.014915 -0.025670 -0.003838 0.024140 0.005566 0.016031 -0.021962 
pro 0.212707 1.031386 0.725222 -1.376008 -0.115586 -1.812504 -1.282478 -0.620203 0.711901 0.201913 -0.029077 -0.201704 0.131780 -0.391161 -0.769286 -1.188360 
kiila -0.429463 -0.615348 0.461591 -0.189903 0.522445 -0.228983 -0.267745 -1.386016 0.071056 -0.729886 0.578607 0.151622 0.135047 -0.076915 -0.041239 -0.611328 
norja 0.327979 -0.371282 0.927579 -0.276790 0.710152 -1.653315 -0.057620 -0.516350 0.882985 -0.418103 0.637321 0.509628 0.415384 -0.373512 0.256190 -0.369545 
unna -0.013806 -0.024221 0.019828 -0.001630 -0.030931 -0.004877 0.012214 0.017610 -0.021219 -0.027220 -0.027675 0.019892 0.020240 0.021079 -0.013298 0.014883 
täysi -0.470887 -0.708739 -0.029203 -0.041439 0.203549 -0.125961 -0.325547 -0.535329 0.883877 0.115628 -0.257941 -0.344354 -0.143933 0.088126 -0.598274 -0.387801 
itsestäänseisova -0.017898 0.012378 -0.009677 -0.022220 0.006241 0.002563 0.007738 0.005328 -0.000687 -0.000726 -0.012865 0.019593 -0.023506 -0.006532 -0.009289 -0.030855 
ultrakevyt -0.387942 -0.566661 0.281485 -0.499992 0.196380 -0.818808 -0.382653 -0.825290 0.655938 0.267452 -0.183546 -0.075867 0.064546 -0.248831 0.031270 -0.713376 
mahtua -0.180366 -0.879549 0.155542 -0.536667 0.575749 -0.545134 0.002356 -1.448728 0.139505 -0.248112 -0.009172 0.052188 0.510572 -0.486573 0.104558 -0.265977 
reissaaja 0.018892 0.025431 0.015971 -0.027479 -0.004868 0.017334 -0.003310 0.021283 -0.003119 -0.015039 0.005946 -0.013433 -0.029866 -0.002842 0.011776 0.016619 
absidia -0.133607 -0.110787 0.300876 -0.271087 -0.240582 -0.588952 0.062466 -0.306496 0.247292 -0.048105 -0.030985 0.104178 0.381213 -0.001045 0.034466 -0.460484 
joten -0.115526 -0.891746 0.396479 0.109486 0.858739 -0.101320 0.029848 -0.899011 1.214978 -0.100087 0.157397 0.767039 -0.398374 -0.516419 -0.215826 -0.754253 
ylimääräinen 0.127961 -0.279412 0.043485 -0.103989 0.232815 -0.076637 -0.345510 -0.426982 -0.130255 -0.038594 -0.217407 0.014269 0.239187 -0.299943 -0.296858 -0.248027 
poissa -0.083247 -0.226324 -0.107481 0.160176 0.324767 -0.079318 0.058192 -0.372637 0.390812 -0.067553 -0.422087 0.181412 0.007048 -0.177232 -0.339973 -0.297713 
erityinen -0.243839 -0.526977 -0.061843 -0.397983 0.632340 -0.497053 -0.592914 -1.219728 1.131118 -0.064264 -0.682171 -0.259333 0.647042 -0.398864 -0.110146 -0.643840 
liikkuva 0.005879 -0.025940 0.025701 0.014509 -0.027503 -0.029677 0.015835 0.024779 -0.031176 -0.004711 0.027915 -0.023402 0.004783 0.018473 -0.027727 0.016821 
vaellus -0.060432 -0.743281 0.231310 -0.095618 0.439521 -0.936637 -0.486307 -0.648437 0.232035 0.036952 0.464427 -0.130251 0.915141 -0.899299 -0.103965 -0.751326 
purkaa -0.067810 -0.234875 0.051737 -0.074766 -0.129742 -0.384163 -0.014951 -0.297535 0.283397 -0.040317 -0.094164 -0.230495 0.318224 -0.111812 -0.187990 -0.337168 
päivittäin -0.005260 0.007565 -0.027103 -0.007441 0.009374 0.009199 0.025597 -0.010179 -0.023080 -0.012205 0.022075 0.015662 0.010701 0.005343 -0.012122 -0.009049 
ottaa -0.123449 -0.210455 0.181611 -0.401939 0.353181 -0.366267 -0.221262 -0.944053 0.627360 -0.166188 -0.108092 -0.266472 0.500375 -0.620101 -0.439416 -0.227142 
kulma 0.454166 -0.772666 -0.034256 0.147776 -0.012542 -0.116864 0.062460 -1.011717 1.193636 -0.402751 0.332993 0.344742 0.341409 -0.669843 -0.291588 -0.429008 
irti 0.046647 -0.406871 -0.473051 0.082652 0.033107 0.123042 0.183498 -0.241858 0.327657 -0.072958 0.064507 -0.304277 0.139685 -0.614856 -0.295356 -0.311861 
puoli -0.339454 -0.458301 0.359780 -0.152547 0.302005 -0.744888 0.120597 -0.762032 0.544099 -0.078777 0.040596 -0.114237 0.277752 -0.658527 -0.171841 -0.685327 
jalkopää -0.075995 -0.192774 0.048033 0.140709 0.252892 -0.206258 -0.122893 -0.416484 0.424329 -0.116310 0.491016 0.134804 0.019280 -0.164986 0.022012 -0.385646 
jäädä -0.372928 -0.485598 -0.253208 -0.056781 0.316600 -0.183933 -0.143060 -0.610426 0.166634 0.117416 -0.205340 -0.079898 0.036043 -0.766934 -0.447814 -0.625943 
pieniä -0.103478 -0.929250 0.586154 -0.271742 0.097072 0.104161 -0.100950 -0.301835 0.516879 0.321433 0.363465 -0.027676 0.156712 -0.196905 -0.516212 -0.400177 
absiditila -0.009037 -0.002262 0.022610 -0.010624 0.014727 -0.013948 0.004265 -0.009187 -0.023815 -0.025330 -0.030073 -0.003320 -0.015535 -0.005615 0.010504 -0.007714 
soveltua -0.985715 -0.628993 0.424816 -0.093540 0.091236 -0.362461 -0.374967 -0.938431 0.877782 0.173597 -0.664280 -0.308896 0.370714 -0.361482 -0.335097 -0.992678 
monipuolinen -0.125823 -0.574481 0.657873 -0.028619 0.407608 -0.781790 -0.500831 -0.391516 0.295813 0.007838 -0.193069 -0.220463 0.001677 0.104417 -0.159252 -0.432773 
ympäristö -0.142151 -0.219364 0.247457 -0.076658 0.018390 -0.213795 -0.073567 -0.566321 0.316095 -0.016371 -0.016495 -0.003181 0.360058 -0.343674 -0.157605 -0.529547 
luoto 0.001465 -0.005562 0.018247 0.023984 0.016907 0.028041 0.015373 0.022927 0.001949 -0.011036 -0.022552 -0.007582 0.005868 0.022634 -0.003424 0.012458 
jäätikka -0.003857 -0.026144 0.017196 0.020693 0.006616 0.003890 -0.019429 -0.009545 0.016085 0.026194 0.012798 0.000466 0.014193 -0.030663 0.010390 -0.013230 
metsä -0.351060 -0.386466 -0.221157 0.138025 0.462568 -0.448907 -0.351294 -0.717208 0.689174 -0.142350 0.246475 0.070370 -0.056071 -0.248140 -0.321980 -0.596970 
retkimeloja 0.024284 0.029588 -0.018276 0.001582 0.002232 -0.007739 0.003493 0.015895 0.016411 0.023209 -0.008966 0.016298 0.025806 0.024162 -0.000389 -0.001822 
pyöräilijä 0.016033 0.006803 0.023563 -0.015884 0.015644 -0.021262 0.005537 -0.005819 0.004355 -0.016386 -0.002119 -0.011254 0.001571 -0.013552 0.003583 -0.000956 
suosikki 0.005269 0.030382 -0.006367 -0.027737 -0.028339 -0.004208 -0.015549 -0.004756 -0.023973 -0.019155 0.024760 -0.023697 0.023478 0.004220 -0.028113 -0.011879 
varuste -0.294212 -0.316157 0.160538 0.060405 0.382967 -0.256156 -0.009579 -0.847586 0.572337 -0.265281 0.212532 0.028243 0.329989 -0.087398 -0.217484 -0.362166 
leveys -1.158457 -0.157250 0.780544 0.572075 -0.310094 -1.173496 0.019890 -1.144659 2.535760 -1.376927 1.719762 0.757681 -0.829943 -0.085998 0.649632 -1.613242 
ansio -0.586569 -1.193391 -0.609496 0.091695 0.463806 -0.801668 -0.407131 -0.739739 1.192306 -1.178261 0.231771 -0.443438 0.676312 -0.932685 -1.391582 -0.752259 
hätätila -0.003769 -0.015249 0.020043 -0.011820 0.000436 -0.024117 -0.009053 0.021102 -0.005899 -0.009467 0.022143 0.014998 -0.015033 -0.013499 -0.000901 0.014255 
kaksi 0.302748 -1.256405 0.523596 -0.437337 -0.859834 -0.115772 -0.526881 -0.586031 1.333448 -0.663843 -0.065388 0.308707 1.656571 -1.078922 -0.083356 -0.454985 
sisäänkäynti -0.329293 -0.124298 -0.136223 0.075970 0.287787 -0.064069 0.009057 -0.569588 0.332288 -0.256749 0.254610 0.280615 0.074587 -0.167456 -0.054556 -0.538146 
helpottaa -0.307494 0.133940 0.902778 -0.374744 0.680549 -0.606246 0.071838 -1.027402 1.457381 0.094702 -0.405674 0.608415 0.610134 -0.049054 -1.240706 -1.374443 
tehokas -0.330910 -0.542012 -0.113719 -0.437159 0.451318 -1.286408 -0.454628 -1.735923 1.682938 -0.144401 -0.145042 0.414803 0.180865 -0.050187 -0.844915 0.326154 
ilmanvaihto 0.202563 0.028724 0.179650 -0.065630 0.215377 0.151359 0.072524 -0.591571 0.659521 -0.045636 0.042091 -0.001802 0.493959 -0.460585 -0.204347 -0.237486 
telttakeppi -0.030640 0.001064 0.028951 -0.017547 -0.010784 0.018576 -0.005275 0.031245 0.009069 -0.003914 -0.017765 -0.024173 -0.030658 0.029457 0.009222 0.020870 
samanpituinen -0.004623 0.025579 -0.025148 0.007882 0.027049 -0.027305 0.023048 0.007178 -0.010585 -0.000016 0.025409 -0.021733 -0.019728 -0.021739 -0.030071 0.030439 
jolloin 0.346905 -0.840005 0.431595 -0.458475 0.437715 0.110649 0.482886 -0.984340 0.998469 -0.186307 0.423235 0.511429 0.234265 -0.072629 -0.499388 -0.172262 
selkeä -0.028538 -0.009101 -0.021951 0.018421 0.019904 -0.021343 -0.027400 -0.011679 0.013195 0.025593 -0.009315 0.015809 -0.021119 0.006387 0.014717 0.002386 
ulkotelttamateriaali 0.000303 0.016561 -0.005482 -0.003786 -0.004552 0.030547 -0.014678 -0.020500 -0.029596 0.005915 0.007013 -0.007962 0.001779 0.028678 -0.016206 -0.028818 
repeämiskestävyys -0.028403 0.005512 -0.019551 -0.009375 0.013905 0.015839 0.013517 0.004869 0.020825 0.007323 0.025533 0.027768 0.021286 0.012259 0.021204 0.017693 
lumenkestokyky -0.008164 0.012053 -0.000679 0.018022 0.026610 0.020611 -0.017039 0.002569 0.010148 -0.023005 0.030629 -0.016104 -0.010405 0.001364 0.010122 -0.002180 
pystystys -0.030683 0.020127 0.010989 -0.028173 -0.029295 -0.022409 -0.024025 -0.003369 -0.013197 -0.008461 -0.006102 0.009771 -0.010042 -0.017571 -0.010124 0.009015 
edellyttää -0.006570 -0.030163 -0.003576 0.003886 0.024529 -0.026258 -0.030274 0.025479 -0.001431 -0.003993 0.003885 0.001995 0.019342 0.000565 -0.010335 -0.014382 
mukaan -0.076516 -1.441631 0.988608 -0.216482 0.665684 0.723301 -1.573577 -1.710217 0.717333 -0.372054 -0.407116 0.066392 0.250390 -0.557657 0.482965 -1.208299 
kuitenkin -0.071503 -0.260019 -0.507837 0.479354 -0.122244 -0.015885 0.197409 -0.561887 0.898628 -0.174800 0.188472 0.189284 0.039155 -0.978585 -0.422030 -0.517898 
fjällräven -0.355351 -0.234725 0.408258 -0.292405 0.273132 -1.401490 0.189308 -0.621955 0.908965 0.110195 -0.448784 -0.062996 0.516991 -0.344822 -0.207346 -1.059669 
abisko -0.227464 0.144669 0.178847 -0.577293 0.473413 -1.071987 -0.210618 -0.455931 0.669301 0.656790 -0.283269 -0.222556 0.429270 0.337434 -0.114631 -0.687846 
lite -0.272962 -0.117354 0.195775 -0.398274 0.482092 -0.738327 -0.276886 -0.435516 0.548018 0.119774 -0.371000 -0.029933 -0.059498 0.241048 -0.133735 -0.402840 
fjällrävenin -0.079344 0.074558 0.452057 -0.779358 0.416680 -0.906542 -0.323758 -0.534240 0.594513 0.146655 -0.333017 -0.257069 0.402367 -0.151132 -0.121181 -0.579279 
tuuli -0.349808 -0.273674 -0.211813 -0.327945 0.428424 -0.623246 0.071398 -0.397323 0.333727 0.086905 -0.661597 0.182321 0.162210 -0.232634 -0.171575 0.022914 
vakaa 0.194161 -0.070032 -0.133144 -0.351319 0.491705 -0.378434 0.223112 -0.624023 1.504796 -0.263417 -0.161117 0.243869 0.518658 -0.384579 -0.491887 -0.179616 
erinomainen -1.048105 -0.518088 0.630665 -0.509258 0.598134 -0.868525 -0.443140 -0.971067 0.632778 -0.298515 -0.089996 0.166198 0.318959 -0.755439 -0.905618 -0.930843 
istumakorkeus -0.028128 -0.003604 -0.024898 -0.014786 -0.023985 0.013622 0.006443 -0.027721 0.029286 -0.004476 0.006684 0.024563 -0.024651 -0.001435 0.013415 -0.007859 
sopiva -0.365688 -0.600602 0.244950 0.214505 0.678612 0.064085 0.039236 -0.483003 0.207431 -0.625725 0.162774 0.189544 0.442151 -0.716790 -0.340499 -0.535326 
kokoinen -0.165642 -0.564804 0.298467 0.025997 0.097228 -0.223169 -0.065507 0.144082 0.378530 0.074193 -0.148496 0.292330 -0.320879 -0.351345 -0.264996 -0.371682 
absidi 0.054996 -0.281840 0.132009 -0.260342 -0.005374 -0.458418 -0.000358 -0.265155 0.343817 -0.183610 -0.040188 0.066863 0.013263 -0.276880 -0.239846 -0.127897 
neljä -0.660652 -0.932914 -0.115048 -0.556842 0.382232 -0.604755 -0.181068 -0.436632 0.753051 -0.152196 0.027034 -0.031434 0.767842 -0.382994 -0.160933 -0.736250 
käytettävyys -0.019119 -0.021166 0.004787 -0.015021 0.014812 0.010733 0.012287 0.016160 0.022783 0.018846 0.000662 0.005247 -0.024720 0.017421 -0.017428 -0.024986 
yhdistyä 0.047369 -0.190305 0.453463 -0.465870 0.365757 -0.522927 -0.224201 -0.218290 0.324504 -0.021794 0.133764 0.154656 -0.076301 -0.384481 -0.339315 -0.262584 
lujuus 0.022765 0.023241 -0.026620 -0.001568 -0.009958 -0.022520 -0.030552 0.019825 0.014663 0.007866 0.004093 0.005790 0.021362 -0.025373 0.027136 -0.017300 
luotettavuus -0.016044 0.023224 0.027823 0.002062 0.025288 -0.014431 -0.010730 0.012980 0.005426 0.001956 -0.025180 0.009352 -0.013948 -0.020504 -0.007473 -0.002002 
pyrkivä -0.012495 0.010864 -0.014704 0.017878 0.014835 0.008233 -0.022248 0.003204 -0.004124 0.011628 0.014193 0.006564 -0.015725 -0.027894 -0.015545 -0.012533 
pelkistetty 0.009243 0.029740 0.003891 0.011470 0.025209 -0.018170 0.021277 0.004231 0.011213 -0.028843 -0.007521 0.029674 -0.025437 -0.007773 0.023465 0.015338 
muotoilu -0.350601 -0.025556 0.237817 -0.487080 0.348214 -1.135305 -0.457610 -0.769137 0.260716 0.021891 -0.504451 0.144014 0.424009 -0.622723 -0.328780 -0.791415 
sisältää -0.116935 -2.469050 1.898612 -0.367033 1.164214 -0.297784 -0.499560 0.024363 0.054330 -1.696415 0.738000 -0.397121 0.046873 -0.454633 -0.129229 -0.561235 
eteinen -0.000501 -0.362144 0.086964 -0.357234 0.268692 -0.226292 -0.115813 -0.417578 0.468640 -0.298156 -0.152310 0.142104 0.175229 -0.294598 -0.500682 -0.321249 
optimoitu 0.003930 0.020179 0.014485 -0.027998 -0.014396 0.029878 0.024981 0.029999 -0.011942 0.017334 0.018037 -0.006539 0.027128 -0.013109 0.028203 0.028031 
retkeily -0.058298 -0.164353 0.388063 -0.168518 0.078786 -0.708521 -0.341268 -0.514236 0.408170 0.308987 -0.032413 0.308143 0.445724 -0.229106 -0.105385 -0.200789 
pieni -0.193149 -0.428347 0.894992 -0.081171 -0.865529 -0.426374 -0.645838 -1.820082 0.807121 -0.280510 0.014118 0.029404 -0.065062 -0.030356 -0.978946 -1.536626 
varustus -0.001820 0.014995 -0.002266 0.013498 -0.023459 -0.006992 0.010225 -0.018280 -0.012415 -0.022464 -0.009377 0.003213 -0.020831 0.018564 0.004360 -0.024253 
rullata 0.039086 -0.210907 0.131678 -0.082015 0.178772 -0.170463 -0.155038 -0.505495 0.298787 -0.093881 0.120552 0.163627 0.000059 0.112673 -0.040045 -0.187465 
ylös 0.036468 -0.288994 -0.123389 -0.015688 0.244933 0.236249 0.049195 -0.536025 0.231931 -0.083502 -0.279042 -0.187637 0.079922 -0.566135 -0.404053 -0.527886 
molempi 0.582818 -0.671308 0.098438 -0.975649 0.743256 -0.520413 -0.358784 -1.453957 0.802463 0.742587 -0.033226 0.226700 0.059538 -0.310635 0.375882 -0.867649 
pää -0.002720 -0.710532 0.937729 0.798948 0.413496 0.312621 0.319878 -1.216494 2.030279 0.242498 0.669532 -0.015477 0.953626 -0.347466 -0.123355 -1.990911 
näin 0.464307 -0.785063 0.662896 0.217841 0.598265 -0.140788 -0.093038 -0.813098 0.871317 0.276562 0.437104 0.496285 0.584069 -0.183801 -0.688634 -0.549961 
maisema -0.002837 0.012225 0.004934 -0.001776 -0.003738 0.010817 0.002097 -0.018760 0.017653 0.013510 0.015411 -0.029114 0.014477 -0.006175 0.002735 -0.030499 
nauttia -0.155356 -0.512366 0.028252 -0.116529 0.408347 -0.644989 -0.332503 0.229124 -0.081796 0.163342 -0.165011 -0.305815 -0.327697 -0.455102 -0.409950 -0.185314 
sekä 0.196241 -0.439133 -0.121877 -0.869690 1.273366 -0.191211 -0.435129 -0.415182 1.239481 -0.118643 0.162633 0.511405 -0.291631 -1.192056 -0.625883 -0.629981 
tuulettua -0.021200 0.018076 -0.002364 -0.019344 0.007238 0.029045 -0.020449 0.019150 0.011449 -0.004745 0.026774 -0.027462 -0.023322 0.025647 0.001176 -0.014978 
maksimointi -0.023656 -0.011018 -0.029683 0.005846 0.020311 -0.030065 0.009711 -0.023170 0.027020 -0.026140 0.012178 0.013687 -0.019147 -0.004311 -0.030007 -0.014354 
koskea 0.016425 0.021682 -0.023350 0.016019 0.000159 -0.010255 0.004708 0.018691 -0.024590 0.018162 -0.019227 -0.007531 -0.007829 0.008359 0.014700 -0.026003 
featherlite -0.126375 0.165180 -0.096009 -0.078306 0.007793 0.200465 -0.209148 -0.254551 0.748276 -0.423666 0.340310 -0.137867 0.191464 0.320210 0.144081 -0.266023 
nsl 0.020937 0.013630 -0.020059 0.016441 0.019474 0.007484 0.002622 0.003739 0.023651 -0.027330 0.014961 -0.017851 -0.000137 0.017147 0.026665 0.006345 
ø -0.330000 -0.376757 0.016859 0.188842 0.113277 -0.153808 -0.345528 -0.679694 1.007725 -0.781553 0.667373 0.132882 -0.362195 -0.019457 -0.139510 -0.575941 
suljettava -0.018501 -0.061931 0.122613 -0.181053 -0.202005 -0.059364 -0.017337 -0.181632 0.610331 -0.111871 0.075642 -0.035728 0.280833 -0.246609 -0.049182 -0.167386 
oleva -0.127746 -0.239571 -0.107377 0.377221 0.639174 0.127251 0.006679 -1.548935 0.764886 -0.414290 0.687769 -0.228005 0.848581 -1.141862 -0.667029 -1.388301 
vmalliset -0.016079 -0.003339 0.020038 -0.003818 -0.005500 -0.021236 0.029428 -0.012236 -0.004648 0.030932 -0.007630 -0.008195 0.007410 -0.003092 -0.024756 0.004496 
dackiilat 0.002052 0.027529 0.017246 0.007360 -0.012940 0.026933 0.013065 -0.000552 -0.000736 -0.007996 -0.006664 -0.004746 0.030396 -0.005818 0.024579 -0.026633 
dyneema 0.020252 0.024632 0.001019 0.030303 -0.008916 0.002131 -0.007353 0.023827 -0.006959 0.006157 0.029840 0.020505 -0.003056 -0.024258 -0.025295 0.013601 
myrskynaru -0.018874 0.011961 -0.006532 -0.015280 0.011807 -0.028182 0.008515 -0.025590 0.010511 0.017037 -0.022249 -0.021378 0.022952 -0.003713 0.014169 -0.015117 
vaeltaja -0.018943 -0.205570 0.371654 -0.147508 0.330671 -1.127137 -0.153919 -0.518844 0.633712 -0.214201 -0.036603 -0.172597 0.063888 -0.353647 -0.378355 -0.438732 
kulkea -0.052320 -0.586067 0.042642 0.419437 -0.097979 -0.429728 -0.203183 -0.866635 1.136662 -0.559867 0.605407 -0.398626 0.435744 -1.122443 -0.193776 -1.249543 
alumiininen -0.162576 -0.422573 0.125106 -0.795755 0.114469 -0.347913 -0.379408 -0.462315 0.875549 -0.234952 -0.121240 -0.261419 0.356572 0.061951 -0.020629 -0.184705 
pystykaari -0.027144 -0.030104 0.030634 -0.027820 -0.029739 0.005423 -0.017696 0.028237 0.021668 -0.016939 0.010195 -0.004563 -0.001986 -0.026459 0.025467 -0.027469 
lisätila -0.010999 -0.002395 -0.016602 -0.027705 -0.009152 -0.030638 -0.006240 0.015963 -0.010980 0.028802 -0.011848 0.019863 0.028938 -0.002489 -0.001325 -0.021931 
luotettava 0.024203 0.009744 0.423401 -0.606100 0.415702 -1.135944 -0.519548 -0.799390 0.335321 -0.132491 0.170332 -0.168691 0.914124 -0.666062 -0.381839 -0.408565 
kevytrakenteinen -0.028465 0.017164 0.006587 0.008534 0.019623 -0.011643 0.024495 -0.029964 -0.023568 0.019025 -0.018049 -0.008715 0.014036 0.012551 -0.025822 0.024008 
uusi -0.714424 0.066246 0.768397 -1.009145 0.146062 -0.975320 -0.598791 -0.623629 0.442269 0.119797 -0.739182 -0.329575 0.165641 -0.564359 -0.649273 -0.592173 
korkealaatuinen -0.214165 -0.196284 0.675876 -0.210842 0.482191 -0.845248 -0.449370 -0.156413 0.489499 -0.407537 0.184482 -0.135358 0.702542 -0.063905 -0.317047 -0.526567 
nailon 0.040879 0.305596 -0.032939 -0.376976 0.276269 -0.211931 -0.243983 -0.157088 0.384439 -0.325639 -0.029210 -0.062994 0.142132 -0.005366 -0.051667 -0.172424 
rakenne 0.080609 0.051582 0.400272 -0.622648 0.511022 -0.834910 -0.441027 -0.611481 0.806759 -1.104565 0.293734 -0.277492 1.023967 -0.290415 -0.692739 -0.973504 
mikä -0.208749 -0.281406 1.714010 0.401858 0.480567 -0.429902 0.283336 -1.377618 0.762687 -0.010959 0.506590 0.474349 1.356710 -1.253090 -0.820261 -1.333286 
tehdä -0.559255 -0.533980 -0.257432 0.169439 0.331072 -1.833234 -0.572375 -0.419011 0.897882 -0.542452 0.000843 -0.165911 -0.235838 -1.111585 -0.870433 -0.958773 
kestävä -0.098617 0.610540 0.012722 -1.035381 0.137961 -1.344937 -1.273609 -1.128060 0.898511 -1.312819 0.174773 -0.529014 -0.213473 -0.361872 -1.191773 -0.726221 
että -0.392351 -0.735785 -0.210736 0.117309 1.084059 -0.910977 0.800018 -1.973613 1.188964 0.010552 0.219457 0.131629 0.388368 -0.582601 0.017415 -0.859435 
kanta -0.007326 -0.184214 0.059188 -0.110453 0.197428 -0.532112 -0.070397 -0.221691 0.440578 0.013363 -0.049187 0.038748 -0.015528 0.178603 -0.199818 -0.029388 
kiinnitetty -0.017297 -0.617324 0.317427 0.596718 0.354339 -0.062927 -0.225932 -0.965015 1.356954 -0.438759 0.651657 0.777831 0.488936 -0.671160 -0.331560 -0.860978 
käsittely -0.283713 0.281783 0.088627 -0.471592 0.244372 -0.786559 -0.841742 -0.376247 0.485594 -0.640852 0.673474 0.399806 0.028556 0.094188 -0.406421 -0.353443 
sade -0.118853 -0.051933 0.126620 -0.055064 0.408988 -0.524866 0.161705 -0.609981 0.726473 -0.301909 0.401931 0.140806 0.412890 -0.404481 -0.151888 -0.386876 
aika -0.616753 -0.682763 -0.261714 -0.300833 1.639182 -0.595991 0.584330 -1.406301 2.017198 0.060143 1.012342 0.247517 2.049703 -1.572517 1.023955 0.796562 
käyttää 0.075233 -1.198018 0.616812 0.120275 -0.039024 -0.883374 -1.288840 -0.901635 0.602132 -0.384841 0.208549 0.371603 1.109304 -0.101359 -1.227642 -0.174259 
tuplakaari -0.025896 -0.012849 -0.028453 -0.024913 0.016289 0.009646 -0.027263 0.011199 0.004397 0.008713 0.017573 -0.013894 -0.020069 0.029708 0.024983 -0.023721 
lisävaruste 0.046357 -0.842960 0.978756 -0.177312 0.267012 -0.460385 -0.299815 -0.527774 0.822411 -0.093919 0.077771 0.152606 0.226235 -0.037942 -0.138457 -0.230659 
kolme -0.354070 -1.240601 0.680974 -0.518204 -0.039386 -0.668626 0.516058 -0.828117 1.300592 0.172950 -0.074862 0.571211 1.286253 0.028903 -0.111812 -0.316705 
sisäpuoli -0.090340 -0.368298 -0.031493 -0.127253 -0.099281 0.157995 -0.295623 -0.273496 1.627476 0.039918 0.631879 -0.162607 0.527127 -0.646459 -1.008843 -0.931363 
tarvita 0.097258 -1.360428 0.162093 0.049172 0.590278 -0.565745 -0.579849 -1.551190 1.355431 0.165068 0.885464 0.412565 0.815702 -0.750014 -0.937978 -0.194865 
lämmin -0.439906 -0.236797 0.147520 -0.400001 -0.001468 -0.174168 -0.153027 -0.322016 0.679383 -0.338506 0.002343 -0.054689 1.030364 -0.946793 -0.387440 -0.740571 
kääriä -0.033973 -0.136346 0.105460 -0.082009 0.109682 -0.358912 -0.157495 -0.438373 0.372710 -0.025274 0.207854 -0.049547 0.104364 -0.129193 -0.162908 -0.383349 
puoliväli -0.016573 0.012741 0.004072 -0.019790 -0.002052 -0.008698 0.005296 0.006261 0.003338 -0.011610 0.016855 -0.024910 0.011774 0.014700 0.024158 0.004022 
saada 1.120681 -0.629084 0.828832 1.535391 -0.191691 0.103544 -0.224464 -1.919873 1.183241 0.221318 1.355618 0.851809 0.012453 -0.803971 -1.903360 -1.327488 
ykkvetoketjussa -0.010664 0.004280 0.014107 -0.010461 -0.026343 -0.010836 -0.011769 0.000619 -0.030225 0.019858 -0.008874 -0.017253 -0.018034 0.003774 -0.016007 -0.006025 
automaattinen -0.070139 0.105319 0.146182 -0.017863 0.294698 -0.261183 0.141010 -0.347968 0.542232 -0.015505 0.137851 0.278246 0.141473 0.278428 0.099562 0.069452 
lukitustoiminto -0.011661 -0.000338 -0.012592 0.003255 0.030106 -0.014889 0.004700 0.007391 0.011958 0.009918 -0.025962 0.021983 -0.022743 0.022620 -0.000603 -0.026578 
tuulla -0.016034 -0.002716 0.015991 -0.008555 -0.029749 0.027601 0.004683 -0.016754 -0.002477 0.012235 -0.029022 0.023056 0.009048 0.002264 -0.030872 -0.023095 
hilautua 0.009010 0.019917 -0.012740 0.028990 0.004592 -0.003400 -0.014448 -0.024796 -0.027711 0.017991 -0.018672 -0.027754 -0.010926 -0.011150 -0.003809 -0.010832 
auki -0.110303 -0.193372 0.239637 0.208724 0.302628 -0.120927 -0.177365 -0.066630 0.526202 -0.403215 0.273430 0.056297 0.069515 -0.452694 -0.235464 -0.286284 
tiheä 0.071178 -0.121155 0.047348 0.106008 0.147891 -0.084399 -0.229903 -0.351840 0.381924 -0.044708 0.181726 -0.272566 0.060300 -0.416628 -0.435918 -0.668205 
itikkaverkko 0.114972 -0.059886 0.063360 0.007707 0.012550 -0.207430 -0.090100 -0.222151 0.416182 -0.028362 0.150612 0.065184 0.062473 -0.057752 -0.016757 -0.298808 
lähes -0.338800 -0.151007 0.060358 0.352779 0.014962 -0.053734 0.018939 -0.643034 0.517544 0.008477 0.196340 0.019377 0.713220 0.022852 -0.719550 -0.787871 
näkymätön -0.008054 0.011685 -0.021695 -0.003618 0.004617 -0.021272 0.024287 -0.024811 -0.027107 0.021456 -0.024683 -0.007333 -0.006285 -0.028840 -0.019960 0.018231 
hyönteinen 0.052863 -0.284581 0.369801 0.126917 -0.069814 -0.487204 -0.071766 -0.199860 0.545237 0.020476 0.047995 0.134382 0.076967 -0.006590 -0.332961 -0.474188 
vaatenaru 0.082675 -0.093499 0.244183 -0.073095 0.155603 -0.427946 -0.029071 -0.262664 0.454401 -0.029073 0.258932 0.214394 0.116840 0.038766 -0.012927 -0.253906 
verkkotasku 0.274135 -0.264674 0.067762 -0.413285 0.344360 -0.026704 0.161864 -0.580409 1.138222 0.116281 -0.552976 0.194835 0.258727 -0.376292 -0.626405 -0.887736 
kuivattaa 0.009219 0.000543 0.000529 -0.021723 -0.004229 0.006527 0.006559 -0.008127 -0.028253 -0.005744 -0.018306 0.000340 -0.022339 0.025543 0.022034 -0.027875 
järjestys -0.130676 -0.085453 0.050774 -0.021574 0.175915 -0.255964 -0.094205 -0.325909 0.346447 -0.139328 -0.038521 0.010724 0.158040 -0.080101 -0.256227 -0.231489 
muu -0.430038 -0.507148 0.618320 -0.364642 1.337567 -0.362651 -0.028922 -2.220240 0.806368 -0.460769 -0.818575 0.434215 1.065217 -0.378824 -0.628339 -0.478368 
tavata -0.129713 -0.131379 0.458932 -0.316110 0.240416 -0.702653 -0.160610 -0.375314 0.614165 0.015908 0.050881 0.040774 0.414763 0.062295 -0.010708 -0.357272 
pvcmuovia -0.048427 0.006209 0.217375 -0.089295 0.118965 -0.565659 -0.079493 -0.045390 0.469293 0.018702 0.432202 0.201479 0.167386 0.301498 0.085801 -0.154759 
myrkyllinen -0.019036 0.015624 0.024078 0.022096 0.016879 -0.027801 -0.018559 -0.011545 0.016763 0.019303 0.029201 0.023784 0.004042 -0.017537 -0.025876 0.001768 
palonsuojaaineita -0.024420 0.030890 0.007865 -0.025998 -0.010140 -0.001543 -0.029713 0.012318 -0.030723 -0.005122 0.013332 -0.025962 0.009644 0.020997 -0.020731 -0.011890 
fluorihiilitön -0.273452 0.043363 0.262064 -0.172732 -0.010375 -0.319325 -0.196073 0.137760 0.347992 -0.285002 0.553843 0.180531 0.175487 0.548351 0.141436 -0.261835 
tekninen -1.625346 -0.386305 -0.181388 0.003260 -0.240994 -0.424761 -1.012301 -1.225792 0.711829 -1.393873 0.969165 1.095325 -0.761639 -0.200566 -0.810425 -0.885917 
tunneli 0.005705 -0.027269 0.025319 0.020933 0.029199 -0.026823 -0.009877 0.018425 -0.015475 0.019374 0.007671 0.014099 -0.022174 -0.022171 -0.006987 0.030351 
pientä -0.014790 -0.027873 0.026703 -0.013936 -0.020542 -0.009712 0.018342 0.014747 0.010763 -0.003916 -0.003217 0.021692 -0.016498 0.027038 -0.004945 0.004039 
määrä 0.173081 -0.589843 0.133525 -0.087842 0.308032 0.219424 0.059906 -0.175885 0.337507 -0.459848 0.125349 0.169726 0.233767 -0.135750 -0.381299 0.106784 
sisäänmenoaukko -0.013836 -0.029412 0.017969 0.022238 -0.011851 -0.015680 0.005169 -0.010399 -0.007590 -0.031093 -0.021689 -0.013890 0.027854 0.015841 -0.028439 0.001377 
lukumäärä -0.022027 0.022043 0.025996 0.016741 -0.001422 -0.027422 0.020632 0.018156 0.011890 -0.013277 -0.017110 0.002796 0.006922 0.009880 -0.024367 -0.004184 
g 0.168236 -2.173576 1.018449 -0.244737 0.488055 -1.636971 -1.162760 0.184133 0.429011 -0.859804 2.887906 0.858387 -0.689449 -0.260799 -0.812964 -0.594051 
vähimmäispaino -0.023926 -0.001917 0.009486 0.013902 0.025583 0.014201 0.003440 0.029195 -0.020811 0.021845 -0.014338 -0.009160 0.025664 -0.028798 0.010363 0.015791 
mitta -0.441935 -0.782444 -0.000502 -0.111910 0.000442 0.052435 -1.176671 -1.031837 1.008403 -1.078507 0.889267 0.343139 -1.181757 -0.439994 0.105332 -0.647886 
triplerip 0.001391 -0.021105 0.181003 0.016656 0.091828 -0.389613 -0.009135 -0.124327 0.377220 -0.252165 0.303687 0.201968 0.086431 0.077712 0.130578 -0.171653 
silsil -0.072382 0.045094 0.142984 0.058973 0.097462 -0.299830 0.021090 -0.088587 0.425859 -0.279756 0.417521 0.134339 0.075683 0.210116 0.217052 -0.190288 
polyamidia -0.042619 0.158644 -0.042595 -0.133787 0.146862 -0.097741 -0.195281 0.084792 0.513924 -0.648888 0.520522 0.013621 0.085932 0.147738 -0.095952 -0.232612 
alempi -0.030050 0.021960 0.007671 0.011563 -0.013093 0.003181 -0.004519 -0.025385 0.016724 0.019646 -0.003451 0.014309 0.005712 0.025742 -0.010973 -0.012765 
läppä 0.276253 -0.350170 0.341634 0.111720 0.032789 0.110336 0.075208 -0.220880 1.143537 -0.078645 0.110901 0.061835 0.753579 -0.890845 -0.200511 -0.788178 
dwr -0.156904 0.270068 0.245378 -0.113853 0.094650 -0.391803 -0.421033 -0.218883 0.655271 -0.551843 0.569963 0.059589 0.262766 0.009733 -0.380982 -0.484392 
pohjamateriaali 0.016557 0.091113 0.234824 -0.115303 0.171786 -0.207331 -0.191994 -0.121026 0.625178 -0.401291 0.622322 0.050617 0.265053 0.062762 -0.088090 -0.300374 
pu 0.179831 0.119637 0.396946 -0.430978 0.479948 -0.338771 -0.118692 -0.332163 0.589051 -0.497177 0.356107 0.049681 0.025241 -0.208462 -0.171995 -0.368309 
polttiaisverkko 0.028997 0.019929 -0.000138 -0.009003 -0.005783 -0.029536 0.013428 -0.005269 -0.020942 0.006556 -0.030829 -0.003973 -0.006539 0.027637 0.025176 0.022188 
polyesteri 0.300179 0.726701 -0.402864 -1.063898 0.897414 -1.242649 -0.630000 -0.637276 1.544544 -1.266086 1.344822 0.094355 0.467086 -0.608336 -0.886924 -0.378323 
käydä -0.191738 -0.350389 0.096915 0.082114 -0.131388 -0.434362 -0.010247 -0.524041 0.497105 -0.275586 0.146966 -0.036894 0.071928 -0.096111 -0.365471 -0.386888 
henkilö -0.171782 -0.592648 0.330458 -0.220745 0.415805 -0.267875 -0.159574 -0.599228 0.365418 -0.618712 -0.145021 0.515883 0.255768 -0.545207 -0.630401 -0.435187 
käsi -0.139104 0.036781 0.517070 -0.203735 0.799901 -0.413464 -0.999067 -0.234949 0.356797 0.004697 0.226271 -0.532056 0.633297 -1.192802 -0.398223 -1.210202 
käänne -0.007404 -0.007082 0.007950 -0.026509 -0.025509 -0.031029 -0.028947 0.023291 -0.025888 0.012594 -0.000301 -0.030244 0.023604 0.025794 0.015047 -0.026512 
huolima 0.145177 -0.062176 0.132851 0.140396 0.069996 -0.120242 0.071303 -0.188995 0.233752 -0.251166 -0.193461 0.045562 0.202330 -0.454746 -0.312793 -0.205542 
ihminen 0.014223 0.013209 -0.024902 -0.018635 0.004549 0.002932 0.015647 0.005807 0.026175 -0.025377 0.017019 0.010120 0.005203 0.021572 -0.002463 -0.022289 
puuhastella -0.023318 -0.013243 0.001283 -0.011485 0.000966 -0.005694 -0.004552 0.030113 0.029899 0.003212 0.024938 -0.006390 -0.012884 0.005236 0.009314 -0.009685 
perusaskar 0.002610 0.021213 -0.027206 0.006791 -0.006659 0.016940 0.010660 -0.013819 0.028662 -0.028386 0.029263 0.011365 -0.030558 0.019243 0.002926 0.030000 
kuitenkaan 0.011534 0.007317 0.023153 0.011843 -0.009210 0.007082 0.002233 0.016231 0.008526 -0.002537 -0.015159 0.000546 -0.003706 -0.016021 0.016792 0.027963 
liika 0.053984 -0.371143 0.066237 -0.043843 0.081159 0.107495 0.075896 -0.310840 0.210996 0.197337 -0.147298 -0.038445 0.120398 -0.308938 -0.361066 -0.163711 
sopu 0.016626 -0.015435 0.011390 -0.003755 -0.004844 -0.004986 -0.006074 -0.002062 -0.015357 0.029270 0.030269 0.010491 0.005149 0.008228 -0.011761 0.029496 
sija -0.246515 -0.117235 0.136162 0.147698 0.080570 -0.083568 -0.292530 -0.506658 0.476384 -0.003032 0.047425 -0.115951 0.241635 -0.254856 -0.089802 -0.532056 
jne -0.311883 -0.306151 0.380625 0.142708 -0.288747 -0.153171 0.047883 -0.161449 0.697951 0.134193 -0.404949 -0.272413 0.382707 0.042262 -0.166630 -0.798000 
oviaukko 0.023592 -0.006058 -0.022776 0.023416 0.013332 -0.024023 0.027008 -0.009518 0.000916 -0.008767 -0.029918 0.026864 0.027939 0.002094 -0.007318 0.017147 
absidit -0.013875 -0.013206 0.000665 0.002714 0.028184 -0.030623 -0.010855 -0.022782 -0.007156 -0.022561 0.012260 0.024560 -0.021324 0.020736 -0.027427 0.029859 
Puola 0.155318 -0.400297 0.007287 -0.626107 0.389622 -0.811677 -0.618196 -1.144544 0.973425 0.106037 0.249212 -0.065184 -0.131078 -0.279058 0.394746 -1.274753 
ilmastointirööri 0.006562 -0.005785 -0.006298 -0.012824 0.014177 -0.025143 0.001073 0.030548 0.004801 -0.010414 0.001488 -0.024813 0.015179 0.000603 0.007770 0.003436 
pääty 0.035417 -0.240266 0.300883 0.077378 0.138388 0.059268 -0.028011 -0.486898 0.482144 -0.236114 0.351387 0.244730 0.300199 -0.242707 0.018466 -0.490897 
sivuovi 0.001703 -0.029542 -0.020654 0.010017 -0.030455 -0.003138 0.028030 -0.010504 0.011279 -0.012827 0.019336 -0.029934 0.012631 -0.017628 0.002654 0.000169 
shape -0.117397 -0.224706 0.336349 -0.066468 0.282795 -0.735221 -0.129833 -0.318146 0.691220 0.162171 0.290834 0.086527 0.320884 0.159905 -0.001098 -0.514682 
matala -0.627513 -1.664415 0.598765 -0.286601 0.021469 -0.941824 -0.183226 -1.033057 1.356164 -0.599546 0.797713 0.165760 0.312916 -0.179240 -0.871259 -0.209877 
profiilinen -0.023135 -0.023186 -0.019805 0.002203 0.029642 -0.013937 -0.020338 0.010526 0.004960 0.010799 0.007551 -0.010886 -0.029211 -0.029966 -0.009111 -0.020795 
säästää -0.289275 -0.849221 0.146783 -0.376299 0.524406 -0.413374 -0.431453 -0.832908 0.269453 -0.035545 0.498026 -0.108700 0.477922 -0.460928 -0.308832 -0.365147 
kätevä 0.071757 -0.371320 1.105287 -0.646847 0.502636 -0.252676 -0.456452 -1.419985 1.268878 -0.066420 0.084569 -0.344035 0.820327 -0.230319 -0.588112 -0.624736 
kuten -0.206201 -0.055881 0.225745 -0.215779 0.382790 -0.199151 -0.298485 -0.777343 0.953563 -0.711454 -0.316138 0.169982 0.484933 -0.123516 -0.125024 -0.060480 
monikäyttöinen 0.052520 -0.077798 0.778614 -0.204092 -0.023647 -0.884428 -0.429457 -0.785143 1.147296 0.093536 0.213471 0.068765 0.222820 0.415381 -0.152268 -0.813083 
Luka -0.005205 -0.008942 0.027067 0.001759 -0.003649 -0.025711 0.018463 0.019589 0.020548 0.026125 0.008548 -0.019807 0.026374 -0.021566 -0.014416 -0.017584 
toiminto 0.001152 0.000672 -0.015780 -0.020785 -0.011194 0.021197 -0.023731 0.024634 -0.013282 0.012028 -0.009504 -0.023150 0.018166 0.003519 -0.000847 0.031147 
parantaa 0.039927 -0.132225 0.110545 -0.210001 0.616760 -0.150279 -0.007606 -0.516891 0.517968 -0.113782 0.197319 -0.052089 0.173042 -0.318067 -0.735085 -0.370743 
muokata 0.010423 -0.025879 -0.018050 -0.010816 -0.030251 0.030690 -0.012820 -0.018735 -0.020910 -0.016024 -0.023477 -0.000119 0.009547 -0.023172 -0.010116 0.007655 
erilainen -0.133372 -0.780326 0.636427 -0.394677 0.415467 -0.576226 -0.425244 -0.235587 0.622257 -0.153627 -0.144606 -0.203385 0.208764 -0.573516 -0.065154 -0.450916 
sääolosuhde 0.007857 0.025045 0.029608 0.018823 -0.025354 -0.007585 -0.024758 -0.025382 0.028114 0.020643 0.022998 -0.013278 0.019051 -0.001047 -0.023278 -0.006851 
ympäri 0.075546 -0.407247 0.237957 0.178931 0.326261 -0.384647 -0.184844 -0.326457 0.198579 -0.286754 0.217694 -0.234517 0.678776 -0.703934 -0.034161 -0.522136 
vuosi -0.376294 -0.930041 0.645707 -1.017530 0.574545 -0.760066 -0.538980 -0.636759 -0.253166 -0.139797 -0.245066 -0.103857 -0.137993 -0.793684 -0.483776 0.199116 
luku -0.005888 -0.074259 0.022393 -0.259900 0.295991 -0.320526 -0.344248 -0.211001 0.242181 -0.218669 0.062271 -0.233619 0.190391 -0.339584 -0.041019 -0.157371 
tripleripnailonia 0.019204 -0.028289 0.008067 0.027235 0.006371 0.002552 -0.021661 0.014576 -0.010758 -0.021852 -0.028796 0.019075 -0.027357 -0.017248 0.012179 0.000401 
eripaksu -0.011152 0.014657 -0.007210 -0.027307 0.014776 -0.013701 -0.023974 -0.025541 -0.018489 -0.004447 0.017680 0.019386 0.012433 0.023763 -0.003579 0.015049 
kulutus -0.139559 -0.193026 -0.043985 -0.062777 0.385023 -0.209756 -0.075519 -0.359505 0.577043 -0.401994 0.367229 -0.083122 0.320708 -0.444514 -0.469182 -0.293431 
altis 0.004126 0.014747 -0.028877 0.013870 -0.013639 0.027321 0.016364 0.004327 -0.004672 0.023026 -0.015161 -0.010636 -0.027986 -0.028752 0.011554 -0.007788 
lähin -0.002518 0.007473 -0.009437 0.018223 -0.028395 -0.020618 0.025103 -0.013639 0.010782 -0.029420 -0.009593 0.012412 -0.027485 -0.009341 -0.026116 0.001812 
alue -0.426656 -0.496105 0.180737 -0.334924 0.745802 -0.611822 0.080686 -1.046902 0.750783 -0.379824 0.089647 0.438549 0.141081 -0.925931 -0.010253 -0.595692 
vahvistettu -0.170120 -0.002879 -0.114354 0.143127 0.426726 -0.209075 -0.124317 -0.702104 1.030869 -0.536908 -0.067671 0.196222 -0.141592 -0.117556 -0.176455 -0.422830 
paksu 0.085061 0.106186 0.176188 0.017799 0.303203 -0.316597 -0.239909 -0.336593 0.490621 -0.458601 0.187552 0.202191 0.093283 -0.258324 -0.121455 -0.175927 
kun -1.014986 -0.773657 -0.650198 0.479492 0.413588 -0.475072 0.030506 -1.645577 0.979642 -0.221658 0.184909 0.292925 0.639452 -1.312435 -0.211958 -1.166803 
taas -0.041149 -0.283854 0.163457 -0.020461 0.305933 -0.480992 0.142941 -0.740960 0.729204 -0.217800 0.725760 -0.115402 0.393249 -0.498604 -0.488026 -0.865358 
vähäinen 0.021110 0.009952 -0.003257 -0.002190 0.003247 0.007742 -0.002377 -0.008316 -0.005825 0.012836 -0.026562 0.026406 0.013879 0.026454 0.029136 0.003991 
käytetty -0.300612 -0.315330 0.153250 -0.073320 0.546233 -0.227044 -0.352738 -0.301472 0.534592 -0.372186 0.209708 -0.071110 0.176573 0.202022 -0.636145 -0.269032 
saatu 0.046409 -0.048482 0.092203 0.061833 0.106282 -0.219007 -0.141589 -0.265960 0.254225 -0.376888 0.281942 0.055498 0.053368 -0.061114 -0.143423 -0.201611 
pysyä 0.418129 -0.512507 -0.178491 0.043202 0.536254 -0.623577 0.187847 -0.880806 1.357568 -0.595476 0.215033 0.823721 0.244322 -1.440584 -0.645896 -0.407781 
kuiva -0.295236 -0.680577 0.292843 0.188234 0.453063 -0.181367 -0.290626 -0.343155 1.071229 -0.081910 0.243370 0.271378 0.338631 -0.740555 -0.838951 -0.488082 
kaaritunneli 0.021855 -0.002554 0.002730 0.013588 0.018146 -0.014206 -0.012220 -0.006856 0.020906 -0.014865 0.007797 0.020958 0.012356 0.012158 -0.014811 0.012996 
ulkopuoli -0.032047 -0.050058 0.311822 -0.406484 0.279864 -0.119440 0.020714 -0.088461 1.008478 -0.156207 -0.078540 -0.150059 0.288142 -0.075477 -0.479053 -0.360781 
ne 0.322239 -0.732043 0.543860 0.520584 0.836139 -1.003280 0.246642 -0.818532 0.632098 -0.384236 -0.011779 0.246283 0.445867 -1.180605 -0.297316 -0.975112 
värikoodattu 0.070661 -0.076233 0.157004 0.082771 0.086803 -0.076336 0.071938 -0.086764 0.625442 -0.344497 0.266340 0.131200 0.126644 -0.100666 0.133991 -0.281317 
tarve -0.154631 -1.280394 1.048504 -0.096071 0.631703 -0.609862 0.076811 -1.421993 0.832706 0.141507 -0.550253 1.033724 0.473509 -0.167327 0.308194 -0.684166 
levetä -0.977383 -0.967414 0.616915 0.097044 -0.870466 -0.180364 -0.048054 -0.328593 0.761504 -0.164690 0.516193 0.388607 -0.109250 -0.632732 -1.122853 -1.251601 
vaativa -0.492677 -0.627768 0.188539 -0.406156 0.372391 -0.796629 -0.487760 -0.682198 0.996493 -0.105642 -0.161795 -0.012131 0.045941 -0.385366 0.284536 -0.813609 
varten -0.581894 -1.319095 0.545279 -0.041068 0.407072 0.082950 -0.523095 -0.716655 0.671855 0.000498 -0.380191 -0.151079 0.501255 -0.824233 -0.335995 -0.732251 
suuri -0.746349 -1.540671 0.403053 -0.076954 0.171672 -0.898034 0.429674 -1.149373 0.542757 -0.834493 -0.244015 1.191428 0.883356 -0.531990 -0.230739 -1.284697 
korkea -0.418478 -0.701824 0.384163 -0.172024 0.273303 0.198095 -0.028477 -0.732630 0.607589 -0.470051 0.179702 0.461604 0.553057 -0.651796 -0.966037 -0.366583 
sijoitettu -0.268818 -0.373815 -0.051834 0.006672 0.128632 -0.244362 0.010693 -0.035880 0.316688 -0.018031 0.199923 -0.021797 0.087296 -0.042487 -0.390891 -0.280265 
päästävä -0.011833 0.009418 0.023117 -0.006729 0.022571 -0.011322 0.003362 0.019080 -0.016873 -0.014082 -0.029302 -0.016161 0.030040 0.019950 -0.016483 -0.025058 
ilma 0.047604 -1.072415 0.634699 0.051721 1.130983 -0.063188 0.178984 -1.652514 0.688006 -0.014820 0.456844 -0.486057 0.730204 -1.072148 -0.936436 -0.847632 
hyvin 0.180840 0.510734 -0.637266 -0.224314 -0.018056 -0.723419 -0.312680 -1.395425 2.426134 -0.154577 0.711121 -0.625039 0.773660 -1.323945 -0.830205 -0.863092 
kiertää 0.133592 -0.150511 -0.172799 0.023832 0.404712 -0.228484 -0.001671 0.019299 0.309194 -0.130552 0.377228 0.022825 -0.161105 -0.070374 -0.082225 -0.242956 
aukko 0.300511 -0.458339 0.279761 0.551861 0.057584 -0.155170 0.141222 -0.948104 1.702152 -0.314073 0.624045 0.040998 -0.007280 -0.375989 -0.594305 -0.891080 
avata 0.199952 -0.270425 0.461240 0.000508 0.221657 -0.656108 -0.151177 -0.858357 0.862735 -0.314958 0.895469 0.303736 0.239534 -0.253306 -0.470063 -0.377336 
sulkea 0.094274 -0.351296 -0.276257 -0.119253 0.271763 -0.387190 -0.009473 -0.370340 0.311094 -0.500435 0.192800 0.116994 -0.081933 -0.866656 -0.061137 -0.229825 
kiinnittää 0.511838 -0.315827 0.345412 1.161808 0.349159 -0.881385 -0.267237 -1.285263 0.982615 -0.233919 0.437558 0.300602 1.037406 -0.734342 -0.398707 -1.708667 
puoliavoin 0.001168 -0.016275 -0.023808 0.011571 0.028666 -0.028146 -0.029866 0.007884 -0.008175 0.015012 -0.011775 0.021759 0.011334 0.016533 0.000864 0.026598 
asento -0.004090 -0.086852 0.183743 -0.147694 0.295115 -0.402203 -0.152338 -0.547656 0.447329 -0.029066 0.353052 0.059879 0.229710 -0.207483 -0.089271 -0.407090 
päästä -0.089328 0.408341 0.038187 0.365833 0.923687 -0.135468 0.509754 -1.506239 1.691441 0.062474 1.176883 0.042092 0.630736 -1.346869 -0.448268 -0.959757 
kangasovi 0.002301 0.011478 -0.012330 0.002886 0.023874 -0.004580 -0.019977 0.009863 -0.025812 -0.019572 0.026745 -0.012750 -0.000066 0.002943 -0.027153 -0.027495 
lisä 0.296831 -0.877971 0.718605 -0.260865 0.878074 -0.201612 -0.491794 -0.801868 0.959193 -0.038262 0.692972 0.254015 -0.282924 -1.046577 -0.424321 -0.157423 
tiheärakenteinen -0.027915 0.027645 -0.029206 0.006963 -0.023619 -0.014845 -0.004506 0.013823 0.005529 0.030832 0.006907 -0.000098 -0.002056 -0.002562 -0.019453 -0.023754 
itikkaverkkoovi -0.010030 0.014519 0.001323 -0.017776 -0.028281 -0.010330 0.000520 0.026783 0.031238 0.005490 -0.009990 -0.003844 0.029332 0.012599 0.016782 0.009425 
ruoanlaitto -0.210933 -0.272012 0.247442 0.055296 0.079201 -0.236124 -0.117439 -0.197978 0.392925 -0.380858 0.420894 0.060822 0.306204 -0.288630 -0.363026 -0.229654 
vaikka 0.138850 -0.702497 0.874117 0.732404 0.478519 -0.404265 -0.281007 -0.874455 0.628846 0.107626 1.003538 0.240005 0.808779 -1.024356 -0.685386 -0.589694 
kulkeva -0.073425 -0.136861 -0.058563 0.052056 0.129145 -0.185266 -0.072162 0.005903 0.368128 -0.051447 0.111348 -0.049782 0.287078 -0.287528 -0.086336 -0.062800 
koira 0.026500 -0.030035 -0.022242 0.015417 0.020285 0.017798 0.016301 -0.028314 -0.025621 0.015794 -0.002150 0.017249 -0.000275 -0.016208 -0.005893 0.008496 
hyöty 0.025175 0.014308 -0.025659 0.026777 0.024903 0.016168 0.012775 -0.009831 0.029759 0.007308 0.013200 -0.019195 0.028924 -0.001264 -0.018623 0.025280 
järjestellä -0.030520 0.028687 -0.014248 0.012361 0.004224 0.028166 -0.022355 -0.000607 -0.012018 0.005529 0.000327 0.023108 0.004586 0.016698 -0.027919 0.010362 
palokyllästemyrkytön -0.027390 0.016245 0.010352 -0.028017 -0.005649 -0.027729 -0.003727 0.021052 -0.011271 -0.022449 -0.028003 0.017320 0.014280 0.025499 -0.004135 0.028297 
fluorihiiliön 0.013059 -0.017555 0.016533 0.028445 -0.017075 -0.004349 0.012238 -0.029728 -0.012290 0.030732 -0.025647 0.002186 -0.000028 -0.016332 -0.009203 -0.028511 
vähentävä 0.022309 0.028844 0.007794 0.014146 -0.024288 -0.002551 -0.030218 -0.022962 0.024552 -0.007107 0.001495 0.000125 0.012433 -0.028673 -0.026305 -0.021867 
huomio 0.036780 -0.085719 -0.031353 0.153744 0.180214 -0.482981 0.007167 -0.387559 0.420836 -0.198176 0.232983 0.442980 0.193063 0.015780 -0.032290 -0.093637 
herättämätön 0.001807 0.022458 0.008489 -0.009971 -0.019857 0.019020 -0.005761 -0.025978 0.003767 0.022959 -0.019341 -0.016825 0.029049 -0.022717 0.012283 0.015118 
huomattava -0.107873 -0.094595 0.341799 0.144870 0.031159 -0.660710 -0.250687 -0.358033 0.479416 -0.240136 0.322855 0.187612 0.349983 -0.131775 -0.502616 -0.618272 
nelijalkainen -0.023961 0.009670 -0.007864 -0.017877 0.017208 0.030788 -0.023117 0.015986 0.013290 -0.008407 -0.002458 -0.027005 0.018299 -0.013649 0.024926 -0.001452 
ystävä 0.016026 -0.013441 0.006003 0.000571 -0.009710 0.011842 -0.026076 0.030941 -0.004469 -0.003801 0.008970 -0.023583 -0.021055 -0.025362 -0.020934 -0.010536 
varustehylly -0.007626 0.021893 0.006988 0.000675 0.019377 0.004930 0.027107 0.006226 0.022123 0.017237 0.019619 0.026503 -0.016496 -0.001597 0.007293 -0.027225 
kiinnityspiste 0.052328 -0.492522 0.120067 -0.071519 -0.094276 0.304672 0.047235 -0.633397 0.546376 -0.467472 -0.043782 0.061362 0.291958 -0.472535 -0.075725 -0.648165 
minimi 0.014770 -0.010064 -0.005159 0.014697 0.001814 -0.006029 -0.024168 -0.030863 -0.007198 -0.011016 0.003917 0.012535 0.018704 -0.023043 -0.008441 -0.015432 
polyamidi 0.386816 0.267268 0.049892 -0.415148 0.237596 -0.224226 -0.244620 -0.348227 0.823252 -0.941715 0.907172 -0.033892 0.172107 -0.356582 -0.773380 -0.307973 
noseeum -0.020200 0.004740 0.020684 -0.005577 -0.009731 -0.012441 0.031039 0.031240 -0.028752 0.008612 0.026226 -0.021832 -0.020171 0.014044 0.008226 0.024539 
mesh 0.416940 0.350525 0.428776 -0.739504 0.084873 -0.376879 -0.483498 -0.772587 0.376050 -0.301271 0.194191 -0.053549 0.473846 -0.421635 -0.401709 -0.342366 
access -0.058967 -0.412836 0.168058 -0.183273 -0.143203 -0.504185 0.016129 -0.381014 0.248606 -0.170430 0.093883 -0.098933 0.413536 -0.382037 -0.193742 -0.331348 
vaellusteltta -0.074459 -0.353888 0.124277 -0.233024 0.032824 -0.541711 -0.087592 -0.152491 0.188266 -0.055220 0.208620 -0.005081 0.268696 -0.009455 0.133389 -0.256773 
msrltä -0.013606 -0.011492 0.005485 0.017806 0.021206 -0.002927 0.000552 0.010425 -0.029634 0.020127 -0.024415 0.014741 0.010981 0.012197 -0.016359 -0.008502 
runko -0.356147 -0.724384 -0.245460 -0.687197 0.461035 -0.779742 -0.220449 -0.410220 0.989531 -0.318249 -0.079860 -0.288829 0.458230 -0.689150 -0.438695 -0.621468 
lumi -0.314723 -0.808450 0.061211 -0.047347 0.572575 -1.110556 -0.025542 -1.139737 0.713803 -0.299396 0.188740 0.430660 0.158263 0.014662 -0.239626 -0.077159 
keppi 0.273150 -0.434985 -0.064175 -0.126794 0.262978 -0.062729 0.105133 -0.663642 0.569216 0.007430 -0.238569 0.239398 -0.077337 -0.056040 -0.331598 -0.098613 
pakkanen -0.230122 -0.246559 0.016098 -0.302030 0.174778 -0.240945 -0.012711 -0.306158 0.569412 -0.192147 0.365317 0.250453 0.413153 -0.063164 0.067097 0.061313 
ssa 0.026163 -0.201825 0.231713 -0.158977 -0.120107 -0.552305 -0.059402 -0.125795 0.286938 -0.091141 0.245067 -0.043461 0.325890 -0.095395 -0.063151 -0.332938 
vapaa -0.492103 -0.046186 -0.107992 -0.512190 0.307549 -0.304894 -0.397094 -0.354784 0.938645 0.266596 0.426831 0.083142 0.319963 -0.257650 -0.484204 -0.698693 
seisova 0.003747 0.025169 -0.017850 -0.026086 -0.012552 -0.015732 -0.002342 0.016504 0.013415 -0.001695 0.008937 -0.004672 -0.024766 -0.024388 -0.029975 0.020397 
reinsfjell -0.007300 0.026613 -0.021493 -0.005810 -0.021331 0.000514 0.023931 -0.023444 0.008408 -0.026863 -0.004992 -0.014945 0.029600 -0.004229 -0.011551 0.011484 
nimi -0.479311 -0.479143 0.509164 0.041587 -0.036293 -0.558796 -0.088067 -0.558151 0.861643 -0.055930 -0.349819 -0.179999 0.231069 0.190440 0.145443 -0.677405 
mukainen -0.660276 -0.859642 0.233016 -0.237734 0.272669 -0.203470 -0.212529 -0.773543 0.640609 -0.365586 0.221072 -0.297354 -0.162987 0.377038 -0.346226 -0.570474 
absidilla 0.030858 -0.021254 0.021349 -0.024652 -0.001564 -0.003105 0.022126 0.022128 0.008221 0.015941 -0.004875 0.005079 0.024465 -0.030219 0.001420 0.025110 
taipua 0.027297 -0.020909 -0.013202 0.025870 -0.004597 -0.007933 0.023437 -0.005533 0.001425 0.021742 -0.017249 0.006336 -0.000799 -0.019401 0.017394 0.000163 
esimerkki -0.153420 -0.178597 0.445688 -0.003123 0.212490 -0.308439 -0.162656 -0.441882 0.712900 0.317842 -0.096343 -0.123389 0.695601 -0.933829 -0.341819 -0.557745 
absidiin 0.020934 -0.003869 -0.023529 0.003093 0.000286 -0.028472 0.003016 -0.009580 -0.007088 -0.009363 -0.022127 0.024597 -0.020095 0.024829 -0.000278 -0.005622 
säilöä 0.019554 -0.009648 0.003681 0.015449 0.006986 0.006176 0.015568 0.003965 0.012782 0.023533 -0.016837 -0.025982 0.025080 0.027154 -0.016801 0.008143 
kantamus -0.129865 0.012821 0.046692 -0.177931 0.012341 -0.263921 -0.324911 -0.154044 0.475160 -0.057567 0.418608 -0.181020 0.012429 0.192417 0.297720 -0.268955 
kokkailla 0.018215 -0.003018 0.010392 -0.007085 -0.018787 -0.014838 -0.030547 -0.025231 0.002363 -0.014999 -0.006463 0.030051 -0.028211 -0.030584 -0.023067 0.023461 
aamupuuro 0.028127 -0.005467 -0.018023 -0.002354 -0.023413 0.003339 0.025171 0.013103 0.000622 0.019671 0.006962 0.022190 -0.001985 0.025179 -0.007230 0.026942 
iltakaakao 0.027449 0.002618 0.009800 -0.021157 -0.016386 0.020589 -0.015096 0.003057 -0.031231 -0.000793 -0.008521 0.025140 -0.007875 0.025230 0.028877 -0.006624 
väli -0.236492 -0.255374 0.356425 0.039892 0.139685 -0.168240 -0.077086 -0.755468 0.805368 -0.917937 0.798082 0.039503 0.029225 -1.120436 -0.331988 -0.732820 
tulla -0.273132 -1.004661 0.610906 0.284659 0.393043 -0.004250 -0.575499 -0.981527 0.381141 -0.603499 0.408456 -0.062322 0.341204 -0.580751 -0.124373 -0.687125 
vesi -0.403403 -1.791428 0.203610 0.234694 1.727961 -1.632675 -1.598889 -0.920642 2.328022 0.521766 2.866926 0.353616 0.544458 -2.187801 -1.272174 2.319310 
niska 0.011680 0.019124 0.025383 0.015528 0.028399 0.020850 -0.015293 -0.002412 0.007366 -0.021828 0.029336 -0.026841 0.002088 -0.023100 -0.023359 0.002287 
kehikko -0.021777 -0.019708 0.008066 -0.010888 0.002612 -0.011520 -0.007444 -0.009040 -0.021853 -0.016341 0.029681 -0.009880 -0.002096 -0.019821 -0.015006 0.022111 
tehty 0.327858 -0.045066 0.265527 -0.480068 0.516948 -0.384212 -0.534717 -0.620789 0.073384 -0.781019 0.267257 0.522763 0.099125 -0.739519 -0.358795 0.104420 
ennakko 0.002692 -0.018322 0.021096 0.013606 -0.007826 0.029269 0.026034 0.016581 -0.020609 0.001897 -0.006477 0.005545 0.008237 -0.007181 -0.000514 0.027991 
muotoontaivutetuista 0.019034 -0.006869 -0.022931 0.002761 -0.019264 0.012575 -0.002189 0.004840 -0.014485 -0.015770 -0.017232 0.014853 0.004051 0.022425 -0.024421 -0.017523 
telttakaariosa -0.014219 -0.008256 -0.007881 0.007307 -0.025114 0.006569 -0.018369 0.004166 -0.017530 -0.025487 0.020186 -0.017826 0.022680 0.018141 -0.000421 -0.013804 
seinä -0.019581 0.002049 0.010912 0.008338 0.006462 0.000577 -0.008242 -0.012282 0.021915 -0.020855 0.029409 -0.007054 0.012224 0.009516 0.001313 -0.021482 
jyrkkä -0.043573 -0.230442 0.567358 -0.098217 0.143500 -0.142499 0.006297 -0.278327 0.272348 -0.455078 0.302686 0.342480 0.498342 -0.336667 -0.280786 -0.560621 
isota -0.015070 0.016711 -0.016003 -0.027728 0.017664 0.030206 0.002133 0.012788 -0.009762 0.024033 -0.012428 -0.024578 -0.010056 0.011575 -0.016610 -0.016758 
verkkopaneeli 0.015563 -0.016855 -0.026201 -0.025755 -0.021831 0.014068 0.006562 -0.022880 0.024199 -0.014551 0.004819 -0.029383 -0.017775 -0.014611 -0.019528 -0.025380 
huoli 0.074926 0.173090 0.374025 0.147147 -0.015056 -0.166626 0.123611 -0.322339 0.768444 0.026853 -0.046202 0.064174 0.226953 -0.306155 -0.559391 -0.419299 
tiivistyä -0.029497 0.007650 0.022655 -0.030589 0.011724 -0.018998 -0.014849 -0.028049 0.014631 -0.002661 -0.005581 0.004615 0.012845 0.011265 0.025205 0.002270 
mahdoton -0.007031 -0.007661 0.009664 0.020511 -0.013161 0.023978 0.027919 0.008900 -0.008926 0.027276 0.002138 -0.011256 -0.016834 0.002424 0.030214 -0.018201 
ulkoovet -0.014101 0.008678 0.019934 0.015456 0.030128 0.018841 0.027882 0.018428 -0.009936 -0.024046 0.011688 0.001851 -0.001087 0.027594 0.023820 0.005654 
jättää -0.191683 -0.279512 -0.154202 0.011402 0.289801 -0.397784 -0.209919 -0.752254 0.377060 0.023110 -0.004749 0.131922 0.202023 -0.427309 -0.307945 -0.518517 
verkkoovet 0.022650 -0.029620 0.029577 0.030824 -0.015129 0.019719 -0.028793 0.014980 0.001576 -0.003344 -0.010106 -0.016326 0.016889 -0.004521 -0.024770 -0.027334 
hyttynen -0.124122 0.165333 -0.076703 0.034613 -0.101966 -0.171414 0.172957 -0.064573 0.599170 -0.226431 0.036572 0.052668 -0.031840 0.091458 0.082127 -0.358606 
loitolla 0.019081 -0.029761 -0.015060 0.029671 0.028746 -0.005424 -0.026175 -0.013935 -0.028182 -0.029719 -0.013494 -0.002041 -0.006459 -0.029711 0.019670 0.008661 
otettu -0.005810 -0.003005 0.024977 0.004100 0.031096 -0.011280 0.003517 0.024943 -0.021171 0.004929 0.030591 -0.025937 -0.009492 -0.031183 0.010137 -0.020237 
mahdollinen -0.207012 -0.664968 0.467672 -0.541823 0.523960 -1.441990 0.264251 -0.709983 0.676728 0.354949 0.353005 0.977644 0.164809 0.369717 -0.618643 -0.121164 
tasapaino 0.021774 -0.027253 -0.026372 0.001230 -0.013045 -0.011734 -0.004579 -0.005560 -0.006918 -0.010850 0.014221 -0.029199 0.010531 0.019877 0.022054 0.002078 
toimivuus 0.024928 -0.010863 0.025879 -0.014319 0.017197 -0.009386 -0.010791 0.001631 -0.030510 0.021202 0.002650 -0.031129 0.020004 -0.015971 -0.028196 0.010576 
naru -0.167452 -0.670451 0.048446 0.612685 0.221824 0.547871 0.086502 -0.942409 0.749568 -0.907544 0.286600 0.445911 -0.162768 -0.447762 0.083572 -1.056866 
lenksut -0.018441 -0.009823 0.027489 0.020831 -0.022398 -0.000858 0.008382 -0.031085 -0.007895 -0.014327 -0.004550 0.027758 0.019967 -0.030578 -0.010250 -0.025497 
telttamateriaali 0.009585 0.024269 0.007887 0.019566 -0.025011 0.001088 -0.028613 -0.030556 -0.021849 -0.023198 0.026551 0.027479 0.014773 -0.027078 -0.014713 -0.019667 
lopputulos 0.009967 -0.019398 -0.006308 -0.016518 0.007961 0.014910 -0.015197 0.016227 0.027509 0.013237 -0.025662 -0.021502 0.013558 -0.003617 -0.012314 -0.017002 
loistapa -0.006762 0.005663 -0.010257 0.003484 0.002390 -0.030955 0.004946 -0.016467 0.024312 -0.011926 0.021778 -0.001966 -0.028353 0.014895 -0.020750 -0.023481 
painomukavuusyhdistelmä -0.015039 0.010103 0.002061 0.016813 -0.023664 0.000095 -0.007306 0.002216 0.002973 -0.014080 0.031227 0.025389 -0.011946 -0.030982 0.020879 0.012022 
läpivienti 0.001048 -0.000896 -0.009006 0.010502 -0.026109 0.019903 0.026571 0.023630 -0.007610 -0.000968 0.009357 -0.020450 0.022514 0.006566 -0.008424 0.014889 
pystytty 0.029651 0.000689 0.026682 -0.021301 0.023289 0.021105 -0.016852 -0.010419 0.030787 0.000198 0.020624 0.013293 -0.017676 0.014138 0.028052 0.018519 
parantapa 0.003402 0.020830 -0.007123 -0.004330 -0.009619 0.014446 -0.008443 0.009414 0.010711 0.004477 -0.018778 0.005518 -0.002245 0.013362 0.004487 -0.001985 
vakaus 0.089673 0.160136 0.101893 -0.277086 0.129700 -0.397568 -0.254181 -0.225393 0.910902 -0.238534 0.337823 0.108160 0.166626 -0.186713 -0.285584 -0.126119 
äänettömyys 0.009045 0.001792 -0.005455 -0.020460 -0.015264 -0.014426 0.025738 0.004820 0.031230 0.026363 -0.004543 -0.007067 -0.015661 0.025072 -0.012310 -0.027893 
tuulinen -0.001552 -0.009405 0.005034 -0.022200 0.030001 0.018539 -0.000076 -0.012320 -0.010207 -0.017540 0.021033 -0.028293 0.025019 -0.016644 -0.028543 0.026826 
kondensaatio -0.097134 -0.011774 -0.395574 -0.037070 0.226857 -0.027960 0.272187 -0.158834 0.659666 -0.278918 -0.036877 0.108973 -0.048556 -0.414730 -0.277707 -0.327727 
säilytystasku -0.016227 -0.018380 0.009419 -0.007921 -0.018340 -0.030500 -0.026664 -0.005387 -0.023219 -0.021246 0.029385 -0.017491 -0.006428 -0.015074 0.002960 -0.024967 
rainguard® -0.008466 -0.002265 0.014366 -0.022950 -0.010588 0.014631 -0.019089 0.030289 -0.030005 0.030698 -0.030464 -0.018781 0.001609 -0.020751 0.014585 -0.005082 
Pohja 0.263769 0.073721 0.004229 -0.648624 0.924141 0.284465 -0.535746 -1.244486 2.357068 -0.338377 0.012730 0.000678 -0.653414 -0.859551 -0.292509 -0.613800 
pituus -1.071853 -0.674112 -0.441766 0.428173 -0.405541 -0.347625 -0.533228 -1.648908 1.860913 -1.483389 2.054651 0.336864 -0.322556 -1.276354 0.190740 -1.258716 
sis -0.120296 -0.483119 0.143185 -0.218726 0.377384 -0.303061 -0.052659 -0.393863 0.361824 0.082086 0.296183 0.156999 -0.067478 -0.022286 -0.112300 0.153698 
varaosa -0.026761 -0.026873 0.402955 -0.148670 0.073628 -0.303146 -0.104974 -0.305930 0.346537 -0.185470 0.163302 0.281949 0.224577 0.015373 -0.206297 -0.102018 
korjaussarja -0.221620 -0.093532 -0.069709 -0.035098 0.192555 -0.037887 -0.348701 -0.399425 0.596120 -0.487865 0.293542 0.334749 -0.052564 -0.208318 -0.161437 -0.188374 
neula 0.004714 0.018286 0.014614 0.005678 0.027307 -0.025477 -0.011501 0.001568 -0.030793 -0.020973 -0.003160 0.009639 -0.030327 0.020387 0.010110 0.004717 
lanka 0.005991 0.016607 -0.018280 -0.004121 -0.021197 0.015270 0.004461 0.018666 -0.010704 0.013247 0.001498 0.013208 -0.015076 0.002476 -0.030160 -0.009081 
kojausholkki 0.009818 0.027123 -0.012808 -0.022727 -0.013860 -0.000656 0.019063 -0.016641 0.012611 0.001131 0.010116 0.012201 0.003656 0.020617 -0.021214 -0.019565 
freelite 0.015505 0.016835 0.015831 0.010518 -0.005794 0.015847 0.018956 -0.004373 -0.012023 0.008083 -0.001813 -0.011472 0.003225 -0.018062 0.027522 0.007756 
ultralight 0.166074 -0.048500 0.642390 -0.321416 -0.631937 -0.352505 -0.032248 -0.308824 0.627523 0.192274 -0.085313 0.029565 0.273416 0.317065 -0.076278 -0.808492 
super -0.135353 0.277985 0.227918 -0.341597 -0.577158 -0.293209 -0.175697 -0.047719 0.885407 0.073826 0.391195 -0.254068 0.570510 0.182830 -0.003286 -0.637083 
livable -0.025793 -0.014008 0.017891 0.003104 -0.018249 0.000389 0.019044 0.009596 -0.018349 0.009890 0.020496 0.008353 0.012909 0.025651 0.019693 0.022948 
semifreestanding -0.152958 -0.133303 0.137521 -0.003166 0.026870 -0.124522 -0.039899 -0.047509 0.282108 -0.072809 0.173525 -0.059265 0.043274 -0.056312 -0.051634 -0.172026 
for -0.544330 -0.254061 0.763141 0.247965 -0.985384 -1.789947 -0.857740 1.360183 3.927059 0.397221 1.556782 -1.388410 1.759864 0.401497 0.471762 -2.449016 
backpacking 0.004254 0.018195 -0.018163 -0.020790 -0.012604 0.015642 -0.030423 -0.012304 -0.018952 -0.003041 0.027649 -0.005666 0.006225 -0.015491 0.028073 0.025059 
pairs 0.015110 0.020597 -0.029827 0.029749 0.022087 0.013682 0.017021 0.017926 -0.011644 -0.005298 0.030359 -0.005495 0.006690 -0.029280 -0.003011 -0.005640 
lighten -0.023338 -0.010140 -0.002690 0.030487 0.028019 -0.008131 -0.001639 0.013737 -0.004305 -0.008861 -0.016878 0.017675 0.007948 0.008089 -0.016835 0.023203 
your -0.300100 -0.022195 0.586695 -0.212730 -0.301639 -0.840681 -0.093263 -0.186781 1.341302 0.639834 0.127009 -0.326670 0.488303 0.381334 0.372323 -1.024531 
pack -0.438600 -0.565417 1.006512 -0.605639 -0.133019 -1.223889 0.080410 -0.122195 1.302669 0.366168 0.266296 -0.129746 -0.218187 0.144700 0.143647 -1.008901 
without -0.146476 -0.113369 0.141342 -0.097274 0.019991 -0.461355 -0.125631 -0.111433 0.598729 0.023635 0.303588 -0.123164 0.217819 0.104078 -0.047942 -0.340610 
sacrificing -0.016899 -0.020457 0.024432 -0.021259 0.001693 -0.007525 0.023709 0.009319 -0.030786 0.006291 -0.015044 -0.029122 -0.010195 0.008973 -0.008756 0.012702 
with -0.348647 0.436636 0.729119 -0.354449 -0.230767 -1.659408 -0.359944 0.717960 2.942963 -0.766052 1.062750 -0.619959 0.423740 0.320292 -0.337973 -1.236690 
designed -0.006542 -0.000657 -0.027283 0.000561 0.027542 -0.014734 0.007403 -0.010761 -0.008480 0.003107 -0.020851 -0.014406 0.024918 -0.027273 -0.000287 0.017757 
people -0.027352 -0.028351 -0.003825 -0.026704 0.030923 0.001876 0.010316 0.006932 0.010073 0.021637 0.008667 0.021784 0.005913 0.023462 -0.005245 -0.017351 
WHO 0.012346 0.006057 0.016704 -0.003956 0.007665 0.025772 -0.000490 -0.020082 0.000282 -0.023189 -0.002360 -0.001167 0.012873 0.024656 0.026370 0.019621 
want -0.026547 -0.007858 0.005151 0.022070 -0.019645 -0.003157 0.016541 0.028357 0.003679 -0.016721 0.004312 -0.018291 -0.007300 0.019762 -0.006479 0.006239 
to 0.022086 -0.196851 0.857227 -1.656459 -1.471412 -2.366582 -0.762411 -1.135315 3.249781 1.493525 1.716662 -0.308901 1.768684 0.837840 -0.245224 -2.513858 
most 0.000446 -0.128104 0.056836 -0.004693 0.071013 -0.002326 -0.032886 -0.102373 0.390219 0.044124 0.181754 -0.044435 0.104182 -0.068980 -0.007579 -0.195848 
their 0.006646 0.007518 -0.028445 0.025477 -0.028051 0.005695 -0.028645 -0.009233 0.026766 -0.018372 0.004029 -0.022700 0.008621 0.002538 0.006423 -0.010509 
threeseason -0.009198 -0.005993 -0.020299 0.007594 0.026172 -0.012887 -0.006483 0.012414 -0.023099 0.011516 0.005200 -0.009007 0.014868 -0.004226 0.024434 -0.005507 
adventures -0.018652 -0.008872 -0.013189 -0.028106 0.012978 -0.015074 -0.014999 -0.004274 -0.008804 -0.026920 0.005224 0.016028 0.018338 0.002182 0.011253 0.031057 
being -0.021814 0.028381 -0.017385 0.003468 0.024906 0.010203 -0.006193 0.011538 0.023423 -0.006480 -0.028773 -0.005846 -0.023554 -0.020537 0.013774 0.023905 
weighed 0.027430 0.010307 -0.027129 0.001020 -0.026188 -0.002736 0.001692 -0.030528 -0.000282 0.013835 0.018144 0.009232 -0.002988 -0.003365 -0.002667 -0.025216 
down -0.674916 -0.203525 0.481859 -0.943540 0.015814 -0.838245 -0.706749 0.270233 0.411556 -0.065467 1.234106 -0.056146 0.339191 0.691850 0.207079 -0.687536 
by -0.114903 -0.172833 0.408076 -0.158778 -0.184548 -0.722799 -0.184994 -0.015589 0.847343 0.175345 0.476793 -0.058365 0.180065 0.175191 -0.109129 -0.473635 
gear -0.196375 -0.256521 0.305932 -0.062082 0.244818 -0.842835 -0.291895 -0.467851 0.874505 -0.187085 0.364315 0.071373 0.350101 -0.176234 -0.223768 -0.616174 
inside -0.239260 -0.181651 0.169142 -0.101615 0.007070 -0.350299 -0.047680 0.013034 0.491408 -0.043817 0.395893 -0.090339 0.100443 0.098395 -0.035589 -0.325915 
oz -0.884725 -0.481569 -0.040076 -0.674279 0.034874 -0.371725 -0.893812 0.081941 0.852721 -0.422987 1.653682 -0.289943 -0.411565 -0.099327 -0.277615 -0.509494 
lighter 0.006727 0.027341 -0.007342 0.009548 0.006186 0.023914 -0.016622 -0.007193 -0.002348 0.015616 -0.024893 0.011419 -0.025809 -0.025760 0.013585 -0.024962 
than 0.013652 -0.001876 -0.008880 -0.020752 0.002464 0.015744 -0.018159 -0.012794 -0.011936 -0.014119 0.007844 -0.012580 -0.017761 0.011234 -0.014747 -0.009419 
previous 0.002220 0.023441 -0.028831 -0.004528 -0.011323 0.025677 -0.028155 0.020271 0.007834 0.022850 0.020633 0.015515 -0.004185 -0.010521 -0.020005 0.016415 
IT -0.473988 -0.209520 0.483384 -0.410213 0.042389 -0.554299 -0.235817 0.129139 1.461200 0.301494 0.586365 -0.425493 0.468718 0.457016 -0.038588 -0.719333 
still -0.012199 0.011328 -0.007797 -0.008515 0.023092 -0.001976 0.010121 -0.012118 0.000030 -0.013975 0.018067 0.024609 -0.004032 -0.006388 0.024083 0.029485 
has -0.006725 0.002972 -0.000279 -0.006813 -0.013305 0.016504 0.026527 -0.020394 0.009179 0.014712 0.028842 -0.002219 -0.021686 -0.014189 -0.013979 -0.014048 
